{"learner":{"attributes":{},"feature_names":[],"feature_types":[],"gradient_booster":{"model":{"gbtree_model_param":{"num_parallel_tree":"1","num_trees":"100"},"iteration_indptr":[0,1,2,3,4,5,6,7,8,9,10,11,12,13,14,15,16,17,18,19,20,21,22,23,24,25,26,27,28,29,30,31,32,33,34,35,36,37,38,39,40,41,42,43,44,45,46,47,48,49,50,51,52,53,54,55,56,57,58,59,60,61,62,63,64,65,66,67,68,69,70,71,72,73,74,75,76,77,78,79,80,81,82,83,84,85,86,87,88,89,90,91,92,93,94,95,96,97,98,99,100],"tree_info":[0,0,0,0,0,0,0,0,0,0,0,0,0,0,0,0,0,0,0,0,0,0,0,0,0,0,0,0,0,0,0,0,0,0,0,0,0,0,0,0,0,0,0,0,0,0,0,0,0,0,0,0,0,0,0,0,0,0,0,0,0,0,0,0,0,0,0,0,0,0,0,0,0,0,0,0,0,0,0,0,0,0,0,0,0,0,0,0,0,0,0,0,0,0,0,0,0,0,0,0],"trees":[{"base_weights":[-3.8739145E-4,-7.326447E-1,5.215899E-1,-1.3998438E0,6.2596047E-1,-2.2309777E-1,9.900265E-1,-1.6524131E0,-7.221104E-1,1.2541042E-1,1.178725E0,-4.483679E-1,8.5640234E-1,6.556661E-1,1.3282036E0,-2.7551922E-1,-1.153327E0,1.662289E-1,-9.253228E-1,1.7493258E-1,-0E0,1.1545302E-1,1.318814E0,-1.1208584E0,-1.2586421E-1,-0E0,1.029001E0,2.527003E-1,4.6253228E-1,-0E0,1.9475637E-1,-1.749755E-1,-0E0,-1.2267425E0,-4.8269024E-1,-2.376976E-1,2.917325E-1,4.0771782E-2,-0E0,2.0055476E-1,2.0650725E-4,-2.9492798E-1,-1.451669E0,-4.415111E-1,1.1478046E-1,-0E0,1.6555223E-1,-8.726242E-2,7.4790746E-1,-1.8845233E-1,-0E0,1.8247731E-1,-1.4893492E-1,-0E0,-7.506316E-2,1.5034012E-1,-0E0,-9.709242E-2,-0E0,-2.3190832E-1,-7.466962E-3,1.5230696E-1,-9.405176E-2,-1.7571444E-2,6.0780983E-2,-5.1490903E-2,1.10298E-1,1.378443E-1,-0E0],"categories":[],"categories_nodes":[],"categories_segments":[],"categories_sizes":[],"default_left":[0,0,0,0,0,0,0,0,0,0,0,0,0,0,0,0,0,0,0,0,0,0,0,0,0,0,0,0,0,0,0,0,0,0,0,0,0,0,0,0,0,0,0,0,0,0,0,0,0,0,0,0,0,0,0,0,0,0,0,0,0,0,0,0,0,0,0,0,0],"id":0,"left_children":[1,3,5,7,9,11,13,15,17,19,21,23,25,27,29,-1,31,-1,33,-1,35,37,39,41,43,-1,45,-1,47,-1,-1,-1,-1,49,51,53,55,-1,-1,-1,-1,57,59,61,63,-1,-1,65,67,-1,-1,-1,-1,-1,-1,-1,-1,-1,-1,-1,-1,-1,-1,-1,-1,-1,-1,-1,-1],"loss_changes":[1.0144019E3,1.01521344E3,5.4445856E2,1.041709E2,8.975777E1,1.4229768E2,8.821289E1,3.518042E1,8.641552E1,2.7779394E1,1.2491364E1,9.757479E1,1.9561264E1,8.4754715E1,4.5758057E0,0E0,1.1233826E1,0E0,1.108728E1,0E0,1.324886E1,1.1559467E0,2.1743774E0,2.6049927E1,2.9391476E1,0E0,4.2749634E0,0E0,7.407789E1,0E0,0E0,0E0,0E0,4.1707916E0,1.0055376E2,1.0470204E1,1.1501287E1,0E0,0E0,0E0,0E0,6.2584605E0,8.711761E0,5.2386654E1,1.6235367E1,0E0,0E0,3.0954735E1,4.352791E1,0E0,0E0,0E0,0E0,0E0,0E0,0E0,0E0,0E0,0E0,0E0,0E0,0E0,0E0,0E0,0E0,0E0,0E0,0E0,0E0],"parents":[2147483647,0,0,1,1,2,2,3,3,4,4,5,5,6,6,7,7,8,8,9,9,10,10,11,11,12,12,13,13,14,14,16,16,18,18,20,20,21,21,22,22,23,23,24,24,26,26,28,28,33,33,34,34,35,35,36,36,41,41,42,42,43,43,44,44,47,47,48,48],"right_children":[2,4,6,8,10,12,14,16,18,20,22,24,26,28,30,-1,32,-1,34,-1,36,38,40,42,44,-1,46,-1,48,-1,-1,-1,-1,50,52,54,56,-1,-1,-1,-1,58,60,62,64,-1,-1,66,68,-1,-1,-1,-1,-1,-1,-1,-1,-1,-1,-1,-1,-1,-1,-1,-1,-1,-1,-1,-1],"split_conditions":[-4.46856E-1,1.9676678E-1,-2.122678E-1,-4.5404255E-1,1.5284455E0,1.9676678E-1,6.3536155E-1,-7.9529697E-1,-1.3612412E-1,5.1921886E-1,-5.697332E-1,-1.0339853E0,-1.1030772E0,-9.6143894E-2,-4.1958648E-1,-2.7551922E-1,1.8445375E0,1.662289E-1,-1.3587911E-1,1.7493258E-1,8.793381E-1,-2.1693203E-1,2.2150049E-2,-7.2724235E-1,2.6997614E-1,-0E0,-3.7725285E-1,2.527003E-1,-7.3864214E-2,-0E0,1.9475637E-1,-1.749755E-1,-0E0,7.184883E-1,1.9154736E-1,8.4689033E-1,1.1745619E0,4.0771782E-2,-0E0,2.0055476E-1,2.0650725E-4,-8.953211E-1,-1.3802397E-1,-9.6143894E-2,-5.459687E-1,-0E0,1.6555223E-1,1.1924679E0,6.273837E-1,-1.8845233E-1,-0E0,1.8247731E-1,-1.4893492E-1,-0E0,-7.506316E-2,1.5034012E-1,-0E0,-9.709242E-2,-0E0,-2.3190832E-1,-7.466962E-3,1.5230696E-1,-9.405176E-2,-1.7571444E-2,6.0780983E-2,-5.1490903E-2,1.10298E-1,1.378443E-1,-0E0],"split_indices":[2,4,15,4,4,4,2,2,4,4,13,15,13,2,7,0,15,0,4,0,4,16,7,16,2,0,8,0,2,0,0,0,0,15,4,4,4,0,0,0,0,13,9,2,5,0,0,4,2,0,0,0,0,0,0,0,0,0,0,0,0,0,0,0,0,0,0,0,0],"split_type":[0,0,0,0,0,0,0,0,0,0,0,0,0,0,0,0,0,0,0,0,0,0,0,0,0,0,0,0,0,0,0,0,0,0,0,0,0,0,0,0,0,0,0,0,0,0,0,0,0,0,0,0,0,0,0,0,0,0,0,0,0,0,0,0,0,0,0,0,0],"sum_hessian":[2.641E3,1.10475E3,1.53625E3,7.4475E2,3.6E2,5.875E2,9.4875E2,5.295E2,2.1525E2,1.9925E2,1.6075E2,4.9425E2,9.325E1,4.9525E2,4.535E2,3.3E2,1.995E2,1.525E1,2E2,1.675E1,1.825E2,2.625E1,1.345E2,1.4875E2,3.455E2,1.15E1,8.175E1,6.275E1,4.325E2,1.3E1,4.405E2,1.8725E2,1.225E1,1.0375E2,9.625E1,1.01E2,8.15E1,1.525E1,1.1E1,1.215E2,1.3E1,5.175E1,9.7E1,1.6225E2,1.8325E2,1.375E1,6.8E1,1.3925E2,2.9325E2,9.325E1,1.05E1,1.825E1,7.8E1,4.475E1,5.625E1,1.3E1,6.85E1,2.025E1,3.15E1,8.15E1,1.55E1,1.325E1,1.49E2,9.025E1,9.3E1,1.1475E2,2.45E1,2.2525E2,6.8E1],"tree_param":{"num_deleted":"0","num_feature":"17","num_nodes":"69","size_leaf_vector":"1"}},{"base_weights":[-0E0,-6.4238286E-1,4.59793E-1,-1.2334539E0,5.616841E-1,-1.6669221E-1,8.539563E-1,-1.4457439E0,-6.5108126E-1,7.307067E-2,9.309111E-1,2.1444066E-1,-3.0022115E-1,6.192906E-1,1.204672E0,-2.4076533E-1,-1.0077459E0,1.4683524E-1,-8.3563E-1,1.6311187E-1,-3.307904E-2,4.902844E-2,1.0702947E0,-9.489519E-1,-0E0,8.75611E-1,1.3123372E-1,-0E0,1.7678724E-1,-1.6406731E-1,-2.3468165E-1,-1.57542E-1,-4.3733683E-1,-6.4550236E-2,2.5500774E-2,-0E0,4.4930264E-2,1.6277613E-1,-0E0,-1.6348839E-1,-0E0,-3.0230096E-1,4.2873207E-1,2.2129154E-1,7.0338523E-1,-3.6282894E-1,3.30294E-1,7.463793E-5,-8.230662E-2,1.5634559E-1,-1.3064344E-1,1.5421848E-1,-1.0863491E-2,6.074228E-3,-2.3489602E-2,-7.72423E-2,2.9818334E-2,2.7189082E-2,1.4689876E-1,5.926507E-3,1.3579787E-1,-1.0631353E-1,7.667762E-4,5.8187917E-4,1.0198207E-1],"categories":[],"categories_nodes":[],"categories_segments":[],"categories_sizes":[],"default_left":[0,0,0,0,0,0,0,0,0,0,0,0,0,0,0,0,0,0,0,0,0,0,0,0,0,0,0,0,0,0,0,0,0,0,0,0,0,0,0,0,0,0,0,0,0,0,0,0,0,0,0,0,0,0,0,0,0,0,0,0,0,0,0,0,0],"id":1,"left_children":[1,3,5,7,9,11,13,15,17,19,21,-1,23,25,27,-1,29,-1,31,-1,33,35,37,39,41,43,45,-1,-1,-1,47,-1,49,-1,51,-1,-1,-1,-1,-1,53,55,57,-1,59,61,63,-1,-1,-1,-1,-1,-1,-1,-1,-1,-1,-1,-1,-1,-1,-1,-1,-1,-1],"loss_changes":[7.776864E2,7.9142566E2,3.8409894E2,7.120923E1,5.679348E1,1.2211322E2,6.0292236E1,2.3767578E1,6.891186E1,2.7940098E1,1.4921814E1,0E0,1.0684322E2,6.534631E1,3.9498901E0,0E0,8.412811E0,0E0,6.4243164E0,0E0,7.0894613E0,2.1439524E0,4.4861755E0,2.8970963E1,4.9946205E1,2.0212616E1,2.1798983E1,0E0,0E0,0E0,7.9988003E0,0E0,7.309037E1,0E0,2.0882011E1,0E0,0E0,0E0,0E0,0E0,4.335876E-1,3.0106308E1,1.2064989E1,0E0,4.1877533E1,1.3232559E1,1.522661E1,0E0,0E0,0E0,0E0,0E0,0E0,0E0,0E0,0E0,0E0,0E0,0E0,0E0,0E0,0E0,0E0,0E0,0E0],"parents":[2147483647,0,0,1,1,2,2,3,3,4,4,5,5,6,6,7,7,8,8,9,9,10,10,12,12,13,13,14,14,16,16,18,18,20,20,21,21,22,22,23,23,24,24,25,25,26,26,30,30,32,32,34,34,40,40,41,41,42,42,44,44,45,45,46,46],"right_children":[2,4,6,8,10,12,14,16,18,20,22,-1,24,26,28,-1,30,-1,32,-1,34,36,38,40,42,44,46,-1,-1,-1,48,-1,50,-1,52,-1,-1,-1,-1,-1,54,56,58,-1,60,62,64,-1,-1,-1,-1,-1,-1,-1,-1,-1,-1,-1,-1,-1,-1,-1,-1,-1,-1],"split_conditions":[-4.46856E-1,1.9676678E-1,-2.122678E-1,-4.5404255E-1,1.1924679E0,-9.6143894E-2,1.003956E0,-7.9529697E-1,-1.3612412E-1,5.1921886E-1,-6.0074157E-1,2.1444066E-1,-1.0339853E0,3.629369E-1,-2.746417E-1,-2.4076533E-1,7.184883E-1,1.4683524E-1,-1.3587911E-1,1.6311187E-1,5.7710683E-1,4.3809405E-3,1.3345363E0,2.9778376E-3,-5.587539E-1,-9.6143894E-2,-7.3864214E-2,-0E0,1.7678724E-1,-1.6406731E-1,-6.8186754E-1,-1.57542E-1,1.9154736E-1,-6.4550236E-2,8.4689033E-1,-0E0,4.4930264E-2,1.6277613E-1,-0E0,-1.6348839E-1,8.960751E-1,1.4016896E0,1.1924679E0,2.2129154E-1,-7.3864214E-2,-4.5404255E-1,7.184883E-1,7.463793E-5,-8.230662E-2,1.5634559E-1,-1.3064344E-1,1.5421848E-1,-1.0863491E-2,6.074228E-3,-2.3489602E-2,-7.72423E-2,2.9818334E-2,2.7189082E-2,1.4689876E-1,5.926507E-3,1.3579787E-1,-1.0631353E-1,7.667762E-4,5.8187917E-4,1.0198207E-1],"split_indices":[2,4,15,4,4,2,2,2,4,4,13,0,15,6,7,0,15,0,4,0,4,1,14,5,9,2,2,0,0,0,7,0,4,0,4,0,0,0,0,0,1,2,4,0,2,4,15,0,0,0,0,0,0,0,0,0,0,0,0,0,0,0,0,0,0],"split_type":[0,0,0,0,0,0,0,0,0,0,0,0,0,0,0,0,0,0,0,0,0,0,0,0,0,0,0,0,0,0,0,0,0,0,0,0,0,0,0,0,0,0,0,0,0,0,0,0,0,0,0,0,0,0,0,0,0,0,0,0,0,0,0,0,0],"sum_hessian":[2.6225715E3,1.0960643E3,1.5265071E3,7.3954443E2,3.565199E2,5.826603E2,9.438468E2,5.2729315E2,2.1225131E2,1.6495488E2,1.9156502E2,3.5809555E1,5.468507E2,5.8619666E2,3.5765015E2,3.284767E2,1.9881645E2,1.4896854E1,1.9735445E2,1.811109E1,1.4684378E2,3.4743767E1,1.5682124E2,1.6953079E2,3.7731992E2,3.7140228E2,2.1479437E2,1.0205241E1,3.4744492E2,1.5952586E2,3.9290585E1,1.0317474E2,9.41797E1,3.15E1,1.1534378E2,1.5997299E1,1.874647E1,1.4391864E2,1.2902612E1,1.3987637E2,2.9654417E1,2.2274422E2,1.5457568E2,6.0282497E1,3.1111978E2,4.9170048E1,1.6562433E2,1.1685271E1,2.7605312E1,1.6859264E1,7.732044E1,1.35E1,1.0184378E2,1.9179405E1,1.0475013E1,1.6326912E2,5.9475105E1,1.2351155E2,3.1064135E1,9.263991E1,2.1847987E2,3.297057E1,1.6199476E1,1.024748E2,6.314953E1],"tree_param":{"num_deleted":"0","num_feature":"17","num_nodes":"65","size_leaf_vector":"1"}},{"base_weights":[-0E0,-5.607369E-1,3.9711E-1,-1.0840461E0,4.911508E-1,-1.6614006E-1,7.557402E-1,-1.2953107E0,-5.289208E-1,9.664278E-2,9.239616E-1,-3.7357E-1,6.8157685E-1,4.8555607E-1,1.0283133E0,-2.1706162E-1,-8.8975555E-1,1.3525435E-1,-6.978507E-1,1.4445291E-1,-0E0,-0E0,9.7655666E-1,-8.952898E-1,-1.2203911E-1,-0E0,8.0953103E-1,7.2597575E-1,-0E0,6.687554E-1,1.2099972E0,-1.4638866E-1,-1.7495042E-1,-7.5891715E-1,-0E0,5.6565113E-2,-9.889623E-2,1.0376736E0,-0E0,-0E0,-1.0953552E0,-6.159657E-1,-0E0,-0E0,1.2666138E-1,1.9719552E-1,5.519371E-1,-1.6759382E-1,9.662931E-2,-0E0,7.3824507E-1,1.792842E-1,-0E0,-0E0,-1.1109467E-1,-1.2772238E-1,-1.2848879E-2,-1.6380519E-2,5.405338E-2,1.5859382E-1,-0E0,-0E0,-4.8683017E-2,-1.7514385E-1,-0E0,1.0998428E-1,-1.5244946E-1,-3.545883E-2,3.252174E-2,2.0662926E-2,1.1948872E-1,-5.2000534E-2,5.3292E-3,1.1691849E-1,-0E0],"categories":[],"categories_nodes":[],"categories_segments":[],"categories_sizes":[],"default_left":[0,0,0,0,0,0,0,0,0,0,0,0,0,0,0,0,0,0,0,0,0,0,0,0,0,0,0,0,0,0,0,0,0,0,0,0,0,0,0,0,0,0,0,0,0,0,0,0,0,0,0,0,0,0,0,0,0,0,0,0,0,0,0,0,0,0,0,0,0,0,0,0,0,0,0],"id":2,"left_children":[1,3,5,7,9,11,13,15,17,19,21,23,25,27,29,-1,31,-1,33,-1,35,-1,37,39,41,-1,43,45,47,49,51,-1,53,55,-1,57,-1,59,-1,61,63,65,67,-1,-1,-1,69,71,-1,-1,73,-1,-1,-1,-1,-1,-1,-1,-1,-1,-1,-1,-1,-1,-1,-1,-1,-1,-1,-1,-1,-1,-1,-1,-1],"loss_changes":[5.781714E2,5.993855E2,3.1241125E2,6.7549255E1,5.2161522E1,1.017516E2,5.4906555E1,1.8899536E1,5.479884E1,1.975862E1,3.3190613E0,5.4600906E1,1.4136726E1,5.982814E1,1.0863098E1,0E0,7.6048126E0,0E0,7.78286E0,0E0,8.669733E0,0E0,8.93631E-1,1.9076836E1,2.3493382E1,0E0,3.568924E0,1.8849106E1,1.7405418E1,8.356247E0,1.7562256E0,0E0,8.674193E0,7.620842E0,0E0,1.1489104E1,0E0,1.8290405E0,0E0,1.6476307E0,6.0462036E0,5.1663223E1,1.5079152E1,0E0,0E0,0E0,2.345736E1,8.09514E0,0E0,0E0,4.408882E0,0E0,0E0,0E0,0E0,0E0,0E0,0E0,0E0,0E0,0E0,0E0,0E0,0E0,0E0,0E0,0E0,0E0,0E0,0E0,0E0,0E0,0E0,0E0,0E0],"parents":[2147483647,0,0,1,1,2,2,3,3,4,4,5,5,6,6,7,7,8,8,9,9,10,10,11,11,12,12,13,13,14,14,16,16,18,18,20,20,22,22,23,23,24,24,26,26,27,27,28,28,29,29,30,30,32,32,33,33,35,35,37,37,39,39,40,40,41,41,42,42,46,46,47,47,50,50],"right_children":[2,4,6,8,10,12,14,16,18,20,22,24,26,28,30,-1,32,-1,34,-1,36,-1,38,40,42,-1,44,46,48,50,52,-1,54,56,-1,58,-1,60,-1,62,64,66,68,-1,-1,-1,70,72,-1,-1,74,-1,-1,-1,-1,-1,-1,-1,-1,-1,-1,-1,-1,-1,-1,-1,-1,-1,-1,-1,-1,-1,-1,-1,-1],"split_conditions":[-4.46856E-1,1.9676678E-1,-2.122678E-1,-4.5404255E-1,1.5284455E0,1.7741086E-2,6.3536155E-1,-7.9529697E-1,-1.3612412E-1,5.1921886E-1,-1.1286544E0,-1.0339853E0,-1.1813965E0,3.629369E-1,4.3809405E-3,-2.1706162E-1,7.184883E-1,1.3525435E-1,1.1919024E0,1.4445291E-1,9.9203557E-1,-0E0,1.3130305E0,-1.066738E0,-7.3864214E-2,-0E0,-7.715953E-1,-9.6143894E-2,1.6997952E0,-1.3885682E0,9.841868E-1,-1.4638866E-1,-5.4942798E-2,-7.9529697E-1,-0E0,8.793381E-1,-9.889623E-2,-2.2806537E-3,-0E0,8.843921E-2,-1.3802397E-1,-9.6143894E-2,4.3809405E-3,-0E0,1.2666138E-1,1.9719552E-1,1.0267925E-2,2.6997614E-1,9.662931E-2,-0E0,9.9203557E-1,1.792842E-1,-0E0,-0E0,-1.1109467E-1,-1.2772238E-1,-1.2848879E-2,-1.6380519E-2,5.405338E-2,1.5859382E-1,-0E0,-0E0,-4.8683017E-2,-1.7514385E-1,-0E0,1.0998428E-1,-1.5244946E-1,-3.545883E-2,3.252174E-2,2.0662926E-2,1.1948872E-1,-5.2000534E-2,5.3292E-3,1.1691849E-1,-0E0],"split_indices":[2,4,15,4,4,4,2,2,4,4,12,15,13,6,1,0,15,0,15,0,0,0,14,16,2,0,7,2,5,14,10,0,6,2,0,4,0,7,0,11,9,2,1,0,0,0,2,2,0,0,0,0,0,0,0,0,0,0,0,0,0,0,0,0,0,0,0,0,0,0,0,0,0,0,0],"split_type":[0,0,0,0,0,0,0,0,0,0,0,0,0,0,0,0,0,0,0,0,0,0,0,0,0,0,0,0,0,0,0,0,0,0,0,0,0,0,0,0,0,0,0,0,0,0,0,0,0,0,0,0,0,0,0,0,0,0,0,0,0,0,0,0,0,0,0,0,0,0,0,0,0,0,0],"sum_hessian":[2.5882502E3,1.0718667E3,1.5163834E3,7.207486E2,3.5111807E2,5.8214667E2,9.3423676E2,5.0752582E2,2.132228E2,1.9606577E2,1.550523E2,4.7718484E2,1.0496182E2,4.8984634E2,4.443904E2,3.1339792E2,1.941279E2,1.5126333E1,1.9809645E2,1.7252413E1,1.7881335E2,1.3220017E1,1.4183229E2,1.4134656E2,3.358383E2,1.0232633E1,9.4729195E1,3.3027805E2,1.595683E2,1.7063272E2,2.737577E2,1.5403098E2,4.0096916E1,1.8035123E2,1.7745232E1,1.6583575E2,1.29776E1,1.2595765E2,1.5874641E1,3.2438828E1,1.0890773E2,7.099143E1,2.6484686E2,1.0375842E1,8.435335E1,5.4387585E1,2.7589047E2,1.3375142E2,2.5816881E1,1.6046236E1,1.5458649E2,2.599285E2,1.3829194E1,2.7491388E1,1.2605529E1,1.403858E2,3.996543E1,9.354723E1,7.228852E1,1.13048134E2,1.2909512E1,2.2277758E1,1.0161071E1,9.177634E1,1.7131395E1,1.2088922E1,5.890251E1,1.16220215E2,1.4862665E2,1.25755035E2,1.5013544E2,8.7155426E1,4.659599E1,1.3398933E2,2.0597157E1],"tree_param":{"num_deleted":"0","num_feature":"17","num_nodes":"75","size_leaf_vector":"1"}},{"base_weights":[8.117569E-3,-4.834988E-1,3.5426372E-1,-9.5728093E-1,4.236781E-1,-1.4033614E-1,6.712141E-1,-1.15889E0,-4.4265637E-1,7.826018E-2,8.160308E-1,1.8293355E-1,-2.546516E-1,3.270505E-1,8.755039E-1,-1.9987378E-1,-7.449061E-1,1.2804751E-1,-6.0957986E-1,1.22322746E-1,-0E0,1.4874316E-2,1.3158296E-1,-7.8029877E-1,-6.874772E-3,-2.0858128E-2,5.449246E-1,9.433217E-1,1.698196E-1,-1.51587E-1,-1.2649614E-1,-7.3811823E-1,-0E0,-1.9367902E-1,2.3929015E-1,-0E0,1.912024E-2,-9.2265135E-1,-0E0,-3.6169505E-1,2.1240771E-1,1.0410064E-1,-2.0473751E-1,5.8286875E-1,-0E0,-0E0,9.7280806E-1,-0E0,3.250608E-1,-6.0268443E-2,1.300427E-2,-0E0,-1.1431282E-1,-3.681887E-2,4.5598656E-4,-0E0,-6.278898E-2,1.4089873E-1,-0E0,-1.8987278E-2,-1.5263343E-1,-4.510848E-3,-0E0,-7.7140786E-2,3.5322148E-3,-1.721983E-2,5.8281973E-2,-5.862263E-2,-0E0,-0E0,8.929298E-2,1.2138233E-2,1.4573304E-1,-1.524964E-2,-0E0,6.877736E-2,-0E0],"categories":[],"categories_nodes":[],"categories_segments":[],"categories_sizes":[],"default_left":[0,0,0,0,0,0,0,0,0,0,0,0,0,0,0,0,0,0,0,0,0,0,0,0,0,0,0,0,0,0,0,0,0,0,0,0,0,0,0,0,0,0,0,0,0,0,0,0,0,0,0,0,0,0,0,0,0,0,0,0,0,0,0,0,0,0,0,0,0,0,0,0,0,0,0,0,0],"id":3,"left_children":[1,3,5,7,9,11,13,15,17,19,21,-1,23,25,27,-1,29,-1,31,-1,33,35,-1,37,39,41,43,45,47,49,-1,51,53,55,57,-1,-1,59,61,63,65,-1,67,69,-1,-1,71,73,75,-1,-1,-1,-1,-1,-1,-1,-1,-1,-1,-1,-1,-1,-1,-1,-1,-1,-1,-1,-1,-1,-1,-1,-1,-1,-1,-1,-1],"loss_changes":[4.291384E2,4.508261E2,2.3866368E2,5.630786E1,4.0336292E1,8.622788E1,5.3895966E1,2.384845E1,4.707261E1,1.271978E1,4.476074E0,0E0,6.432777E1,3.1835022E1,1.7259766E1,0E0,6.3490906E0,0E0,1.026931E1,0E0,8.874989E0,3.1255916E-1,0E0,1.4560814E1,3.1333412E1,1.4307336E1,6.287346E0,1.2916626E1,2.4248133E0,6.081878E0,0E0,3.906372E0,1.7741132E0,7.6612253E0,1.2975485E1,0E0,0E0,4.3546143E0,2.2869531E-2,1.4975342E1,1.6854404E1,0E0,6.7846694E0,4.174202E0,0E0,0E0,7.3833923E0,1.8040973E-1,2.0438938E0,0E0,0E0,0E0,0E0,0E0,0E0,0E0,0E0,0E0,0E0,0E0,0E0,0E0,0E0,0E0,0E0,0E0,0E0,0E0,0E0,0E0,0E0,0E0,0E0,0E0,0E0,0E0,0E0],"parents":[2147483647,0,0,1,1,2,2,3,3,4,4,5,5,6,6,7,7,8,8,9,9,10,10,12,12,13,13,14,14,16,16,18,18,20,20,21,21,23,23,24,24,25,25,26,26,27,27,28,28,29,29,31,31,32,32,33,33,34,34,37,37,38,38,39,39,40,40,42,42,43,43,46,46,47,47,48,48],"right_children":[2,4,6,8,10,12,14,16,18,20,22,-1,24,26,28,-1,30,-1,32,-1,34,36,-1,38,40,42,44,46,48,50,-1,52,54,56,58,-1,-1,60,62,64,66,-1,68,70,-1,-1,72,74,76,-1,-1,-1,-1,-1,-1,-1,-1,-1,-1,-1,-1,-1,-1,-1,-1,-1,-1,-1,-1,-1,-1,-1,-1,-1,-1,-1,-1],"split_conditions":[-4.46856E-1,1.9676678E-1,-2.122678E-1,-4.5404255E-1,1.5284455E0,-9.6143894E-2,-5.459687E-1,-7.9529697E-1,-1.3612412E-1,5.1921886E-1,-5.697332E-1,1.8293355E-1,-1.0339853E0,2.6997614E-1,9.926658E-1,-1.9987378E-1,-7.508889E-1,1.2804751E-1,5.644987E-1,1.22322746E-1,8.793381E-1,4.3809405E-3,1.3158296E-1,2.9778376E-3,-5.459687E-1,-9.6143894E-2,9.841868E-1,-6.499964E-1,3.8327765E-2,7.184883E-1,-1.2649614E-1,-1.1677036E0,-7.9529697E-1,8.4689033E-1,1.1745619E0,-0E0,1.912024E-2,-1.066738E0,-7.050488E-16,1.4016896E0,1.0267925E-2,1.0410064E-1,-7.3864214E-2,-1.5348057E0,-0E0,-0E0,-9.418337E-1,4.3457264E-1,1.31803E0,-6.0268443E-2,1.300427E-2,-0E0,-1.1431282E-1,-3.681887E-2,4.5598656E-4,-0E0,-6.278898E-2,1.4089873E-1,-0E0,-1.8987278E-2,-1.5263343E-1,-4.510848E-3,-0E0,-7.7140786E-2,3.5322148E-3,-1.721983E-2,5.8281973E-2,-5.862263E-2,-0E0,-0E0,8.929298E-2,1.2138233E-2,1.4573304E-1,-1.524964E-2,-0E0,6.877736E-2,-0E0],"split_indices":[2,4,15,4,4,2,5,2,4,4,13,0,15,2,10,0,7,0,16,0,4,1,0,5,5,2,10,3,7,15,0,12,2,4,4,0,0,16,13,2,2,0,2,14,0,0,13,11,6,0,0,0,0,0,0,0,0,0,0,0,0,0,0,0,0,0,0,0,0,0,0,0,0,0,0,0,0],"split_type":[0,0,0,0,0,0,0,0,0,0,0,0,0,0,0,0,0,0,0,0,0,0,0,0,0,0,0,0,0,0,0,0,0,0,0,0,0,0,0,0,0,0,0,0,0,0,0,0,0,0,0,0,0,0,0,0,0,0,0,0,0,0,0,0,0,0,0,0,0,0,0,0,0,0,0,0,0],"sum_hessian":[2.5192742E3,1.0306906E3,1.4885836E3,6.8269916E2,3.4799146E2,5.7246954E2,9.161141E2,4.7554477E2,2.0715437E2,1.9860475E2,1.493867E2,3.446664E1,5.3800287E2,3.5992493E2,5.561892E2,2.877912E2,1.8775357E2,1.5697921E1,1.9145645E2,1.510376E1,1.8350099E2,2.5537231E1,1.23849464E2,1.5909813E2,3.7890475E2,1.25995834E2,2.3392908E2,4.9579913E2,6.0390064E1,4.699127E1,1.407623E2,1.4806906E2,4.3387386E1,1.031911E2,8.030989E1,1.1682562E1,1.385467E1,1.2967773E2,2.9420404E1,1.5755527E2,2.2134947E2,1.3903123E1,1.12092705E2,2.2243086E2,1.149822E1,1.6207071E1,4.7959204E2,2.40715E1,3.6318565E1,3.6553955E1,1.0437316E1,1.4195027E1,1.3387404E2,2.2901388E1,2.0486E1,4.5863346E1,5.732776E1,1.4365073E1,6.594482E1,2.890924E1,1.00768486E2,1.9067116E1,1.0353291E1,1.2181747E2,3.5737804E1,6.648382E1,1.5486566E2,6.621508E1,4.5877632E1,1.5172572E1,2.0725829E2,2.9005634E1,4.5058643E2,1.1835161E1,1.2236339E1,2.3533674E1,1.278489E1],"tree_param":{"num_deleted":"0","num_feature":"17","num_nodes":"77","size_leaf_vector":"1"}},{"base_weights":[7.857489E-3,-5.9027326E-1,2.2712913E-1,-1.738215E-1,1.0455075E-1,-1.4350498E-1,4.920346E-1,-3.473706E-2,6.043078E-1,-3.583134E-1,6.2953585E-1,2.544343E-1,8.444362E-1,2.0162366E-2,-9.786529E-2,1.0324274E-1,-0E0,-7.672642E-1,-1.5181862E-1,-3.40925E-2,7.619237E-1,4.8694596E-1,-2.685923E-1,5.369035E-1,1.0236347E0,-1.624581E-2,1.3103746E-1,-1.1802973E-1,-1.062515E0,-5.40516E-1,2.6594648E-2,-0E0,8.710615E-1,2.0536283E-1,3.7638056E-1,-6.891149E-1,8.868974E-3,-0E0,5.71603E-1,-0E0,1.0821685E0,-5.7667106E-2,1.1949421E-2,-7.943441E-2,-0E0,-1.6972864E-1,-2.613909E-2,-9.920236E-2,-0E0,7.923456E-2,-6.2473114E-3,1.317673E-1,-0E0,-1.506132E-2,8.192236E-2,-1.2497032E-1,-0E0,3.4300342E-2,-3.311051E-2,9.008374E-2,-0E0,-0E0,1.604885E-1],"categories":[],"categories_nodes":[],"categories_segments":[],"categories_sizes":[],"default_left":[0,0,0,0,0,0,0,0,0,0,0,0,0,0,0,0,0,0,0,0,0,0,0,0,0,0,0,0,0,0,0,0,0,0,0,0,0,0,0,0,0,0,0,0,0,0,0,0,0,0,0,0,0,0,0,0,0,0,0,0,0,0,0],"id":4,"left_children":[1,3,5,-1,7,9,11,13,15,17,19,21,23,25,-1,-1,-1,27,29,-1,31,33,35,37,39,41,-1,43,45,47,49,-1,51,-1,53,55,57,-1,59,-1,61,-1,-1,-1,-1,-1,-1,-1,-1,-1,-1,-1,-1,-1,-1,-1,-1,-1,-1,-1,-1,-1,-1],"loss_changes":[3.2121808E2,2.8878644E2,1.8157703E2,0E0,2.5845531E1,1.2310113E2,8.02207E1,1.3444521E1,3.9088573E0,4.2549446E1,2.2876637E1,8.268141E1,8.184967E0,1.3806608E1,0E0,0E0,0E0,2.5730042E1,3.2919167E1,0E0,8.228409E0,3.2041924E1,2.827494E1,3.5679398E0,7.3327637E0,9.984522E0,0E0,7.8318987E0,3.1648254E-1,1.1200878E1,1.4175681E1,0E0,4.444046E-1,0E0,4.39871E1,1.6467949E1,6.3489127E0,0E0,4.521961E0,0E0,1.5668945E0,0E0,0E0,0E0,0E0,0E0,0E0,0E0,0E0,0E0,0E0,0E0,0E0,0E0,0E0,0E0,0E0,0E0,0E0,0E0,0E0,0E0,0E0],"parents":[2147483647,0,0,1,1,2,2,4,4,5,5,6,6,7,7,8,8,9,9,10,10,11,11,12,12,13,13,17,17,18,18,20,20,21,21,22,22,23,23,24,24,25,25,27,27,28,28,29,29,30,30,32,32,34,34,35,35,36,36,38,38,40,40],"right_children":[2,4,6,-1,8,10,12,14,16,18,20,22,24,26,-1,-1,-1,28,30,-1,32,34,36,38,40,42,-1,44,46,48,50,-1,52,-1,54,56,58,-1,60,-1,62,-1,-1,-1,-1,-1,-1,-1,-1,-1,-1,-1,-1,-1,-1,-1,-1,-1,-1,-1,-1,-1,-1],"split_conditions":[-7.9529697E-1,-1.3587911E-1,-2.122678E-1,-1.738215E-1,1.8602386E0,1.9676678E-1,6.3536155E-1,1E0,2.28665E0,-1.0339853E0,-1.239514E0,3.629369E-1,-5.459687E-1,1.4196341E-2,-9.786529E-2,1.0324274E-1,-0E0,-7.2724235E-1,-7.3864214E-2,-3.40925E-2,-3.7725285E-1,-4.5790768E-1,-7.3864214E-2,1.7620184E-1,-5.852374E-1,1.9676678E-1,1.3103746E-1,-8.4260684E-1,-1.3802397E-1,-4.5404255E-1,2.656199E-1,-0E0,9.926658E-1,2.0536283E-1,-4.46856E-1,1.1924679E0,6.207347E-1,-0E0,3.3142626E0,-0E0,-2.0216928E-1,-5.7667106E-2,1.1949421E-2,-7.943441E-2,-0E0,-1.6972864E-1,-2.613909E-2,-9.920236E-2,-0E0,7.923456E-2,-6.2473114E-3,1.317673E-1,-0E0,-1.506132E-2,8.192236E-2,-1.2497032E-1,-0E0,3.4300342E-2,-3.311051E-2,9.008374E-2,-0E0,-0E0,1.604885E-1],"split_indices":[2,4,15,0,4,4,2,0,9,15,13,6,5,0,0,0,0,16,2,0,8,2,2,3,13,4,0,13,9,4,2,0,10,0,2,4,2,0,6,0,7,0,0,0,0,0,0,0,0,0,0,0,0,0,0,0,0,0,0,0,0,0,0],"split_type":[0,0,0,0,0,0,0,0,0,0,0,0,0,0,0,0,0,0,0,0,0,0,0,0,0,0,0,0,0,0,0,0,0,0,0,0,0,0,0,0,0,0,0,0,0,0,0,0,0,0,0,0,0,0,0,0,0,0,0,0,0,0,0],"sum_hessian":[2.4626116E3,6.4890656E2,1.813705E3,3.484427E2,3.004639E2,7.4425696E2,1.069448E3,2.2560841E2,7.485548E1,5.922879E2,1.5196901E2,6.566886E2,4.127594E2,2.003077E2,2.5300716E1,5.965698E1,1.5198497E1,1.8186684E2,4.1042108E2,1.1715762E1,1.4025325E2,4.6535733E2,1.913313E2,1.7464645E2,2.3811295E2,1.8784561E2,1.246209E1,6.716923E1,1.1469762E2,1.4044891E2,2.6997217E2,2.3104277E1,1.17148964E2,3.6101368E1,4.2925595E2,8.495965E1,1.0637165E2,1.0144102E1,1.6450235E2,1.925108E1,2.1886188E2,5.2405388E1,1.3544022E2,2.4780293E1,4.238893E1,9.216552E1,2.2532099E1,1.08614624E2,3.1834291E1,4.182034E1,2.2815182E2,1.06480064E2,1.0668903E1,1.11199905E2,3.1805603E2,7.3989494E1,1.0970156E1,7.132106E1,3.505059E1,1.4845517E2,1.6047184E1,1.1126129E1,2.0773575E2],"tree_param":{"num_deleted":"0","num_feature":"17","num_nodes":"63","size_leaf_vector":"1"}},{"base_weights":[4.2318385E-3,-3.8604003E-1,2.760221E-1,-8.823956E-1,2.2447972E-1,-1.1089551E-1,5.327875E-1,-1.1084176E0,-4.9135178E-1,-2.589142E-2,6.1330175E-1,1.6150747E-1,-2.050681E-1,2.6769742E-1,7.004181E-1,-1.7602481E-1,-5.9653074E-1,1.5127061E-1,-6.5667975E-1,1.6062921E-1,-1.6915867E-1,-0E0,7.409732E-1,-6.522692E-1,-0E0,1.7115773E-1,7.087798E-2,7.4740607E-1,-0E0,-1.0363759E-1,-0E0,-4.574472E-2,-8.050731E-1,-6.173369E-1,-0E0,-0E0,1.3327338E-2,7.957911E-1,-0E0,-7.1429634E-1,-0E0,-5.6746984E-1,1.09515935E-1,-5.110836E-2,1.13223046E-1,4.713683E-1,9.342665E-1,1.511584E-1,-0E0,-5.7215415E-2,1.5759863E-2,-0E0,-1.22380145E-1,-9.69909E-2,-0E0,1.0621143E-1,-6.6488585E-3,1.2437873E-1,-0E0,-3.4233015E-2,-1.3783564E-1,-1.18019864E-1,1.6915755E-2,4.405298E-2,-4.77506E-2,-4.8157196E-2,1.7816378E-2,-0E0,7.3506E-2,-0E0,1.3897173E-1,-0E0,5.072092E-2],"categories":[],"categories_nodes":[],"categories_segments":[],"categories_sizes":[],"default_left":[0,0,0,0,0,0,0,0,0,0,0,0,0,0,0,0,0,0,0,0,0,0,0,0,0,0,0,0,0,0,0,0,0,0,0,0,0,0,0,0,0,0,0,0,0,0,0,0,0,0,0,0,0,0,0,0,0,0,0,0,0,0,0,0,0,0,0,0,0,0,0,0,0],"id":5,"left_children":[1,3,5,7,9,11,13,15,17,19,21,-1,23,25,27,-1,29,-1,31,-1,33,35,37,39,41,-1,43,45,47,-1,-1,49,51,53,55,-1,-1,57,-1,59,-1,61,63,65,-1,67,69,71,-1,-1,-1,-1,-1,-1,-1,-1,-1,-1,-1,-1,-1,-1,-1,-1,-1,-1,-1,-1,-1,-1,-1,-1,-1],"loss_changes":[2.5431175E2,3.0173804E2,1.457019E2,3.318524E1,4.6973125E1,5.8818214E1,3.026178E1,1.4441528E0,5.603443E1,3.5002907E1,1.2600533E1,0E0,4.452015E1,5.5408512E1,1.213382E1,0E0,7.6125565E0,0E0,1.1786789E1,0E0,2.2118523E1,1.9413567E-1,6.0548935E0,7.646736E0,2.6745737E1,0E0,3.3152557E1,1.1291565E1,6.754672E-1,0E0,0E0,5.498411E0,8.6437225E-1,5.6069756E-1,1.0421883E1,0E0,0E0,5.8784103E0,0E0,6.360466E0,0E0,1.8308727E1,2.7146622E1,1.4724378E1,0E0,4.322769E0,1.6350555E0,1.3066392E0,0E0,0E0,0E0,0E0,0E0,0E0,0E0,0E0,0E0,0E0,0E0,0E0,0E0,0E0,0E0,0E0,0E0,0E0,0E0,0E0,0E0,0E0,0E0,0E0,0E0],"parents":[2147483647,0,0,1,1,2,2,3,3,4,4,5,5,6,6,7,7,8,8,9,9,10,10,12,12,13,13,14,14,16,16,18,18,20,20,21,21,22,22,23,23,24,24,26,26,27,27,28,28,31,31,32,32,33,33,34,34,37,37,39,39,41,41,42,42,43,43,45,45,46,46,47,47],"right_children":[2,4,6,8,10,12,14,16,18,20,22,-1,24,26,28,-1,30,-1,32,-1,34,36,38,40,42,-1,44,46,48,-1,-1,50,52,54,56,-1,-1,58,-1,60,-1,62,64,66,-1,68,70,72,-1,-1,-1,-1,-1,-1,-1,-1,-1,-1,-1,-1,-1,-1,-1,-1,-1,-1,-1,-1,-1,-1,-1,-1,-1],"split_conditions":[-4.46856E-1,-1.3587911E-1,-2.122678E-1,-7.9529697E-1,1.1924679E0,-9.6143894E-2,2.6997614E-1,-4.5404255E-1,-4.5790768E-1,1.9154736E-1,-5.697332E-1,1.6150747E-1,-1.0339853E0,-9.6143894E-2,9.926658E-1,-1.7602481E-1,1.2032274E0,1.5127061E-1,-7.715953E-1,1.6062921E-1,1.9676678E-1,4.3809405E-3,9.529416E-1,9.8894006E-1,-7.3864214E-2,1.7115773E-1,1.1924679E0,-5.459687E-1,1.31803E0,-1.0363759E-1,-0E0,4.702575E-1,-8.540606E-1,7.804287E-1,5.1921886E-1,-0E0,1.3327338E-2,1.3130305E0,-0E0,-6.271832E-1,-0E0,5.7710683E-1,1.3467122E0,-7.3864214E-2,1.13223046E-1,-1.5348057E0,-1.6809261E-1,1.003956E0,-0E0,-5.7215415E-2,1.5759863E-2,-0E0,-1.22380145E-1,-9.69909E-2,-0E0,1.0621143E-1,-6.6488585E-3,1.2437873E-1,-0E0,-3.4233015E-2,-1.3783564E-1,-1.18019864E-1,1.6915755E-2,4.405298E-2,-4.77506E-2,-4.8157196E-2,1.7816378E-2,-0E0,7.3506E-2,-0E0,1.3897173E-1,-0E0,5.072092E-2],"split_indices":[2,4,15,2,4,2,2,4,2,4,13,0,15,2,10,0,12,0,7,0,4,1,10,8,2,0,4,5,6,0,0,15,3,5,4,0,0,14,0,16,0,4,6,2,0,14,16,2,0,0,0,0,0,0,0,0,0,0,0,0,0,0,0,0,0,0,0,0,0,0,0,0,0],"split_type":[0,0,0,0,0,0,0,0,0,0,0,0,0,0,0,0,0,0,0,0,0,0,0,0,0,0,0,0,0,0,0,0,0,0,0,0,0,0,0,0,0,0,0,0,0,0,0,0,0,0,0,0,0,0,0,0,0,0,0,0,0,0,0,0,0,0,0,0,0,0,0,0,0],"sum_hessian":[2.39723E3,9.7132806E2,1.4259019E3,5.4190985E2,4.2941824E2,5.573727E2,8.685292E2,3.2551642E2,2.163934E2,2.5116869E2,1.7824956E2,3.0264957E1,5.271077E2,3.5919345E2,5.093357E2,2.4906973E2,7.644669E1,1.4075495E1,2.023179E2,1.8581507E1,2.3258719E2,3.453146E1,1.4371811E2,1.5288495E2,3.7422278E2,5.2370644E1,3.068228E2,4.6850696E2,4.0828747E1,6.5999435E1,1.0447257E1,5.1135635E1,1.5118227E2,7.1542854E1,1.6104433E2,1.6107012E1,1.8424448E1,1.3359187E2,1.0126227E1,1.4176189E2,1.1123051E1,6.7180595E1,3.0704218E2,2.5595157E2,5.0871243E1,2.1243929E2,2.560677E2,2.5282587E1,1.5546159E1,2.9369806E1,2.176583E1,1.4509967E1,1.366723E2,6.07656E1,1.0777258E1,1.4319205E1,1.4672513E2,1.2085181E2,1.2740068E1,6.168605E1,8.0075836E1,5.704735E1,1.0133243E1,2.259245E2,8.111768E1,1.1363045E2,1.4232112E2,1.4976709E1,1.9746257E2,1.4172214E1,2.4189546E2,1.35579195E1,1.1724668E1],"tree_param":{"num_deleted":"0","num_feature":"17","num_nodes":"73","size_leaf_vector":"1"}},{"base_weights":[2.339881E-3,-1.2338621E-1,6.512075E-1,-4.087876E-1,3.5866106E-1,-7.100448E-2,7.3368603E-1,-6.1701065E-1,-8.266031E-2,-0E0,5.612325E-1,-0E0,7.6630825E-1,-1.6792725E-1,-3.569762E-1,1.980553E-1,-2.72745E-1,-2.5022393E-1,1.9287476E-1,6.167214E-1,-0E0,-0E0,8.093233E-1,-1.2354436E-1,-8.019869E-1,-5.530701E-1,-2.2406133E-3,-4.608479E-1,-0E0,4.2532146E-1,-4.740116E-2,1.2628147E-1,6.9738007E-1,-1.1547255E-2,1.21726945E-1,-0E0,2.0164184E-3,8.3471316E-1,-0E0,-4.5125708E-2,6.1353344E-2,-1.4339635E-1,-5.117684E-2,-9.190481E-2,-0E0,1.9715789E-1,-3.881372E-2,-0E0,-8.597024E-2,-0E0,2.2920832E-2,8.759169E-2,-0E0,-2.6024712E-2,-0E0,-0E0,5.629239E-2,1.0479411E-1,-0E0,-0E0,3.144692E-2,1.2296929E-1,-0E0],"categories":[],"categories_nodes":[],"categories_segments":[],"categories_sizes":[],"default_left":[0,0,0,0,0,0,0,0,0,0,0,0,0,0,0,0,0,0,0,0,0,0,0,0,0,0,0,0,0,0,0,0,0,0,0,0,0,0,0,0,0,0,0,0,0,0,0,0,0,0,0,0,0,0,0,0,0,0,0,0,0,0,0],"id":6,"left_children":[1,3,5,7,9,-1,11,13,15,17,19,-1,21,-1,23,-1,25,27,29,31,33,35,37,39,41,43,45,47,49,51,53,55,57,-1,59,-1,-1,61,-1,-1,-1,-1,-1,-1,-1,-1,-1,-1,-1,-1,-1,-1,-1,-1,-1,-1,-1,-1,-1,-1,-1,-1,-1],"loss_changes":[1.9579263E2,2.7026718E2,4.040216E1,7.851694E1,5.509857E1,0E0,9.166931E0,9.186868E1,1.3230478E2,1.2805996E1,1.3134399E1,0E0,1.056134E1,0E0,4.6153084E1,0E0,2.9990498E1,1.0074449E1,1.0650078E1,9.779358E0,6.3138825E-1,2.9405544E-3,5.0996246E0,3.6894173E1,2.051323E0,1.0367447E1,8.422667E1,7.907734E0,8.571345E-1,8.984036E0,7.505039E-1,3.3035479E0,9.263107E0,0E0,6.0846996E-1,0E0,0E0,2.8218079E0,0E0,0E0,0E0,0E0,0E0,0E0,0E0,0E0,0E0,0E0,0E0,0E0,0E0,0E0,0E0,0E0,0E0,0E0,0E0,0E0,0E0,0E0,0E0,0E0,0E0],"parents":[2147483647,0,0,1,1,2,2,3,3,4,4,6,6,7,7,8,8,9,9,10,10,12,12,14,14,16,16,17,17,18,18,19,19,20,20,21,21,22,22,23,23,24,24,25,25,26,26,27,27,28,28,29,29,30,30,31,31,32,32,34,34,37,37],"right_children":[2,4,6,8,10,-1,12,14,16,18,20,-1,22,-1,24,-1,26,28,30,32,34,36,38,40,42,44,46,48,50,52,54,56,58,-1,60,-1,-1,62,-1,-1,-1,-1,-1,-1,-1,-1,-1,-1,-1,-1,-1,-1,-1,-1,-1,-1,-1,-1,-1,-1,-1,-1,-1],"split_conditions":[8.793381E-1,2.6997614E-1,-1.3015307E0,-4.5404255E-1,-2.122678E-1,-7.100448E-2,-1.6341261E0,-7.9529697E-1,-1.3612412E-1,-5.459687E-1,1.3130305E0,-0E0,-1.1286544E0,-1.6792725E-1,3.629369E-1,1.980553E-1,4.3809405E-3,3.2330796E-1,1.3467122E0,3.4402434E-2,1.003956E0,3.0076584E-1,9.926658E-1,7.184883E-1,-7.3864214E-2,1.1008841E0,9.940817E-1,-8.419049E-1,-4.1963983E-1,3.357113E-1,4.3809405E-3,1.7422193E0,2E0,-1.1547255E-2,2.4939154E-1,-0E0,2.0164184E-3,1.7619574E0,-0E0,-4.5125708E-2,6.1353344E-2,-1.4339635E-1,-5.117684E-2,-9.190481E-2,-0E0,1.9715789E-1,-3.881372E-2,-0E0,-8.597024E-2,-0E0,2.2920832E-2,8.759169E-2,-0E0,-2.6024712E-2,-0E0,-0E0,5.629239E-2,1.0479411E-1,-0E0,-0E0,3.144692E-2,1.2296929E-1,-0E0],"split_indices":[4,2,13,4,15,0,14,2,4,5,14,0,12,0,6,0,1,13,6,16,2,16,10,15,2,13,1,16,15,13,1,2,0,0,11,0,0,0,0,0,0,0,0,0,0,0,0,0,0,0,0,0,0,0,0,0,0,0,0,0,0,0,0],"split_type":[0,0,0,0,0,0,0,0,0,0,0,0,0,0,0,0,0,0,0,0,0,0,0,0,0,0,0,0,0,0,0,0,0,0,0,0,0,0,0,0,0,0,0,0,0,0,0,0,0,0,0,0,0,0,0,0,0,0,0,0,0,0,0],"sum_hessian":[2.3399246E3,1.9527333E3,3.8719116E2,1.2373447E3,7.153886E2,1.8106125E1,3.6908505E2,7.3792737E2,4.9941736E2,2.5083165E2,4.6455695E2,1.5501587E1,3.5358347E2,2.2277463E2,5.151527E2,4.9722313E1,4.4969504E2,1.19935005E2,1.3089665E2,4.1851895E2,4.6037983E1,2.090546E1,3.32678E2,3.5324582E2,1.6190688E2,2.0416466E2,2.455304E2,7.977577E1,4.015923E1,8.172783E1,4.9168823E1,7.462475E1,3.438942E2,1.686806E1,2.9169922E1,1.0162271E1,1.0743191E1,3.1981018E2,1.2867829E1,2.747754E2,7.847043E1,9.695427E1,6.495261E1,1.7802303E2,2.6141634E1,3.230113E1,2.1322926E2,1.1656958E1,6.811882E1,1.0548616E1,2.9610611E1,6.2168644E1,1.9559183E1,2.2421564E1,2.674726E1,4.900055E1,2.56242E1,3.3353696E2,1.0357246E1,1.0257377E1,1.8912546E1,3.0979208E2,1.0018088E1],"tree_param":{"num_deleted":"0","num_feature":"17","num_nodes":"63","size_leaf_vector":"1"}},{"base_weights":[5.1415293E-3,-3.3892703E-1,2.3666377E-1,-7.805493E-1,1.5892808E-1,-7.1440876E-2,4.4835854E-1,-9.964084E-1,-4.3876484E-1,-0E0,5.27912E-1,1.46036E-1,-1.5656428E-1,1.9496378E-1,6.030776E-1,-1.6046986E-1,-5.150465E-1,1.3140082E-1,-5.904376E-1,1.3950373E-1,-1.0791617E-1,-0E0,5.811123E-1,-5.161954E-1,-0E0,-0E0,4.3036717E-1,6.617745E-1,-0E0,-8.377277E-2,-0E0,-6.77443E-2,-1.01387836E-1,-7.361058E-2,6.3789627E-3,6.489959E-1,-0E0,-6.449678E-1,-0E0,4.6576756E-1,-1.265451E-1,1.8671657E-1,-1.8188103E-1,5.1963216E-1,-0E0,1.578301E-1,7.336734E-1,-0E0,1.09695524E-1,-5.079099E-2,-0E0,5.363003E-2,-1.4465111E-2,1.00441284E-1,-0E0,-1.04694344E-1,-0E0,-0E0,1.2470428E-1,-3.666805E-2,2.88654E-2,-0E0,1.2671623E-1,-7.278309E-2,-0E0,-0E0,9.2354394E-2,5.606836E-2,-3.0052282E-2,-0E0,1.1010648E-1,-0E0,4.199054E-2],"categories":[],"categories_nodes":[],"categories_segments":[],"categories_sizes":[],"default_left":[0,0,0,0,0,0,0,0,0,0,0,0,0,0,0,0,0,0,0,0,0,0,0,0,0,0,0,0,0,0,0,0,0,0,0,0,0,0,0,0,0,0,0,0,0,0,0,0,0,0,0,0,0,0,0,0,0,0,0,0,0,0,0,0,0,0,0,0,0,0,0,0,0],"id":7,"left_children":[1,3,5,7,9,11,13,15,17,19,21,-1,23,25,27,-1,29,-1,31,-1,33,-1,35,37,39,41,43,45,47,-1,-1,49,-1,-1,51,53,-1,55,-1,57,59,61,63,65,-1,67,69,-1,71,-1,-1,-1,-1,-1,-1,-1,-1,-1,-1,-1,-1,-1,-1,-1,-1,-1,-1,-1,-1,-1,-1,-1,-1],"loss_changes":[1.8043576E2,2.0367024E2,9.275529E1,2.2603882E1,2.8469557E1,4.443478E1,2.5684143E1,3.6798096E-1,4.284114E1,2.3630894E1,3.8485107E0,0E0,2.736237E1,1.3216579E1,1.2707764E1,0E0,1.9052753E0,0E0,5.288376E0,0E0,1.6251135E1,0E0,4.6181564E0,1.1219723E1,2.0998138E1,7.088624E0,6.524376E0,8.308807E0,5.6544095E-1,0E0,0E0,3.4193053E0,0E0,0E0,9.957964E0,1.2642555E0,0E0,4.1312904E0,0E0,1.2199835E1,1.3280393E1,1.3351122E1,6.671937E0,5.3019867E0,0E0,8.066334E0,7.6947784E0,0E0,2.1197023E0,0E0,0E0,0E0,0E0,0E0,0E0,0E0,0E0,0E0,0E0,0E0,0E0,0E0,0E0,0E0,0E0,0E0,0E0,0E0,0E0,0E0,0E0,0E0,0E0],"parents":[2147483647,0,0,1,1,2,2,3,3,4,4,5,5,6,6,7,7,8,8,9,9,10,10,12,12,13,13,14,14,16,16,18,18,20,20,22,22,23,23,24,24,25,25,26,26,27,27,28,28,31,31,34,34,35,35,37,37,39,39,40,40,41,41,42,42,43,43,45,45,46,46,48,48],"right_children":[2,4,6,8,10,12,14,16,18,20,22,-1,24,26,28,-1,30,-1,32,-1,34,-1,36,38,40,42,44,46,48,-1,-1,50,-1,-1,52,54,-1,56,-1,58,60,62,64,66,-1,68,70,-1,72,-1,-1,-1,-1,-1,-1,-1,-1,-1,-1,-1,-1,-1,-1,-1,-1,-1,-1,-1,-1,-1,-1,-1,-1],"split_conditions":[-4.46856E-1,-1.3587911E-1,-2.122678E-1,-7.9529697E-1,1.5284455E0,-9.6143894E-2,-5.459687E-1,-4.5404255E-1,-4.5790768E-1,1.9154736E-1,-1.1286544E0,1.46036E-1,-1.0339853E0,7.184883E-1,9.926658E-1,-1.6046986E-1,1.0148551E0,1.3140082E-1,-7.715953E-1,1.3950373E-1,1.9676678E-1,-0E0,1.3130305E0,2.9778376E-3,-2.1819301E-1,9.912228E-1,2.4786904E0,7.7293115E-3,-6.8557376E-1,-8.377277E-2,-0E0,6.5472615E-3,-1.01387836E-1,-7.361058E-2,8.4689033E-1,-2.2806537E-3,-0E0,2.030236E0,-0E0,-6.2024224E-1,1.4016896E0,4.3809405E-3,2.9114735E-1,-7.3864214E-2,-0E0,-2.1574343E-2,-6.499964E-1,-0E0,8.345783E-3,-5.079099E-2,-0E0,5.363003E-2,-1.4465111E-2,1.00441284E-1,-0E0,-1.04694344E-1,-0E0,-0E0,1.2470428E-1,-3.666805E-2,2.88654E-2,-0E0,1.2671623E-1,-7.278309E-2,-0E0,-0E0,9.2354394E-2,5.606836E-2,-3.0052282E-2,-0E0,1.1010648E-1,-0E0,4.199054E-2],"split_indices":[2,4,15,2,4,2,5,4,2,4,12,0,15,15,10,0,11,0,7,0,4,0,14,5,15,1,15,16,14,0,0,15,0,0,4,7,0,3,0,15,2,1,7,2,0,16,3,0,7,0,0,0,0,0,0,0,0,0,0,0,0,0,0,0,0,0,0,0,0,0,0,0,0],"split_type":[0,0,0,0,0,0,0,0,0,0,0,0,0,0,0,0,0,0,0,0,0,0,0,0,0,0,0,0,0,0,0,0,0,0,0,0,0,0,0,0,0,0,0,0,0,0,0,0,0,0,0,0,0,0,0,0,0,0,0,0,0,0,0,0,0,0,0,0,0,0,0,0,0],"sum_hessian":[2.2667358E3,8.9710406E2,1.3696317E3,4.8260153E2,4.1450253E2,5.436114E2,8.260203E2,2.7646475E2,2.0613678E2,2.7867303E2,1.3582951E2,2.934371E1,5.142677E2,3.363594E2,4.8966095E2,2.045622E2,7.190254E1,1.3339163E1,1.9279762E2,1.7645304E1,2.610277E2,1.3082963E1,1.2274655E2,1.4611255E2,3.6815515E2,1.9937395E2,1.3698546E2,4.349422E2,5.471877E1,6.1177475E1,1.0725064E1,4.8040085E1,1.4475754E2,6.983515E1,1.9119257E2,1.0852736E2,1.4219191E1,1.190254E2,2.7087147E1,7.020321E1,2.9795193E2,1.135602E2,8.5813736E1,1.16782486E2,2.0202969E1,6.986329E1,3.650789E2,1.2008143E1,4.2710625E1,2.5186605E1,2.285348E1,5.7671684E1,1.3352089E2,9.6156204E1,1.237116E1,1.0075709E2,1.8268316E1,3.660356E1,3.359965E1,2.3238231E2,6.556964E1,9.525329E1,1.830692E1,3.3569534E1,5.22442E1,2.8538471E1,8.824402E1,5.601705E1,1.3846234E1,1.5517694E1,3.4956122E2,1.5356493E1,2.7354132E1],"tree_param":{"num_deleted":"0","num_feature":"17","num_nodes":"73","size_leaf_vector":"1"}},{"base_weights":[-0E0,-4.2818883E-1,1.3964896E-1,-1.3753366E-1,1.8797884E-2,1.9272915E-1,8.674037E-2,-7.5958654E-2,1.1446036E-1,-7.0152365E-2,3.9950508E-1,-9.014636E-3,3.0424997E-1,-1.883271E-1,6.687644E-1,1.9015032E-1,2.8881088E-1,3.035498E-2,-6.946124E-2,4.208187E-1,-0E0,-1.5555347E-2,-5.2579767E-1,-0E0,7.362583E-1,-3.3198273E-1,4.3999425E-1,-7.5337486E-3,3.284779E-2,-0E0,7.359919E-2,-0E0,-5.7936795E-3,-1.3923227E-2,1.7726132E-1,-4.51257E-2,-1.2507024E-1,-0E0,1.1867707E-1,-6.711091E-2,-0E0,-0E0,9.034421E-2],"categories":[],"categories_nodes":[],"categories_segments":[],"categories_sizes":[],"default_left":[0,0,0,0,0,0,0,0,0,0,0,0,0,0,0,0,0,0,0,0,0,0,0,0,0,0,0,0,0,0,0,0,0,0,0,0,0,0,0,0,0,0,0],"id":8,"left_children":[1,3,5,-1,7,-1,9,-1,11,13,15,17,19,21,23,-1,25,27,-1,29,31,33,35,-1,37,39,41,-1,-1,-1,-1,-1,-1,-1,-1,-1,-1,-1,-1,-1,-1,-1,-1],"loss_changes":[1.3307634E2,1.3648221E2,9.385774E1,0E0,1.2238944E1,0E0,8.1687775E1,0E0,8.57171E0,8.909161E1,4.2056427E1,6.2545567E0,6.5558157E0,4.9565563E1,5.219719E0,0E0,4.922317E1,3.3598094E0,0E0,6.0974216E0,2.7236216E-2,5.523201E1,1.1049767E1,0E0,3.1354065E0,6.0705166E0,3.1289993E1,0E0,0E0,0E0,0E0,0E0,0E0,0E0,0E0,0E0,0E0,0E0,0E0,0E0,0E0,0E0,0E0],"parents":[2147483647,0,0,1,1,2,2,4,4,6,6,8,8,9,9,10,10,11,11,12,12,13,13,14,14,16,16,17,17,19,19,20,20,21,21,22,22,24,24,25,25,26,26],"right_children":[2,4,6,-1,8,-1,10,-1,12,14,16,18,20,22,24,-1,26,28,-1,30,32,34,36,-1,38,40,42,-1,-1,-1,-1,-1,-1,-1,-1,-1,-1,-1,-1,-1,-1,-1,-1],"split_conditions":[-7.9529697E-1,-1.3587911E-1,-4.5790768E-1,-1.3753366E-1,-1.1402873E0,1.9272915E-1,6.3536155E-1,-7.5958654E-2,8.793381E-1,1.1924679E0,9.891475E-1,1.0148551E0,2.28665E0,3.629369E-1,1.3789052E0,1.9015032E-1,1.003956E0,4.3809405E-3,-6.946124E-2,-1.0349212E0,-9.248971E-2,1.908119E-2,1.3467122E0,-0E0,-7.4338007E-1,7.184883E-1,-2.122678E-1,-7.5337486E-3,3.284779E-2,-0E0,7.359919E-2,-0E0,-5.7936795E-3,-1.3923227E-2,1.7726132E-1,-4.51257E-2,-1.2507024E-1,-0E0,1.1867707E-1,-6.711091E-2,-0E0,-0E0,9.034421E-2],"split_indices":[2,4,2,0,13,0,2,0,4,4,2,11,9,6,9,0,2,1,0,11,14,6,6,0,13,15,15,0,0,0,0,0,0,0,0,0,0,0,0,0,0,0,0],"split_type":[0,0,0,0,0,0,0,0,0,0,0,0,0,0,0,0,0,0,0,0,0,0,0,0,0,0,0,0,0,0,0,0,0,0,0,0,0,0,0,0,0,0,0],"sum_hessian":[2.2081687E3,5.440842E2,1.6640844E3,2.5589828E2,2.8818597E2,5.9635113E1,1.6044493E3,2.7665676E1,2.605203E2,1.0537003E3,5.507489E2,1.3484602E2,1.2567427E2,9.2047174E2,1.332286E2,4.6400745E1,5.0434818E2,1.1261312E2,2.223291E1,1.0067012E2,2.500415E1,6.2738477E2,2.93087E2,1.4426524E1,1.1880208E2,8.7437874E1,4.169103E2,5.315756E1,5.945556E1,1.0296212E1,9.03739E1,1.2429044E1,1.2575108E1,5.987707E2,2.8614052E1,2.0013148E2,9.295552E1,2.0054241E1,9.874784E1,7.0339806E1,1.7098064E1,1.3403688E2,2.828734E2],"tree_param":{"num_deleted":"0","num_feature":"17","num_nodes":"43","size_leaf_vector":"1"}},{"base_weights":[-0E0,-2.8331375E-1,1.8184814E-1,-7.746926E-1,3.237312E-2,1.6896003E-1,1.1298863E-1,-1.475728E-1,-4.5514536E-1,-1.0351617E-1,3.6257926E-1,-3.5225284E-1,2.2431092E-1,-5.5504644E-1,-0E0,-2.3900613E-1,1.4078476E-1,-0E0,5.3528756E-1,-5.0959647E-1,3.2015648E-1,-3.743343E-1,3.0617097E-1,-6.2197536E-1,-0E0,8.10403E-2,-4.5359954E-2,-3.0945146E-1,-0E0,-4.8735388E-2,3.103522E-1,-1.3957666E-1,-0E0,6.0761946E-1,-0E0,-6.618076E-1,-0E0,6.759218E-2,-0E0,-0E0,-4.99667E-1,3.6267255E-2,4.81114E-1,-0E0,-1.0144052E-1,3.5794176E-2,-0E0,-0E0,-5.2745074E-2,2.7354902E-2,-5.986857E-5,-4.0104765E-2,-0E0,6.4114526E-2,-0E0,-3.83885E-2,-0E0,9.443162E-2,-0E0,-1.06631525E-1,-0E0,1.9272089E-2,-3.1261254E-2,-8.819226E-2,-0E0,1.9933917E-2,-5.720779E-2,1.941619E-1,3.3298384E-2],"categories":[],"categories_nodes":[],"categories_segments":[],"categories_sizes":[],"default_left":[0,0,0,0,0,0,0,0,0,0,0,0,0,0,0,0,0,0,0,0,0,0,0,0,0,0,0,0,0,0,0,0,0,0,0,0,0,0,0,0,0,0,0,0,0,0,0,0,0,0,0,0,0,0,0,0,0,0,0,0,0,0,0,0,0,0,0,0,0],"id":9,"left_children":[1,3,5,7,9,-1,11,-1,13,15,17,19,21,23,25,27,29,31,33,35,37,39,41,43,-1,45,-1,47,49,51,53,55,-1,57,-1,59,61,-1,-1,-1,63,65,67,-1,-1,-1,-1,-1,-1,-1,-1,-1,-1,-1,-1,-1,-1,-1,-1,-1,-1,-1,-1,-1,-1,-1,-1,-1,-1],"loss_changes":[1.1192177E2,1.366727E2,8.0590515E1,1.3245361E1,2.4976688E1,0E0,6.485468E1,0E0,6.3748856E0,1.2360384E1,1.2912416E1,2.6770737E1,5.0790653E1,3.6601067E0,1.694561E0,5.6160135E0,5.52286E0,6.37699E-1,4.364517E0,1.466692E1,1.6301467E0,8.614164E0,3.9559868E1,1.0228043E0,0E0,8.2926637E-1,0E0,5.823286E0,9.1869795E-1,1.2912056E0,4.60654E0,9.238397E-1,0E0,1.3804474E0,0E0,8.089485E0,1.7317152E0,0E0,0E0,0E0,4.380083E0,1.52805395E1,1.03908676E2,0E0,0E0,0E0,0E0,0E0,0E0,0E0,0E0,0E0,0E0,0E0,0E0,0E0,0E0,0E0,0E0,0E0,0E0,0E0,0E0,0E0,0E0,0E0,0E0,0E0,0E0],"parents":[2147483647,0,0,1,1,2,2,3,3,4,4,6,6,8,8,9,9,10,10,11,11,12,12,13,13,14,14,15,15,16,16,17,17,18,18,19,19,20,20,21,21,22,22,23,23,25,25,27,27,28,28,29,29,30,30,31,31,33,33,35,35,36,36,40,40,41,41,42,42],"right_children":[2,4,6,8,10,-1,12,-1,14,16,18,20,22,24,26,28,30,32,34,36,38,40,42,44,-1,46,-1,48,50,52,54,56,-1,58,-1,60,62,-1,-1,-1,64,66,68,-1,-1,-1,-1,-1,-1,-1,-1,-1,-1,-1,-1,-1,-1,-1,-1,-1,-1,-1,-1,-1,-1,-1,-1,-1,-1],"split_conditions":[-4.46856E-1,-4.5404255E-1,-9.6143894E-2,-7.9529697E-1,1.1924679E0,1.6896003E-1,-7.3864214E-2,-1.475728E-1,7.184883E-1,6.3959336E-1,-3.960863E-1,1.1924679E0,-1.0339853E0,3.5260096E-1,-5.4942798E-2,2.9840114E-2,-5.2785176E-1,-7.9529697E-1,-5.7224486E-2,7.184883E-1,2.2262277E-1,-4.9555738E-2,4.3809405E-3,-8.410237E-1,-0E0,-6.337035E-1,-4.5359954E-2,-1.5544075E0,-9.495234E-1,-2.122678E-1,8.6730313E-1,3.1157616E-1,-0E0,1.2388961E0,-0E0,1.3431143E0,8.966068E-1,6.759218E-2,-0E0,-0E0,1.8524518E0,1E0,9.9498135E-1,-0E0,-1.0144052E-1,3.5794176E-2,-0E0,-0E0,-5.2745074E-2,2.7354902E-2,-5.986857E-5,-4.0104765E-2,-0E0,6.4114526E-2,-0E0,-3.83885E-2,-0E0,9.443162E-2,-0E0,-1.06631525E-1,-0E0,1.9272089E-2,-3.1261254E-2,-8.819226E-2,-0E0,1.9933917E-2,-5.720779E-2,1.941619E-1,3.3298384E-2],"split_indices":[2,4,2,2,4,0,2,0,15,13,13,4,15,7,6,12,14,2,7,15,16,3,1,14,0,3,0,14,16,15,16,11,0,14,0,14,16,0,0,0,3,0,1,0,0,0,0,0,0,0,0,0,0,0,0,0,0,0,0,0,0,0,0,0,0,0,0,0,0],"split_type":[0,0,0,0,0,0,0,0,0,0,0,0,0,0,0,0,0,0,0,0,0,0,0,0,0,0,0,0,0,0,0,0,0,0,0,0,0,0,0,0,0,0,0,0,0,0,0,0,0,0,0,0,0,0,0,0,0,0,0,0,0,0,0,0,0,0,0,0,0],"sum_hessian":[2.1738994E3,8.379304E2,1.335969E3,3.3520743E2,5.0272302E2,7.4856415E1,1.2611127E3,1.6900627E2,1.6620116E2,3.411258E2,1.6159721E2,2.2787344E2,1.0332391E3,1.3104782E2,3.5153347E1,2.4048825E2,1.00637535E2,4.4706856E1,1.16890366E2,1.9511385E2,3.2759605E1,1.1073249E2,9.225067E2,1.1295162E2,1.809619E1,2.4214401E1,1.0938945E1,2.0037857E2,4.0109684E1,2.6753212E1,7.388432E1,2.8453518E1,1.6253338E1,1.01580414E2,1.5309947E1,1.4742976E2,4.7684074E1,2.0393707E1,1.2365896E1,1.5958807E1,9.477369E1,3.8275043E2,5.397563E2,2.3617163E1,8.9334465E1,1.2199158E1,1.2015244E1,1.4845931E1,1.8553264E2,2.1223074E1,1.888661E1,1.3348144E1,1.3405068E1,5.7043064E1,1.6841257E1,1.773116E1,1.0722359E1,8.997963E1,1.160079E1,1.3189207E2,1.5537695E1,2.7069384E1,2.061469E1,7.346603E1,2.1307661E1,3.2703857E2,5.5711857E1,1.0958519E2,4.3017108E2],"tree_param":{"num_deleted":"0","num_feature":"17","num_nodes":"69","size_leaf_vector":"1"}},{"base_weights":[1.2334579E-2,-6.550743E-2,5.7331955E-1,-2.6448643E-1,2.5860414E-1,-0E0,6.3715905E-1,-4.512368E-1,-2.3212925E-2,1.8495862E-1,1.6222823E-1,-0E0,6.812422E-1,-1.4364493E-1,-2.5592905E-1,1.7518318E-1,-1.6047432E-1,-3.7769464E-1,3.0766216E-1,7.410968E-1,-0E0,-3.897313E-1,1.2285247E-1,-5.288213E-1,-1.4056784E-2,-4.8344618E-1,-0E0,1.7327541E-1,2.0189989E-1,-0E0,7.6709676E-1,-0E0,1.4732642E-2,-3.6041025E-2,-9.612591E-2,3.912402E-2,-5.906585E-2,-8.804947E-2,-0E0,1.4437932E-2,-6.9273725E-2,-0E0,-7.71807E-2,-4.7399748E-2,4.930066E-2,-0E0,1.1426012E-1],"categories":[],"categories_nodes":[],"categories_segments":[],"categories_sizes":[],"default_left":[0,0,0,0,0,0,0,0,0,0,0,0,0,0,0,0,0,0,0,0,0,0,0,0,0,0,0,0,0,0,0,0,0,0,0,0,0,0,0,0,0,0,0,0,0,0,0],"id":10,"left_children":[1,3,5,7,9,-1,11,13,15,-1,17,-1,19,-1,21,-1,23,25,27,29,31,33,35,37,39,41,-1,-1,43,-1,45,-1,-1,-1,-1,-1,-1,-1,-1,-1,-1,-1,-1,-1,-1,-1,-1],"loss_changes":[9.6652016E1,1.1966888E2,1.43246765E1,4.8611183E1,5.5797604E1,0E0,9.064468E0,5.679396E1,8.269286E1,0E0,5.045981E1,0E0,5.267975E0,0E0,2.6949419E1,0E0,2.1933191E1,6.4777126E0,3.7042606E1,1.8593826E0,2.2671898E-1,6.511593E0,8.434454E0,5.7358475E0,2.2895082E1,2.6960297E0,0E0,0E0,3.6215313E1,0E0,1.4342575E0,0E0,0E0,0E0,0E0,0E0,0E0,0E0,0E0,0E0,0E0,0E0,0E0,0E0,0E0,0E0,0E0],"parents":[2147483647,0,0,1,1,2,2,3,3,4,4,6,6,7,7,8,8,10,10,12,12,14,14,16,16,17,17,18,18,19,19,20,20,21,21,22,22,23,23,24,24,25,25,28,28,30,30],"right_children":[2,4,6,8,10,-1,12,14,16,-1,18,-1,20,-1,22,-1,24,26,28,30,32,34,36,38,40,42,-1,-1,44,-1,46,-1,-1,-1,-1,-1,-1,-1,-1,-1,-1,-1,-1,-1,-1,-1,-1],"split_conditions":[1.1924679E0,2.6997614E-1,-1.1547945E0,-4.5404255E-1,6.273837E-1,-0E0,-1.927379E0,-7.9529697E-1,-1.3612412E-1,1.8495862E-1,6.3536155E-1,-0E0,1.3130305E0,-1.4364493E-1,7.184883E-1,1.7518318E-1,-1.3587911E-1,7.184883E-1,9.891475E-1,-1.5348057E0,-1.7816989E-2,2.656199E-1,9.176007E-1,1.1919024E0,0E0,-7.932372E-1,-0E0,1.7327541E-1,1.003956E0,-0E0,4.2505196E-1,-0E0,1.4732642E-2,-3.6041025E-2,-9.612591E-2,3.912402E-2,-5.906585E-2,-8.804947E-2,-0E0,1.4437932E-2,-6.9273725E-2,-0E0,-7.71807E-2,-4.7399748E-2,4.930066E-2,-0E0,1.1426012E-1],"split_indices":[4,2,13,4,2,0,12,2,4,0,2,0,14,0,15,0,4,15,2,14,13,2,0,15,3,16,0,0,2,0,9,0,0,0,0,0,0,0,0,0,0,0,0,0,0,0,0],"split_type":[0,0,0,0,0,0,0,0,0,0,0,0,0,0,0,0,0,0,0,0,0,0,0,0,0,0,0,0,0,0,0,0,0,0,0,0,0,0,0,0,0,0,0,0,0,0,0],"sum_hessian":[2.1126238E3,1.8460328E3,2.6659106E2,1.1595525E3,6.864802E2,1.6275146E1,2.5031592E2,6.32898E2,5.2665454E2,4.7369675E1,6.391106E2,1.2351968E1,2.3796394E2,1.5147934E2,4.8141864E2,4.33877E1,4.8326685E2,1.22533394E2,5.1657715E2,2.1000616E2,2.7957777E1,3.7121906E2,1.1019959E2,1.1878612E2,3.644807E2,1.0083745E2,2.1695946E1,4.195198E1,4.7462518E2,1.1119958E1,1.9888622E2,1.05398035E1,1.7417973E1,2.7139667E2,9.982238E1,9.950959E1,1.0690002E1,1.03301506E2,1.5484616E1,2.8176587E2,8.271487E1,1.0043239E1,9.079421E1,8.606264E1,3.8856256E2,1.0666367E1,1.8821985E2],"tree_param":{"num_deleted":"0","num_feature":"17","num_nodes":"47","size_leaf_vector":"1"}},{"base_weights":[1.6521009E-2,-2.2701198E-1,1.7036909E-1,-6.8740904E-1,3.6076058E-2,1.5836073E-1,1.0954495E-1,-1.3583742E-1,-4.0255627E-1,-1.0888611E-1,2.931874E-1,-1.0079105E-1,2.6306984E-1,-2.0659359E-1,-1.19973674E-1,-3.313548E-1,2.9751183E-2,-1.8471816E-1,4.0422085E-1,-0E0,-4.52184E-1,1.5901585E-1,1.9634634E-1,-4.454621E-1,-0E0,-4.3800983E-1,-0E0,1.5880983E-1,-1.2163753E-1,-6.995752E-2,-0E0,4.936812E-1,-0E0,-3.6142284E-1,1.0927349E-1,-6.036681E-1,-0E0,3.8951095E-3,4.3953395E-1,-7.735072E-2,-0E0,1.4800548E-2,-8.440024E-3,-7.697792E-2,-0E0,-0E0,6.225395E-3,-4.41497E-2,-0E0,-0E0,7.83422E-2,-7.627374E-2,-0E0,6.739072E-2,-0E0,-1.063607E-1,-0E0,4.8871014E-2,-2.5410198E-2,1.173673E-1,3.2364815E-2],"categories":[],"categories_nodes":[],"categories_segments":[],"categories_sizes":[],"default_left":[0,0,0,0,0,0,0,0,0,0,0,0,0,0,0,0,0,0,0,0,0,0,0,0,0,0,0,0,0,0,0,0,0,0,0,0,0,0,0,0,0,0,0,0,0,0,0,0,0,0,0,0,0,0,0,0,0,0,0,0,0],"id":11,"left_children":[1,3,5,7,9,-1,11,-1,13,15,17,19,21,23,-1,25,27,29,31,33,35,-1,37,39,41,43,45,-1,47,-1,-1,49,-1,51,53,55,-1,57,59,-1,-1,-1,-1,-1,-1,-1,-1,-1,-1,-1,-1,-1,-1,-1,-1,-1,-1,-1,-1,-1,-1],"loss_changes":[7.698515E1,9.9805534E1,6.2491467E1,9.080688E0,1.9852617E1,0E0,4.080856E1,0E0,4.589262E0,1.1587207E1,1.2549879E1,1.8994646E1,2.9546314E1,6.1377606E0,0E0,6.8755627E0,3.5075546E1,2.9123256E0,6.430086E0,1.4488678E1,6.425022E0,0E0,2.8695267E1,2.2482214E0,4.5168668E-1,4.9252663E0,2.9280957E-2,0E0,4.0832114E0,0E0,0E0,4.1050797E0,0E0,8.668772E0,1.2455746E1,8.817881E0,0E0,2.6146845E1,1.3972889E1,0E0,0E0,0E0,0E0,0E0,0E0,0E0,0E0,0E0,0E0,0E0,0E0,0E0,0E0,0E0,0E0,0E0,0E0,0E0,0E0,0E0,0E0],"parents":[2147483647,0,0,1,1,2,2,3,3,4,4,6,6,8,8,9,9,10,10,11,11,12,12,13,13,15,15,16,16,17,17,18,18,19,19,20,20,22,22,23,23,24,24,25,25,26,26,28,28,31,31,33,33,34,34,35,35,37,37,38,38],"right_children":[2,4,6,8,10,-1,12,-1,14,16,18,20,22,24,-1,26,28,30,32,34,36,-1,38,40,42,44,46,-1,48,-1,-1,50,-1,52,54,56,-1,58,60,-1,-1,-1,-1,-1,-1,-1,-1,-1,-1,-1,-1,-1,-1,-1,-1,-1,-1,-1,-1,-1,-1],"split_conditions":[-4.46856E-1,-4.5404255E-1,-9.6143894E-2,-7.9529697E-1,8.793381E-1,1.5836073E-1,-2.122678E-1,-1.3583742E-1,2.8224406E-1,4.3809405E-3,-1.0643327E0,1.3467122E0,-1.9960946E-16,-2.122678E-1,-1.19973674E-1,1.0528651E0,9.940817E-1,7.605806E-2,1E0,-7.3864214E-2,1.7422193E0,1.5901585E-1,7.184883E-1,1.4196341E-2,-7.3018247E-1,6.2160245E-3,1.9676678E-1,1.5880983E-1,1.9507591E-1,-6.995752E-2,-0E0,-1.1813965E0,-0E0,6.384602E-1,2.656199E-1,8.597528E-1,-0E0,6.807681E-1,1.5797292E0,-7.735072E-2,-0E0,1.4800548E-2,-8.440024E-3,-7.697792E-2,-0E0,-0E0,6.225395E-3,-4.41497E-2,-0E0,-0E0,7.83422E-2,-7.627374E-2,-0E0,6.739072E-2,-0E0,-1.063607E-1,-0E0,4.8871014E-2,-2.5410198E-2,1.173673E-1,3.2364815E-2],"split_indices":[2,4,2,2,4,0,15,0,6,1,11,6,15,15,0,13,1,13,0,2,2,0,15,0,7,10,4,0,13,0,0,13,0,8,2,13,0,15,15,0,0,0,0,0,0,0,0,0,0,0,0,0,0,0,0,0,0,0,0,0,0],"split_type":[0,0,0,0,0,0,0,0,0,0,0,0,0,0,0,0,0,0,0,0,0,0,0,0,0,0,0,0,0,0,0,0,0,0,0,0,0,0,0,0,0,0,0,0,0,0,0,0,0,0,0,0,0,0,0,0,0,0,0,0,0],"sum_hessian":[2.0581003E3,7.759464E2,1.2821539E3,2.906783E2,4.8526807E2,6.62833E1,1.2158706E3,1.333705E2,1.5730782E2,2.920537E2,1.9321436E2,4.917177E2,7.241529E2,1.2514655E2,3.2161266E1,1.3192798E2,1.6012572E2,2.2349785E1,1.7086458E2,3.7845773E2,1.1325997E2,3.9589848E1,6.8456305E2,5.4488598E1,7.065796E1,1.09508766E2,2.2419205E1,2.3006323E1,1.371194E2,1.1937965E1,1.041182E1,1.3952274E2,3.1341833E1,7.885923E1,2.995985E2,7.930186E1,3.395812E1,4.0287952E2,2.8168353E2,4.4013577E1,1.0475021E1,2.1018661E1,4.9639297E1,8.951438E1,1.9994387E1,1.1004777E1,1.1414429E1,6.1530212E1,7.558919E1,1.128909E1,1.2823364E2,6.544978E1,1.3409443E1,6.928834E1,2.3031017E2,6.784041E1,1.1461443E1,1.5501712E2,2.4786238E2,8.480298E1,1.9688054E2],"tree_param":{"num_deleted":"0","num_feature":"17","num_nodes":"61","size_leaf_vector":"1"}},{"base_weights":[-0E0,-2.4303253E-1,1.4787012E-1,-6.579184E-1,-0E0,1.4963031E-1,9.416328E-2,-1.3464409E-1,-3.770861E-1,-1.8840763E-1,1.5872774E-1,-1.0030144E-1,2.5787854E-1,-0E0,-4.8172307E-1,-3.033928E-1,9.325432E-2,1.7277592E-1,-6.0522668E-2,-1.0351079E-1,-3.155076E-2,1.9439241E-1,7.4703256E-3,5.5342667E-2,-2.7652511E-2,-5.443402E-1,-0E0,-3.902518E-1,-0E0,2.367683E-1,-0E0,-3.213308E-1,2.8676271E-2,-1.06807865E-1,4.5332384E-1,-3.9025754E-1,1.1863233E-1,-0E0,4.1870568E-2,-9.119737E-2,-0E0,-6.5310195E-2,-0E0,5.2069373E-2,-0E0,-0E0,-7.27164E-2,2.5801834E-2,-4.786369E-3,-3.4381103E-2,3.3204842E-2,-0E0,8.007353E-2,-7.222369E-2,-0E0,-5.725326E-2,2.9715523E-2],"categories":[],"categories_nodes":[],"categories_segments":[],"categories_sizes":[],"default_left":[0,0,0,0,0,0,0,0,0,0,0,0,0,0,0,0,0,0,0,0,0,0,0,0,0,0,0,0,0,0,0,0,0,0,0,0,0,0,0,0,0,0,0,0,0,0,0,0,0,0,0,0,0,0,0,0,0],"id":12,"left_children":[1,3,5,7,9,-1,11,-1,13,15,17,19,21,23,25,27,29,-1,31,-1,33,-1,35,37,-1,39,-1,41,-1,43,-1,45,47,49,51,53,55,-1,-1,-1,-1,-1,-1,-1,-1,-1,-1,-1,-1,-1,-1,-1,-1,-1,-1,-1,-1],"loss_changes":[7.265767E1,7.877826E1,5.120079E1,1.0208267E1,1.4360821E1,0E0,3.9870724E1,0E0,5.1236343E0,8.658807E0,7.129604E1,1.6591208E1,1.7491379E2,9.006354E-1,3.3430004E0,7.5732336E0,1.5056305E0,0E0,7.537088E0,0E0,1.5552476E1,0E0,2.2939257E1,1.3659656E0,0E0,3.2264557E0,0E0,3.67626E0,0E0,1.1349274E0,0E0,4.420167E0,2.5517583E0,2.0169792E1,2.3922043E0,5.3681374E0,1.9567429E1,0E0,0E0,0E0,0E0,0E0,0E0,0E0,0E0,0E0,0E0,0E0,0E0,0E0,0E0,0E0,0E0,0E0,0E0,0E0,0E0],"parents":[2147483647,0,0,1,1,2,2,3,3,4,4,6,6,8,8,9,9,10,10,11,11,12,12,13,13,14,14,15,15,16,16,18,18,20,20,22,22,23,23,25,25,27,27,29,29,31,31,32,32,33,33,34,34,35,35,36,36],"right_children":[2,4,6,8,10,-1,12,-1,14,16,18,20,22,24,26,28,30,-1,32,-1,34,-1,36,38,-1,40,-1,42,-1,44,-1,46,48,50,52,54,56,-1,-1,-1,-1,-1,-1,-1,-1,-1,-1,-1,-1,-1,-1,-1,-1,-1,-1,-1,-1],"split_conditions":[-4.46856E-1,-4.5404255E-1,-9.6143894E-2,-7.9529697E-1,4.3809405E-3,1.4963031E-1,4.3809405E-3,-1.3464409E-1,-7.715953E-1,2.9840114E-2,9.9498135E-1,-1.2643207E0,9.9498135E-1,-5.400037E-1,-3.7725285E-1,9.4544625E-1,6.236268E-1,1.7277592E-1,9.195816E-2,-1.0351079E-1,8.793381E-1,1.9439241E-1,-7.3864214E-2,-1.3238318E-1,-2.7652511E-2,3.5260096E-1,-0E0,1.3219168E0,-0E0,-2.038573E-3,-0E0,-4.789057E-1,9.601572E-1,1.4016896E0,-4.1923377E-1,1.3928137E0,-6.2024224E-1,-0E0,4.1870568E-2,-9.119737E-2,-0E0,-6.5310195E-2,-0E0,5.2069373E-2,-0E0,-0E0,-7.27164E-2,2.5801834E-2,-4.786369E-3,-3.4381103E-2,3.3204842E-2,-0E0,8.007353E-2,-7.222369E-2,-0E0,-5.725326E-2,2.9715523E-2],"split_indices":[2,4,2,2,1,0,1,0,7,12,1,13,1,5,8,16,11,0,11,0,4,0,2,11,0,7,0,14,0,16,0,14,11,2,3,11,15,0,0,0,0,0,0,0,0,0,0,0,0,0,0,0,0,0,0,0,0],"split_type":[0,0,0,0,0,0,0,0,0,0,0,0,0,0,0,0,0,0,0,0,0,0,0,0,0,0,0,0,0,0,0,0,0,0,0,0,0,0,0,0,0,0,0,0,0,0,0,0,0,0,0,0,0,0,0,0,0],"sum_hessian":[2.0204187E3,7.5629736E2,1.2641212E3,2.8149988E2,4.7479752E2,5.900634E1,1.2051149E3,1.225636E2,1.5893626E2,2.0758997E2,2.6720755E2,5.293201E2,6.757948E2,4.1125584E1,1.1781068E2,1.6728328E2,4.030668E1,4.9526222E1,2.1768134E2,3.733586E1,4.9198425E2,1.1671492E2,5.590799E2,2.3227795E1,1.7897789E1,1.0261963E2,1.5191053E1,1.4913895E2,1.814434E1,2.9494665E1,1.0812015E1,7.5423355E1,1.4225798E2,4.4301E2,4.8974224E1,1.0410647E2,4.5497342E2,1.0324414E1,1.2903381E1,8.2890236E1,1.9729391E1,1.2741112E2,2.1727825E1,1.8922047E1,1.0572618E1,3.0008757E1,4.5414597E1,7.669771E1,6.556027E1,3.364606E2,1.0654942E2,1.0048661E1,3.8925564E1,8.283397E1,2.1272497E1,5.059426E1,4.0437918E2],"tree_param":{"num_deleted":"0","num_feature":"17","num_nodes":"57","size_leaf_vector":"1"}},{"base_weights":[-0E0,-2.9132384E-1,8.7484024E-2,-7.138704E-1,-0E0,1.7045555E-1,4.2180035E-2,-1.1044993E-1,-0E0,-1.8834554E-1,1.310837E-1,-3.3228993E-1,1.22145854E-1,-3.3057365E-1,4.067927E-2,1.3712887E-1,-1.30885765E-2,-6.5268E-1,-1.5244652E-1,1.4302604E-1,7.225469E-2,-4.1183922E-1,-0E0,2.369774E-2,-0E0,-0E0,-2.4788766E-1,-1.0775744E-1,-0E0,-0E0,-4.8164588E-1,-4.044314E-1,1.4101923E-1,-6.978067E-2,-0E0,-3.1473621E-4,3.6716085E-2,-0E0,-4.9968917E-2,1.4340119E-3,-9.082276E-3,-8.20142E-2,-0E0,-0E0,-8.437509E-2,-2.6256815E-2,3.1751234E-2],"categories":[],"categories_nodes":[],"categories_segments":[],"categories_sizes":[],"default_left":[0,0,0,0,0,0,0,0,0,0,0,0,0,0,0,0,0,0,0,0,0,0,0,0,0,0,0,0,0,0,0,0,0,0,0,0,0,0,0,0,0,0,0,0,0,0,0],"id":13,"left_children":[1,3,5,7,9,-1,11,-1,-1,13,15,17,19,21,23,-1,25,27,29,-1,31,33,-1,-1,-1,35,37,-1,-1,39,41,43,45,-1,-1,-1,-1,-1,-1,-1,-1,-1,-1,-1,-1,-1,-1],"loss_changes":[4.945002E1,5.1771877E1,6.640686E1,2.4756088E0,7.0653486E0,0E0,4.3111176E1,0E0,0E0,6.479376E0,2.5361494E1,7.314152E0,4.5401917E1,3.5740948E0,4.321056E-1,0E0,1.989887E0,2.5799828E0,7.220997E0,0E0,3.7280308E1,2.7623415E0,0E0,0E0,0E0,1.6943619E0,6.166966E-1,0E0,0E0,2.8059706E-1,1.1003342E0,8.089739E0,2.766852E1,0E0,0E0,0E0,0E0,0E0,0E0,0E0,0E0,0E0,0E0,0E0,0E0,0E0,0E0],"parents":[2147483647,0,0,1,1,2,2,3,3,4,4,6,6,9,9,10,10,11,11,12,12,13,13,14,14,16,16,17,17,18,18,20,20,21,21,25,25,26,26,29,29,30,30,31,31,32,32],"right_children":[2,4,6,8,10,-1,12,-1,-1,14,16,18,20,22,24,-1,26,28,30,-1,32,34,-1,-1,-1,36,38,-1,-1,40,42,44,46,-1,-1,-1,-1,-1,-1,-1,-1,-1,-1,-1,-1,-1,-1],"split_conditions":[-7.9529697E-1,-1.3587911E-1,-4.5790768E-1,1.2032274E0,4.3809405E-3,1.7045555E-1,-4.46856E-1,-1.1044993E-1,-0E0,2.9840114E-2,9.9498135E-1,-4.9531308E-1,-9.6143894E-2,7.0172393E-1,-2.6398757E-1,1.3712887E-1,6.8968177E-1,8.793381E-1,-3.343029E-2,1.4302604E-1,-1.0339853E0,1.3219168E0,-0E0,2.369774E-2,-0E0,1.8602386E0,7.138518E-1,-1.0775744E-1,-0E0,9.3857485E-1,5.7710683E-1,-8.6161244E-1,-7.3864214E-2,-6.978067E-2,-0E0,-3.1473621E-4,3.6716085E-2,-0E0,-4.9968917E-2,1.4340119E-3,-9.082276E-3,-8.20142E-2,-0E0,-0E0,-8.437509E-2,-2.6256815E-2,3.1751234E-2],"split_indices":[2,4,2,12,1,0,2,0,0,12,1,13,2,16,11,0,14,4,6,0,15,14,0,0,0,4,4,0,0,1,4,16,2,0,0,0,0,0,0,0,0,0,0,0,0,0,0],"split_type":[0,0,0,0,0,0,0,0,0,0,0,0,0,0,0,0,0,0,0,0,0,0,0,0,0,0,0,0,0,0,0,0,0,0,0,0,0,0,0,0,0,0,0,0,0,0,0],"sum_hessian":[1.9748427E3,4.395412E2,1.5353014E3,1.7122423E2,2.68317E2,4.972587E1,1.4855756E3,1.5222995E2,1.899428E1,1.2189059E2,1.4642639E2,2.4148651E2,1.244089E3,9.550524E1,2.6385342E1,2.65733E1,1.19853096E2,6.683053E1,1.7465599E2,5.4406837E1,1.1896821E3,8.108289E1,1.4422345E1,1.3580438E1,1.2804904E1,9.1403725E1,2.844937E1,5.4526657E1,1.2303874E1,1.2988277E2,4.4773216E1,1.3272714E2,1.0569551E3,6.9269226E1,1.181367E1,6.958044E1,2.1823284E1,1.0867209E1,1.758216E1,6.5234085E1,6.464868E1,3.426074E1,1.0512479E1,4.801526E1,8.4711876E1,1.8729277E2,8.6966223E2],"tree_param":{"num_deleted":"0","num_feature":"17","num_nodes":"47","size_leaf_vector":"1"}},{"base_weights":[5.8176275E-3,-5.487752E-1,4.8179172E-2,-6.399983E-1,-0E0,-1.3561703E-2,3.8266486E-1,-9.7544126E-2,-0E0,-1.5892653E-1,2.0205718E-1,7.243029E-2,5.3735644E-1,-2.9345322E-1,-0E0,1.626249E-1,1.15897894E-1,1.7920162E-1,-3.0385347E-2,5.7742876E-1,-0E0,-1.192383E-1,-1.5663703E-1,1.5525104E-1,-1.00544535E-1,-1.4754255E-2,4.2791918E-1,-0E0,3.6286744E-1,-0E0,-2.2469928E-2,6.158349E-1,-0E0,-0E0,-6.8755805E-2,-0E0,-5.7822358E-2,1.6755696E-2,-4.834117E-2,7.517672E-2,-0E0,-8.933229E-3,2.026797E-2,7.2774954E-2,-0E0,-0E0,9.3336605E-2],"categories":[],"categories_nodes":[],"categories_segments":[],"categories_sizes":[],"default_left":[0,0,0,0,0,0,0,0,0,0,0,0,0,0,0,0,0,0,0,0,0,0,0,0,0,0,0,0,0,0,0,0,0,0,0,0,0,0,0,0,0,0,0,0,0,0,0],"id":14,"left_children":[1,3,5,7,-1,9,11,-1,-1,13,15,17,19,21,23,-1,25,27,29,31,-1,-1,33,-1,35,37,39,41,43,-1,-1,45,-1,-1,-1,-1,-1,-1,-1,-1,-1,-1,-1,-1,-1,-1,-1],"loss_changes":[4.191173E1,7.18042E0,4.071835E1,7.0685196E-1,0E0,4.7662003E1,9.6136055E0,0E0,0E0,2.1389542E1,3.698661E1,2.5672638E0,3.8132706E0,2.9807724E1,5.025621E1,0E0,2.6021667E1,3.0878925E0,3.7501517E-1,2.702675E-1,0E0,0E0,1.9900707E1,0E0,1.03278055E1,1.781935E1,8.404285E0,5.6397796E-1,1.5574164E0,0E0,0E0,6.070938E-1,0E0,0E0,0E0,0E0,0E0,0E0,0E0,0E0,0E0,0E0,0E0,0E0,0E0,0E0,0E0],"parents":[2147483647,0,0,1,1,2,2,3,3,5,5,6,6,9,9,10,10,11,11,12,12,13,13,14,14,16,16,17,17,18,18,19,19,22,22,24,24,25,25,26,26,27,27,28,28,31,31],"right_children":[2,4,6,8,-1,10,12,-1,-1,14,16,18,20,22,24,-1,26,28,30,32,-1,-1,34,-1,36,38,40,42,44,-1,-1,46,-1,-1,-1,-1,-1,-1,-1,-1,-1,-1,-1,-1,-1,-1,-1],"split_conditions":[-1.3697492E0,1.4016896E0,8.793381E-1,1.5424758E-1,-0E0,2.6997614E-1,-7.9529697E-1,-9.7544126E-2,-0E0,-4.5404255E-1,6.273837E-1,2.28665E0,2.1986055E0,-7.9529697E-1,-1.3612412E-1,1.626249E-1,1.7422193E0,-8.751273E-1,-6.9074586E-2,1.3130305E0,-0E0,-1.192383E-1,3.629369E-1,1.5525104E-1,0E0,1.3467122E0,3.3142626E0,3.8974802E0,6.5201217E-1,-0E0,-2.2469928E-2,-1.4355252E0,-0E0,-0E0,-6.8755805E-2,-0E0,-5.7822358E-2,1.6755696E-2,-4.834117E-2,7.517672E-2,-0E0,-8.933229E-3,2.026797E-2,7.2774954E-2,-0E0,-0E0,9.3336605E-2],"split_indices":[13,2,4,16,0,2,2,0,0,4,2,9,12,2,4,0,2,7,14,14,0,0,6,0,3,6,6,4,15,0,0,14,0,0,0,0,0,0,0,0,0,0,0,0,0,0,0],"split_type":[0,0,0,0,0,0,0,0,0,0,0,0,0,0,0,0,0,0,0,0,0,0,0,0,0,0,0,0,0,0,0,0,0,0,0,0,0,0,0,0,0,0,0,0,0,0,0],"sum_hessian":[1.9448179E3,1.21019135E2,1.8237987E3,1.0537585E2,1.5643284E1,1.522949E3,3.008498E2,9.531962E1,1.0056232E1,9.3243665E2,5.905123E2,1.19344124E2,1.8150566E2,5.1884515E2,4.135915E2,3.7969833E1,5.525425E2,9.5038185E1,2.4305937E1,1.6805089E2,1.3454784E1,8.954502E1,4.293001E2,3.5702717E1,3.7788876E2,3.7432114E2,1.7822136E2,5.1644413E1,4.3393776E1,1.2071035E1,1.22349E1,1.4793918E2,2.011171E1,2.9938995E2,1.2991017E2,2.9399933E2,8.3889435E1,2.5002385E2,1.242973E2,1.4944244E2,2.877892E1,3.5044933E1,1.659948E1,2.6449223E1,1.6944551E1,1.3119508E1,1.3481967E2],"tree_param":{"num_deleted":"0","num_feature":"17","num_nodes":"47","size_leaf_vector":"1"}},{"base_weights":[-0E0,-6.4336255E-2,2.940716E-1,-1.2298212E-1,3.942621E-1,7.273999E-1,8.931058E-2,-1.803286E-1,3.42256E-1,4.9977836E-1,-0E0,1.1201285E-1,-0E0,-4.232924E-2,3.262715E-1,-2.8618515E-1,-2.3003435E-2,-0E0,4.4410795E-1,-0E0,6.0981077E-1,-2.6359389E-2,3.360019E-3,-3.1057316E-1,-0E0,-0E0,4.5927548E-1,-4.9602106E-1,-1.07746E-1,1.6224019E-1,-1.4787927E-1,5.2482563E-1,-0E0,6.5331054E-1,-0E0,-0E0,-6.0790136E-2,1.1764448E-1,-1.0113645E-1,-0E0,5.8161676E-1,-8.19813E-2,-7.4047423E-3,1.852063E-1,-3.34579E-2,-4.9399186E-2,3.955814E-3,8.618654E-2,-0E0,-0E0,1.0889829E-1,3.5999566E-2,-2.2565364E-3,-0E0,-2.15098E-2,7.4247266E-3,-0E0,1.07043326E-1,-0E0],"categories":[],"categories_nodes":[],"categories_segments":[],"categories_sizes":[],"default_left":[0,0,0,0,0,0,0,0,0,0,0,0,0,0,0,0,0,0,0,0,0,0,0,0,0,0,0,0,0,0,0,0,0,0,0,0,0,0,0,0,0,0,0,0,0,0,0,0,0,0,0,0,0,0,0,0,0,0,0],"id":15,"left_children":[1,3,5,7,9,11,13,15,17,19,21,-1,-1,23,25,27,29,-1,31,-1,33,-1,-1,35,37,-1,39,41,43,-1,45,47,-1,49,-1,-1,-1,51,53,55,57,-1,-1,-1,-1,-1,-1,-1,-1,-1,-1,-1,-1,-1,-1,-1,-1,-1,-1],"loss_changes":[3.7846222E1,3.975447E1,2.5453335E1,3.615661E1,7.7956276E0,1.648159E0,1.0563991E1,1.8470463E1,8.026157E0,6.354912E0,5.081074E-1,0E0,0E0,3.8578286E0,5.789706E0,2.1983547E1,7.055732E1,0E0,6.6204643E0,0E0,4.3375778E-1,0E0,0E0,1.2844071E0,1.5139604E0,0E0,2.4246807E0,4.962631E0,6.49726E1,0E0,1.9578037E1,2.7448254E0,0E0,1.1231728E0,0E0,0E0,0E0,3.3951015E0,8.72089E-2,4.4622492E-2,2.7409039E0,0E0,0E0,0E0,0E0,0E0,0E0,0E0,0E0,0E0,0E0,0E0,0E0,0E0,0E0,0E0,0E0,0E0,0E0],"parents":[2147483647,0,0,1,1,2,2,3,3,4,4,5,5,6,6,7,7,8,8,9,9,10,10,13,13,14,14,15,15,16,16,18,18,20,20,23,23,24,24,26,26,27,27,28,28,30,30,31,31,33,33,37,37,38,38,39,39,40,40],"right_children":[2,4,6,8,10,12,14,16,18,20,22,-1,-1,24,26,28,30,-1,32,-1,34,-1,-1,36,38,-1,40,42,44,-1,46,48,-1,50,-1,-1,-1,52,54,56,58,-1,-1,-1,-1,-1,-1,-1,-1,-1,-1,-1,-1,-1,-1,-1,-1,-1,-1],"split_conditions":[7.184883E-1,1.5284455E0,1.5797292E0,1.7422193E0,6.807681E-1,2.1986055E0,1.679615E0,-4.5404255E-1,-6.2024224E-1,6.384602E-1,3.3306077E-1,1.1201285E-1,-0E0,-4.46856E-1,4.3809405E-3,-7.3864214E-2,-1.3612412E-1,-0E0,1.1008841E0,-0E0,1.4401814E0,-2.6359389E-2,3.360019E-3,-3.2466692E-1,1.3467122E0,-0E0,-5.459687E-1,2.533715E-1,2.656199E-1,1.6224019E-1,1.9676678E-1,1.0365438E0,-0E0,-5.3252316E-1,-0E0,-0E0,-6.0790136E-2,-4.6293147E-2,5.341649E-1,-1.3572852E-3,1.006E0,-8.19813E-2,-7.4047423E-3,1.852063E-1,-3.34579E-2,-4.9399186E-2,3.955814E-3,8.618654E-2,-0E0,-0E0,1.0889829E-1,3.5999566E-2,-2.2565364E-3,-0E0,-2.15098E-2,7.4247266E-3,-0E0,1.07043326E-1,-0E0],"split_indices":[15,4,15,2,15,12,15,4,15,8,16,0,0,2,1,2,4,0,13,0,11,0,0,14,6,0,5,7,2,0,4,11,0,13,0,0,0,8,13,12,11,0,0,0,0,0,0,0,0,0,0,0,0,0,0,0,0,0,0],"split_type":[0,0,0,0,0,0,0,0,0,0,0,0,0,0,0,0,0,0,0,0,0,0,0,0,0,0,0,0,0,0,0,0,0,0,0,0,0,0,0,0,0,0,0,0,0,0,0,0,0,0,0,0,0,0,0,0,0,0,0],"sum_hessian":[1.905719E3,1.5465897E3,3.5912927E2,1.3894309E3,1.5715881E2,9.923947E1,2.598898E2,1.2545546E3,1.3487645E2,1.2739719E2,2.9761621E1,8.9130806E1,1.01086645E1,1.4769768E2,1.1219212E2,7.1755084E2,5.370037E2,1.5815099E1,1.1906135E2,2.6142612E1,1.0125457E2,1.05287E1,1.9232922E1,3.8539192E1,1.0915848E2,3.0243504E1,8.194862E1,3.0572327E2,4.1182758E2,4.3029327E1,4.9397437E2,1.08075165E2,1.0986182E1,8.868498E1,1.2569591E1,1.2383226E1,2.6155968E1,8.1518036E1,2.7640444E1,2.5292807E1,5.6655815E1,2.4627414E2,5.944911E1,2.523607E1,3.865915E2,2.5355623E2,2.4041815E2,8.993905E1,1.8136122E1,2.1494226E1,6.719076E1,6.910644E1,1.2411596E1,1.3346066E1,1.4294377E1,1.2534601E1,1.2758205E1,3.8058407E1,1.859741E1],"tree_param":{"num_deleted":"0","num_feature":"17","num_nodes":"59","size_leaf_vector":"1"}},{"base_weights":[3.3478097E-3,-5.093916E-1,4.2213213E-2,-5.814905E-1,-0E0,-1.3936877E-1,1.40311E-1,-6.186081E-1,-0E0,-3.4149665E-1,-0E0,-8.904486E-2,2.4149673E-1,-6.608213E-1,-0E0,-0E0,-4.0681598E-1,7.3435694E-2,-2.5733194E-1,-3.5344592E-1,6.733562E-2,1.5756755E-1,1.8096368E-1,-1.02092735E-1,-0E0,-0E0,1.6464736E-2,-0E0,-4.5345333E-1,-0E0,1.18334234E-1,-0E0,-4.0224397E-1,-4.5083326E-1,-0E0,1.6646941E-1,-1.9897835E-1,2.2876726E-2,3.7794825E-1,-7.819853E-2,-4.775354E-3,2.0324813E-2,-2.2297923E-2,-0E0,-7.6369405E-2,-7.0964225E-2,-0E0,4.385544E-3,1.0342884E-1,-6.5033846E-2,-0E0,1.7939484E-2,-4.697074E-2,8.367379E-2,-0E0],"categories":[],"categories_nodes":[],"categories_segments":[],"categories_sizes":[],"default_left":[0,0,0,0,0,0,0,0,0,0,0,0,0,0,0,0,0,0,0,0,0,0,0,0,0,0,0,0,0,0,0,0,0,0,0,0,0,0,0,0,0,0,0,0,0,0,0,0,0,0,0,0,0,0,0],"id":16,"left_children":[1,3,5,7,-1,9,11,13,-1,15,17,19,21,23,-1,25,27,29,31,33,35,-1,37,-1,-1,-1,-1,-1,39,41,-1,-1,43,45,-1,47,49,51,53,-1,-1,-1,-1,-1,-1,-1,-1,-1,-1,-1,-1,-1,-1,-1,-1],"loss_changes":[3.37368E1,4.3448353E0,3.1469841E1,7.6483154E-1,0E0,1.9233208E1,2.8561703E1,4.55101E-1,0E0,8.653334E0,4.9772124E0,1.6379385E1,3.2308365E1,1.9999695E-1,0E0,2.567529E-1,6.918972E0,1.4091955E1,1.861438E0,5.9747314E0,5.092308E0,0E0,2.162483E1,0E0,0E0,0E0,0E0,0E0,3.7649689E0,5.8655634E0,0E0,0E0,9.1072035E-1,1.8729229E0,0E0,6.5341415E0,1.9928837E0,1.5216349E1,2.181583E1,0E0,0E0,0E0,0E0,0E0,0E0,0E0,0E0,0E0,0E0,0E0,0E0,0E0,0E0,0E0,0E0],"parents":[2147483647,0,0,1,1,2,2,3,3,5,5,6,6,7,7,9,9,10,10,11,11,12,12,13,13,15,15,16,16,17,17,18,18,19,19,20,20,22,22,28,28,29,29,32,32,33,33,35,35,36,36,37,37,38,38],"right_children":[2,4,6,8,-1,10,12,14,-1,16,18,20,22,24,-1,26,28,30,32,34,36,-1,38,-1,-1,-1,-1,-1,40,42,-1,-1,44,46,-1,48,50,52,54,-1,-1,-1,-1,-1,-1,-1,-1,-1,-1,-1,-1,-1,-1,-1,-1],"split_conditions":[-1.3697492E0,1.4016896E0,-5.459687E-1,8.587239E-2,-0E0,2.7122077E-2,-7.9529697E-1,1.2032274E0,-0E0,-5.46174E-1,9.9203557E-1,1.9676678E-1,-4.5790768E-1,-2.122678E-1,-0E0,1.9507591E-1,-1.1253453E0,1.4196341E-2,4.4728413E-1,6.2160245E-3,1E0,1.5756755E-1,2.6997614E-1,-1.02092735E-1,-0E0,-0E0,1.6464736E-2,-0E0,1.4196341E-2,3.629369E-1,1.18334234E-1,-0E0,-2.1289907E-2,-6.0224265E-1,-0E0,1.4196341E-2,1.8602386E0,2.656199E-1,1.3467122E0,-7.819853E-2,-4.775354E-3,2.0324813E-2,-2.2297923E-2,-0E0,-7.6369405E-2,-7.0964225E-2,-0E0,4.385544E-3,1.0342884E-1,-6.5033846E-2,-0E0,1.7939484E-2,-4.697074E-2,8.367379E-2,-0E0],"split_indices":[13,2,5,16,0,15,2,12,0,5,0,4,2,15,0,13,16,0,16,10,0,0,2,0,0,0,0,0,0,6,0,0,12,6,0,0,4,2,6,0,0,0,0,0,0,0,0,0,0,0,0,0,0,0,0],"split_type":[0,0,0,0,0,0,0,0,0,0,0,0,0,0,0,0,0,0,0,0,0,0,0,0,0,0,0,0,0,0,0,0,0,0,0,0,0,0,0,0,0,0,0,0,0,0,0,0,0,0,0,0,0,0,0],"sum_hessian":[1.8710194E3,1.13720764E2,1.7572987E3,9.912264E1,1.459812E1,5.87226E2,1.1700726E3,8.908491E1,1.0037741E1,2.591606E2,3.2806543E2,3.342132E2,8.3585944E2,7.85798E1,1.05051E1,2.551938E1,2.3364122E2,2.8036395E2,4.7701458E1,1.41157E2,1.930562E2,4.1874695E1,7.9398474E2,6.82312E1,1.0348605E1,1.0125104E1,1.5394278E1,1.2774006E1,2.2086722E2,2.614622E2,1.8901773E1,1.9202429E1,2.849903E1,1.1450597E2,2.6651024E1,1.6367899E2,2.9377209E1,4.6559338E2,3.2839136E2,1.6554916E2,5.5318047E1,1.4330415E2,1.1815804E2,1.0645588E1,1.7853441E1,1.03033554E2,1.1472412E1,1.4650377E2,1.7175224E1,1.2052956E1,1.7324253E1,3.804054E2,8.518799E1,2.014371E2,1.2695426E2],"tree_param":{"num_deleted":"0","num_feature":"17","num_nodes":"55","size_leaf_vector":"1"}},{"base_weights":[-2.0641054E-3,5.019052E-2,-2.976849E-1,-5.129489E-2,1.9046059E-1,-3.603939E-1,2.6744707E-2,-1.291762E-1,2.3232062E-1,-5.1486355E-1,-0E0,-0E0,5.8381088E-2,-2.2259127E-1,1.1999235E-1,6.244925E-1,5.0321024E-2,-7.714557E-2,-0E0,-2.5261903E-1,6.370808E-2,-8.033517E-2,-1.4076994E-1,2.1035503E-1,-1.956352E-1,-0E0,9.726657E-2,-7.6948546E-2,2.8766716E-1,-0E0,-5.578925E-2,2.2346939E-1,-0E0,-0E0,-4.3310396E-2,-3.1427138E-2,4.108147E-2,-5.0788604E-2,-0E0,-0E0,-6.596445E-2,-0E0,5.996258E-2,-0E0,5.1084798E-2],"categories":[],"categories_nodes":[],"categories_segments":[],"categories_sizes":[],"default_left":[0,0,0,0,0,0,0,0,0,0,0,0,0,0,0,0,0,0,0,0,0,0,0,0,0,0,0,0,0,0,0,0,0,0,0,0,0,0,0,0,0,0,0,0,0],"id":17,"left_children":[1,3,5,7,-1,9,11,13,15,17,19,-1,-1,21,23,25,27,-1,-1,29,31,-1,33,35,37,-1,-1,39,41,-1,-1,43,-1,-1,-1,-1,-1,-1,-1,-1,-1,-1,-1,-1,-1],"loss_changes":[3.0513805E1,2.1004085E2,8.814568E0,3.0917934E1,0E0,1.2193031E1,3.073126E0,2.7645283E1,1.5025452E1,4.3793488E-1,2.7315035E0,0E0,0E0,1.7640873E1,8.634163E0,3.1677246E-1,8.273341E0,0E0,0E0,1.8037462E0,1.607073E0,0E0,1.5210607E1,8.768625E0,2.2349331E0,0E0,0E0,5.3609185E0,5.299838E0,0E0,0E0,1.2208301E0,0E0,0E0,0E0,0E0,0E0,0E0,0E0,0E0,0E0,0E0,0E0,0E0,0E0],"parents":[2147483647,0,0,1,1,2,2,3,3,5,5,6,6,7,7,8,8,9,9,10,10,13,13,14,14,15,15,16,16,19,19,20,20,22,22,23,23,24,24,27,27,28,28,31,31],"right_children":[2,4,6,8,-1,10,12,14,16,18,20,-1,-1,22,24,26,28,-1,-1,30,32,-1,34,36,38,-1,-1,40,42,-1,-1,44,-1,-1,-1,-1,-1,-1,-1,-1,-1,-1,-1,-1,-1],"split_conditions":[1E0,1.4196341E-2,2.229275E0,7.184883E-1,1.9046059E-1,6.3536155E-1,2.2514606E-1,1.9676678E-1,1.5797292E0,1.3082887E0,4.3809405E-3,-0E0,5.8381088E-2,-7.9529697E-1,6.807681E-1,-1.1038438E0,1.679615E0,-7.714557E-2,-0E0,7.7293115E-3,1.3467122E0,-8.033517E-2,3.629369E-1,-1.239514E0,1.8602386E0,-0E0,9.726657E-2,-3.909858E-2,2.9195629E-3,-0E0,-5.578925E-2,1.908119E-2,-0E0,-0E0,-4.3310396E-2,-3.1427138E-2,4.108147E-2,-5.0788604E-2,-0E0,-0E0,-6.596445E-2,-0E0,5.996258E-2,-0E0,5.1084798E-2],"split_indices":[0,0,4,15,0,2,16,4,15,13,1,0,0,2,15,14,15,0,0,16,6,0,6,13,4,0,0,4,11,0,0,6,0,0,0,0,0,0,0,0,0,0,0,0,0],"split_type":[0,0,0,0,0,0,0,0,0,0,0,0,0,0,0,0,0,0,0,0,0,0,0,0,0,0,0,0,0,0,0,0,0,0,0,0,0,0,0,0,0,0,0,0,0],"sum_hessian":[1.839121E3,1.5429592E3,2.9616183E2,1.4268865E3,1.1607271E2,2.683922E2,2.7769625E1,1.1433665E3,2.8352E2,1.753184E2,9.307382E1,1.3180281E1,1.4589345E1,8.5520715E2,2.8815933E2,7.268124E1,2.1083876E2,1.6341891E2,1.1899487E1,3.4526966E1,5.8546856E1,1.4392773E2,7.112794E2,2.4477635E2,4.338297E1,1.0365281E1,6.231596E1,1.17254944E2,9.358382E1,1.0240263E1,2.4286705E1,3.3007378E1,2.5539478E1,3.9009158E2,3.2118784E2,1.9264168E1,2.2551218E2,2.8408312E1,1.4974657E1,9.250718E1,2.474776E1,2.0457129E1,7.3126686E1,1.27477455E1,2.0259632E1],"tree_param":{"num_deleted":"0","num_feature":"17","num_nodes":"45","size_leaf_vector":"1"}},{"base_weights":[1.7879447E-2,-1.3471933E-1,1.11062326E-1,-4.674617E-1,1.775785E-2,1.3340862E-1,6.693706E-2,-1.1023978E-1,-2.366541E-1,-9.628632E-2,1.4750613E-1,-6.2647104E-2,1.8373789E-1,-0E0,-4.1346362E-1,8.81902E-3,-2.5846088E-1,-0E0,2.3137112E-1,-0E0,-3.7478352E-1,1.7567922E-1,-0E0,5.5800755E-2,-6.8530156E-3,-5.2388287E-1,-0E0,-0E0,5.2807625E-2,-3.596818E-1,-0E0,-1.4300324E-1,2.2860957E-2,2.90614E-1,-0E0,-5.468064E-2,1.2046148E-1,-5.7826114E-1,-0E0,-9.5311455E-2,2.4461968E-1,3.4646705E-2,-0E0,-0E0,-8.395605E-2,3.1069948E-3,-3.0718727E-2,-6.0687926E-2,-0E0,-0E0,-3.2581344E-2,2.4042156E-2,-0E0,-0E0,6.0588285E-2,6.310268E-4,-4.256848E-2,-0E0,-9.790015E-2,-2.2325952E-2,8.044881E-3,-3.2813054E-2,2.6343586E-2,4.7516294E-2,-0E0],"categories":[],"categories_nodes":[],"categories_segments":[],"categories_sizes":[],"default_left":[0,0,0,0,0,0,0,0,0,0,0,0,0,0,0,0,0,0,0,0,0,0,0,0,0,0,0,0,0,0,0,0,0,0,0,0,0,0,0,0,0,0,0,0,0,0,0,0,0,0,0,0,0,0,0,0,0,0,0,0,0,0,0,0,0],"id":18,"left_children":[1,3,5,7,9,-1,11,-1,13,15,17,19,21,23,25,27,29,31,33,35,37,-1,39,41,-1,43,-1,45,-1,47,-1,49,51,53,-1,55,-1,57,59,61,63,-1,-1,-1,-1,-1,-1,-1,-1,-1,-1,-1,-1,-1,-1,-1,-1,-1,-1,-1,-1,-1,-1,-1,-1],"loss_changes":[2.589046E1,3.726535E1,3.3897312E1,6.681347E0,7.015768E0,0E0,1.8033949E1,0E0,6.8725405E0,5.500733E0,4.245053E0,1.0270911E1,1.270748E2,1.936177E-1,4.16158E0,2.6697507E0,4.065246E0,8.909694E-1,4.38717E0,2.0305143E1,5.1863976E0,0E0,1.1434966E1,1.9267418E0,0E0,1.0827694E0,0E0,1.6349424E0,0E0,2.1980839E0,0E0,6.840301E-1,5.300869E-1,4.8650665E0,0E0,7.9813886E0,0E0,1.844368E0,6.279445E-1,1.5402601E1,4.819014E0,0E0,0E0,0E0,0E0,0E0,0E0,0E0,0E0,0E0,0E0,0E0,0E0,0E0,0E0,0E0,0E0,0E0,0E0,0E0,0E0,0E0,0E0,0E0,0E0],"parents":[2147483647,0,0,1,1,2,2,3,3,4,4,6,6,8,8,9,9,10,10,11,11,12,12,13,13,14,14,15,15,16,16,17,17,18,18,19,19,20,20,22,22,23,23,25,25,27,27,29,29,31,31,32,32,33,33,35,35,37,37,38,38,39,39,40,40],"right_children":[2,4,6,8,10,-1,12,-1,14,16,18,20,22,24,26,28,30,32,34,36,38,-1,40,42,-1,44,-1,46,-1,48,-1,50,52,54,-1,56,-1,58,60,62,64,-1,-1,-1,-1,-1,-1,-1,-1,-1,-1,-1,-1,-1,-1,-1,-1,-1,-1,-1,-1,-1,-1,-1,-1],"split_conditions":[-4.46856E-1,-4.5404255E-1,-9.6143894E-2,-7.9529697E-1,2.5627576E-2,1.3340862E-1,4.3809405E-3,-1.1023978E-1,-6.1394966E-1,6.1568636E-1,-4.3267917E-2,1E0,9.9498135E-1,-5.4942798E-2,3.5260096E-1,-3.7725285E-1,2.9840114E-2,1.1924679E0,3.5745878E-2,1.4196341E-2,2.3920037E-1,1.7567922E-1,7.184883E-1,-4.1042858E-1,-6.8530156E-3,-8.233613E-1,-0E0,9.940817E-1,5.2807625E-2,3.1928673E0,-0E0,1.7338915E-1,-3.5617343E-1,4.3809405E-3,-0E0,1.3467122E0,1.2046148E-1,-1.2377983E0,-5.587539E-1,1.4196341E-2,-3.300523E-3,3.4646705E-2,-0E0,-0E0,-8.395605E-2,3.1069948E-3,-3.0718727E-2,-6.0687926E-2,-0E0,-0E0,-3.2581344E-2,2.4042156E-2,-0E0,-0E0,6.0588285E-2,6.310268E-4,-4.256848E-2,-0E0,-9.790015E-2,-2.2325952E-2,8.044881E-3,-3.2813054E-2,2.6343586E-2,4.7516294E-2,-0E0],"split_indices":[2,4,2,2,13,0,1,0,3,8,12,0,1,6,7,8,12,4,7,0,15,0,15,5,0,7,0,1,0,4,0,4,14,1,0,6,0,11,9,0,8,0,0,0,0,0,0,0,0,0,0,0,0,0,0,0,0,0,0,0,0,0,0,0,0],"split_type":[0,0,0,0,0,0,0,0,0,0,0,0,0,0,0,0,0,0,0,0,0,0,0,0,0,0,0,0,0,0,0,0,0,0,0,0,0,0,0,0,0,0,0,0,0,0,0,0,0,0,0,0,0,0,0,0,0,0,0,0,0,0,0,0,0],"sum_hessian":[1.8252446E3,6.588309E2,1.1664137E3,2.2069151E2,4.3813937E2,4.6256557E1,1.1201571E3,7.700533E1,1.4368617E2,2.0105545E2,2.3708391E2,4.9959137E2,6.205658E2,5.928972E1,8.439646E1,9.460932E1,1.0644612E2,6.396416E1,1.7311975E2,4.1667053E2,8.292082E1,9.54457E1,5.251201E2,4.2878624E1,1.6411093E1,6.611827E1,1.8278189E1,7.8944984E1,1.5664339E1,8.4317825E1,2.2128294E1,3.852913E1,2.543503E1,1.6011047E2,1.3009276E1,3.935864E2,2.3084146E1,4.7860035E1,3.5060787E1,3.9962082E2,1.25499275E2,3.1602943E1,1.12756815E1,1.0267591E1,5.5850677E1,4.7766987E1,3.1177996E1,7.2763756E1,1.1554073E1,1.2292927E1,2.6236202E1,1.5328019E1,1.0107011E1,5.8297184E1,1.0181329E2,2.928009E2,1.007855E2,1.0355751E1,3.7504284E1,1.9285332E1,1.5775454E1,2.9071216E2,1.0890866E2,1.1150492E2,1.3994349E1],"tree_param":{"num_deleted":"0","num_feature":"17","num_nodes":"65","size_leaf_vector":"1"}},{"base_weights":[-3.6115337E-3,-1.3235556E-1,9.557854E-2,-7.569147E-2,-4.9252075E-1,1.8111387E-1,-8.9672856E-2,-1.4757136E-1,1.6370678E-1,-5.9240156E-1,-0E0,-1.6259812E-1,2.149893E-1,-1.976481E-1,8.3000734E-2,-0E0,-9.65163E-2,-2.3789695E-1,7.213745E-2,1.7851186E-1,-1.6027756E-1,-2.5150827E-1,7.668785E-2,-0E0,3.2125685E-1,-3.125477E-1,-0E0,2.009484E-1,-4.1673537E-2,-2.3613425E-1,-0E0,-2.2856241E-2,-7.5420246E-2,2.5423188E-2,-0E0,-1.4251085E-2,-0E0,-0E0,6.201608E-2,-5.9990507E-2,-3.5421755E-3,1.3791719E-1,-4.162184E-2,4.259248E-2,-0E0,-4.2480636E-2,2.2726017E-3,-5.726405E-2,-0E0],"categories":[],"categories_nodes":[],"categories_segments":[],"categories_sizes":[],"default_left":[0,0,0,0,0,0,0,0,0,0,0,0,0,0,0,0,0,0,0,0,0,0,0,0,0,0,0,0,0,0,0,0,0,0,0,0,0,0,0,0,0,0,0,0,0,0,0,0,0],"id":19,"left_children":[1,3,5,7,9,-1,11,13,-1,15,-1,17,19,21,23,-1,-1,25,27,-1,29,31,33,35,37,39,41,43,45,47,-1,-1,-1,-1,-1,-1,-1,-1,-1,-1,-1,-1,-1,-1,-1,-1,-1,-1,-1],"loss_changes":[2.3390835E1,1.2085318E1,2.2201865E2,5.679823E1,4.131441E0,0E0,1.8594858E1,9.105588E0,0E0,5.24456E-1,0E0,1.39201565E1,6.502968E1,1.0453497E1,4.116356E0,0E0,0E0,1.0141504E1,3.5001235E0,0E0,2.0785081E0,7.670933E0,1.5511173E0,4.2975336E-1,1.9489374E0,9.2835655E0,3.9443874E1,3.6129937E0,2.9735296E0,4.864399E0,0E0,0E0,0E0,0E0,0E0,0E0,0E0,0E0,0E0,0E0,0E0,0E0,0E0,0E0,0E0,0E0,0E0,0E0,0E0],"parents":[2147483647,0,0,1,1,2,2,3,3,4,4,6,6,7,7,9,9,11,11,12,12,13,13,14,14,17,17,18,18,20,20,21,21,22,22,23,23,24,24,25,25,26,26,27,27,28,28,29,29],"right_children":[2,4,6,8,10,-1,12,14,-1,16,-1,18,20,22,24,-1,-1,26,28,-1,30,32,34,36,38,40,42,44,46,48,-1,-1,-1,-1,-1,-1,-1,-1,-1,-1,-1,-1,-1,-1,-1,-1,-1,-1,-1],"split_conditions":[4.3809405E-3,9.926658E-1,9.9498135E-1,6.2160245E-3,2.9840114E-2,1.8111387E-1,6.2160245E-3,1.4016896E0,1.6370678E-1,-9.046236E-1,-0E0,7.184883E-1,9.926658E-1,2.0422437E0,2.0053089E0,-0E0,-9.65163E-2,1.4196341E-2,1.0528929E0,1.7851186E-1,1.4196341E-2,4.088272E-1,1E0,7.184883E-1,-5.828479E-1,-3.7725285E-1,1E0,9.819057E-1,4.39318E-1,-3.7725285E-1,-0E0,-2.2856241E-2,-7.5420246E-2,2.5423188E-2,-0E0,-1.4251085E-2,-0E0,-0E0,6.201608E-2,-5.9990507E-2,-3.5421755E-3,1.3791719E-1,-4.162184E-2,4.259248E-2,-0E0,-4.2480636E-2,2.2726017E-3,-5.726405E-2,-0E0],"split_indices":[1,10,1,10,12,0,10,2,0,13,0,15,10,5,3,0,0,0,16,0,0,11,0,15,14,8,0,0,7,8,0,0,0,0,0,0,0,0,0,0,0,0,0,0,0,0,0,0,0],"split_type":[0,0,0,0,0,0,0,0,0,0,0,0,0,0,0,0,0,0,0,0,0,0,0,0,0,0,0,0,0,0,0,0,0,0,0,0,0,0,0,0,0,0,0,0,0,0,0,0,0],"sum_hessian":[1.800196E3,8.1775775E2,9.824383E2,7.301994E2,8.755832E1,1.3770158E2,8.447367E2,6.990657E2,3.113373E1,7.0973114E1,1.6585209E1,7.043205E2,1.4041621E2,6.032492E2,9.581647E1,1.5193215E1,5.57799E1,5.589405E2,1.4538002E2,4.072906E1,9.968716E1,5.288481E2,7.4401146E1,5.3529858E1,4.228661E1,4.2584222E2,1.3309825E2,9.952997E1,4.585005E1,8.089518E1,1.8791977E1,4.2102045E2,1.07827614E2,6.044253E1,1.3958615E1,3.9675587E1,1.3854272E1,1.00828705E1,3.220374E1,2.9134106E2,1.3450116E2,2.8917635E1,1.0418062E2,8.508942E1,1.4440546E1,3.0895075E1,1.4954975E1,5.661993E1,2.4275248E1],"tree_param":{"num_deleted":"0","num_feature":"17","num_nodes":"49","size_leaf_vector":"1"}},{"base_weights":[5.2614734E-3,5.9536163E-2,-2.4155793E-1,-1.7389884E-2,1.7368357E-1,-3.1613338E-1,4.8146944E-2,1.5654787E-2,-3.19835E-1,-3.6997876E-1,-0E0,2.2840562E-1,-0E0,-4.56836E-2,1.773696E-1,-4.5085818E-1,-0E0,-5.2680063E-1,-9.892505E-2,-1.3132907E-2,4.0352788E-2,-0E0,4.4929244E-2,-1.0980192E-1,1.7859139E-1,-7.5432345E-2,-0E0,-1.4095863E-2,7.823553E-3,-6.129207E-1,-0E0,-2.5418493E-1,-0E0,-0E0,-3.6657356E-2,8.771129E-2,9.917703E-3,-1.7880404E-2,-0E0,-0E0,2.1995483E-2,-0E0,-9.924506E-2,-0E0,-1.5943002E-2,-6.5511525E-2,-0E0,4.7575706E-3,-9.48887E-4],"categories":[],"categories_nodes":[],"categories_segments":[],"categories_sizes":[],"default_left":[0,0,0,0,0,0,0,0,0,0,0,0,0,0,0,0,0,0,0,0,0,0,0,0,0,0,0,0,0,0,0,0,0,0,0,0,0,0,0,0,0,0,0,0,0,0,0,0,0],"id":20,"left_children":[1,3,5,7,-1,9,11,13,15,17,19,21,-1,23,-1,25,27,29,31,-1,-1,-1,-1,33,35,-1,37,-1,39,41,43,45,47,-1,-1,-1,-1,-1,-1,-1,-1,-1,-1,-1,-1,-1,-1,-1,-1],"loss_changes":[2.2367065E1,1.4030727E2,8.555033E0,1.6319498E1,0E0,5.554863E0,1.5097853E0,1.01478096E2,5.6938763E0,4.465868E0,1.5563223E0,4.051385E-1,0E0,1.6364418E1,0E0,3.0249596E-1,2.5371844E-1,1.3265419E0,1.9771055E0,0E0,0E0,0E0,0E0,1.6223335E1,5.471847E0,0E0,2.5747234E-1,0E0,5.0676626E-1,1.1268616E-1,2.7353096E-1,2.7284966E0,4.9115006E-2,0E0,0E0,0E0,0E0,0E0,0E0,0E0,0E0,0E0,0E0,0E0,0E0,0E0,0E0,0E0,0E0],"parents":[2147483647,0,0,1,1,2,2,3,3,5,5,6,6,7,7,8,8,9,9,10,10,11,11,13,13,15,15,16,16,17,17,18,18,23,23,24,24,26,26,28,28,29,29,30,30,31,31,32,32],"right_children":[2,4,6,8,-1,10,12,14,16,18,20,22,-1,24,-1,26,28,30,32,-1,-1,-1,-1,34,36,-1,38,-1,40,42,44,46,48,-1,-1,-1,-1,-1,-1,-1,-1,-1,-1,-1,-1,-1,-1,-1,-1],"split_conditions":[1E0,1.4196341E-2,6.2160245E-3,9.949734E-1,1.7368357E-1,1.8602386E0,2E0,6.2160245E-3,4.7610867E-1,1.908119E-2,2.9099795E-1,7.638495E-2,-0E0,7.184883E-1,1.773696E-1,4.9149513E-1,-5.4788196E-1,3.86946E-1,4.3809405E-3,-1.3132907E-2,4.0352788E-2,-0E0,4.4929244E-2,9.9498135E-1,1.1302487E0,-7.5432345E-2,6.5472615E-3,-1.4095863E-2,3.2030162E-1,-9.579529E-1,6.985591E-1,2.3920037E-1,4.912396E-1,-0E0,-3.6657356E-2,8.771129E-2,9.917703E-3,-1.7880404E-2,-0E0,-0E0,2.1995483E-2,-0E0,-9.924506E-2,-0E0,-1.5943002E-2,-6.5511525E-2,-0E0,4.7575706E-3,-9.48887E-4],"split_indices":[0,0,10,10,0,4,0,10,11,6,16,1,0,15,0,7,9,7,1,0,0,0,0,1,15,0,15,0,16,7,7,15,16,0,0,0,0,0,0,0,0,0,0,0,0,0,0,0,0],"split_type":[0,0,0,0,0,0,0,0,0,0,0,0,0,0,0,0,0,0,0,0,0,0,0,0,0,0,0,0,0,0,0,0,0,0,0,0,0,0,0,0,0,0,0,0,0,0,0,0,0],"sum_hessian":[1.7691676E3,1.4794103E3,2.8975742E2,1.3837411E3,9.5669075E1,2.5202094E2,3.773648E1,1.2273337E3,1.5640746E2,2.2342813E2,2.8592804E1,2.6527384E1,1.1209098E1,1.1660226E3,6.1311115E1,1.0459486E2,5.18126E1,1.203416E2,1.03086525E2,1.5068258E1,1.3524547E1,1.0099665E1,1.642772E1,9.361343E2,2.2988828E2,7.761873E1,2.6976131E1,2.202733E1,2.9785269E1,9.1312515E1,2.9029083E1,4.2583073E1,6.0503456E1,5.1435706E2,4.2177725E2,2.8025362E1,2.0186292E2,1.2448985E1,1.4527147E1,1.2217029E1,1.7568241E1,1.9618618E1,7.169389E1,1.0954903E1,1.807418E1,2.3581228E1,1.9001844E1,3.9801075E1,2.0702381E1],"tree_param":{"num_deleted":"0","num_feature":"17","num_nodes":"49","size_leaf_vector":"1"}},{"base_weights":[1.29387025E-2,-9.568681E-2,1.1296866E-1,-2.6206108E-2,-3.8856336E-1,1.7411877E-1,-4.7045693E-2,-8.326543E-2,1.2580033E-1,-4.758946E-1,-0E0,-1.9991367E-1,6.1955098E-2,-1.6647859E-1,4.5537304E-2,-5.287349E-1,-0E0,-3.3960655E-1,-0E0,-1.6049223E-1,1.8422563E-1,-2.18628E-1,6.0314488E-2,1.0161858E-1,-0E0,-6.177872E-1,-0E0,-4.687015E-1,-1.3335602E-2,-1.4650865E-1,1.4281278E-2,-0E0,-3.1012237E-1,3.600575E-1,-0E0,-4.7123123E-2,-3.1443355E-3,2.2172054E-2,-0E0,-3.8331237E-2,6.718082E-3,-0E0,-1.0039296E-1,-0E0,-2.2328926E-2,-7.570444E-2,-0E0,-0E0,-3.5499413E-2,-0E0,-5.466205E-2,-1.1480818E-2,2.1700634E-2,4.6161916E-2,-9.1439085E-3,-5.571983E-2,-0E0,6.1993513E-2,-0E0,-1.7586509E-2,2.1595614E-2],"categories":[],"categories_nodes":[],"categories_segments":[],"categories_sizes":[],"default_left":[0,0,0,0,0,0,0,0,0,0,0,0,0,0,0,0,0,0,0,0,0,0,0,0,0,0,0,0,0,0,0,0,0,0,0,0,0,0,0,0,0,0,0,0,0,0,0,0,0,0,0,0,0,0,0,0,0,0,0,0,0],"id":21,"left_children":[1,3,5,7,9,-1,11,13,-1,15,-1,17,19,21,23,25,-1,27,29,31,33,35,37,-1,39,41,43,45,47,49,51,53,55,57,59,-1,-1,-1,-1,-1,-1,-1,-1,-1,-1,-1,-1,-1,-1,-1,-1,-1,-1,-1,-1,-1,-1,-1,-1,-1,-1],"loss_changes":[1.9250782E1,1.303627E1,1.7662534E2,2.8769426E1,6.9585037E0,0E0,1.4981334E1,7.9564466E0,0E0,3.1749153E0,0E0,9.025517E0,1.275276E1,6.4402494E0,9.575514E0,4.2557144E-1,0E0,4.9260902E0,9.53513E-1,5.205497E0,1.1636234E1,5.3231125E0,7.94927E-1,0E0,3.5084279E0,1.5692654E0,3.5558972E-1,3.806614E0,2.2070675E0,2.2190242E0,2.325253E0,2.6770759E0,1.1793108E0,7.6758556E0,2.7394986E0,0E0,0E0,0E0,0E0,0E0,0E0,0E0,0E0,0E0,0E0,0E0,0E0,0E0,0E0,0E0,0E0,0E0,0E0,0E0,0E0,0E0,0E0,0E0,0E0,0E0,0E0],"parents":[2147483647,0,0,1,1,2,2,3,3,4,4,6,6,7,7,9,9,11,11,12,12,13,13,14,14,15,15,17,17,18,18,19,19,20,20,21,21,22,22,24,24,25,25,26,26,27,27,28,28,29,29,30,30,31,31,32,32,33,33,34,34],"right_children":[2,4,6,8,10,-1,12,14,-1,16,-1,18,20,22,24,26,-1,28,30,32,34,36,38,-1,40,42,44,46,48,50,52,54,56,58,60,-1,-1,-1,-1,-1,-1,-1,-1,-1,-1,-1,-1,-1,-1,-1,-1,-1,-1,-1,-1,-1,-1,-1,-1,-1,-1],"split_conditions":[4.3809405E-3,1E0,9.9498135E-1,1.4196341E-2,2.229275E0,1.7411877E-1,4.7610867E-1,2.6997614E-1,1.2580033E-1,1.7422193E0,-0E0,1.0267925E-2,-9.840591E-2,2.0422437E0,6.273837E-1,1.0749528E0,-0E0,-3.7725285E-1,-6.347419E-1,-3.6279437E-1,1.1897728E0,-2.122678E-1,6.807681E-1,1.0161858E-1,-8.226478E-1,-1.2551879E0,0E0,1.2512136E0,1.3471182E-1,-2.472461E-1,1.4983952E-1,-4.7395158E-1,-3.7725285E-1,1.4106807E0,3.86946E-1,-4.7123123E-2,-3.1443355E-3,2.2172054E-2,-0E0,-3.8331237E-2,6.718082E-3,-0E0,-1.0039296E-1,-0E0,-2.2328926E-2,-7.570444E-2,-0E0,-0E0,-3.5499413E-2,-0E0,-5.466205E-2,-1.1480818E-2,2.1700634E-2,4.6161916E-2,-9.1439085E-3,-5.571983E-2,-0E0,6.1993513E-2,-0E0,-1.7586509E-2,2.1595614E-2],"split_indices":[1,0,1,0,4,0,11,2,0,2,0,2,13,5,2,0,0,8,11,3,11,15,15,0,14,11,9,13,16,13,7,5,8,16,7,0,0,0,0,0,0,0,0,0,0,0,0,0,0,0,0,0,0,0,0,0,0,0,0,0,0],"split_type":[0,0,0,0,0,0,0,0,0,0,0,0,0,0,0,0,0,0,0,0,0,0,0,0,0,0,0,0,0,0,0,0,0,0,0,0,0,0,0,0,0,0,0,0,0,0,0,0,0,0,0,0,0,0,0,0,0,0,0,0,0],"sum_hessian":[1.750463E3,8.010434E2,9.494196E2,6.7322424E2,1.2781916E2,1.2381909E2,8.256005E2,6.450402E2,2.8184038E1,1.14509995E2,1.3309166E1,3.7261893E2,4.5298157E2,4.2872702E2,2.1631322E2,1.03310165E2,1.1199831E1,2.0458093E2,1.68038E2,1.3706131E2,3.1592026E2,3.7729105E2,5.1435955E1,1.5902506E1,2.004107E2,7.564319E1,2.7666977E1,1.2773025E2,7.685069E1,3.887444E1,1.2916356E2,4.9362476E1,8.769882E1,1.6930309E2,1.4661719E2,2.153865E2,1.6190454E2,3.787417E1,1.3561788E1,4.027125E1,1.6013945E2,1.3820398E1,6.182279E1,1.7131763E1,1.05352125E1,1.14627625E2,1.310262E1,4.451273E1,3.2337963E1,2.1287617E1,1.7586823E1,4.2872044E1,8.629151E1,2.0516924E1,2.8845554E1,6.2797016E1,2.4901806E1,1.5884E2,1.046308E1,9.416132E1,5.2455864E1],"tree_param":{"num_deleted":"0","num_feature":"17","num_nodes":"61","size_leaf_vector":"1"}},{"base_weights":[4.2275456E-4,-3.8766223E-1,3.480324E-2,-4.5996848E-1,-0E0,-1.321454E-1,1.0537802E-1,-0E0,-7.874886E-2,-0E0,-2.8642076E-1,1.8846886E-1,-3.16802E-3,-1.3229172E-2,-0E0,-1.5089181E-1,1.2551445E-1,-3.4600237E-1,1.39031205E-2,-7.2440304E-2,1.5306735E-1,-2.3154822E-1,-0E0,-0E0,3.5251948E-1,-4.1358063E-1,-0E0,-1.8648228E-1,4.9846172E-2,1.2881619E-1,-5.176983E-2,-0E0,-7.048184E-2,-1.4807281E-2,3.1572968E-2,5.6991227E-2,-0E0,-7.069502E-2,-0E0,-4.3725327E-2,-0E0,1.2859796E-1,-0E0,2.2214347E-2,-1.881401E-2],"categories":[],"categories_nodes":[],"categories_segments":[],"categories_sizes":[],"default_left":[0,0,0,0,0,0,0,0,0,0,0,0,0,0,0,0,0,0,0,0,0,0,0,0,0,0,0,0,0,0,0,0,0,0,0,0,0,0,0,0,0,0,0,0,0],"id":22,"left_children":[1,3,5,7,-1,9,11,13,-1,15,17,-1,19,-1,-1,21,23,25,-1,27,29,31,-1,33,35,37,-1,39,41,-1,43,-1,-1,-1,-1,-1,-1,-1,-1,-1,-1,-1,-1,-1,-1],"loss_changes":[2.0181486E1,3.8152637E0,1.8722078E1,8.767357E-1,0E0,1.0118397E1,1.6206537E2,1.5719916E-1,0E0,4.3563023E0,7.104391E0,0E0,1.0919436E1,0E0,0E0,1.797934E0,4.6937523E0,6.9251614E0,0E0,1.1943045E1,5.1343933E1,4.28645E0,0E0,1.909674E0,2.2261524E-1,6.651701E0,0E0,1.1915262E1,1.7598122E1,0E0,3.5472832E0,0E0,0E0,0E0,0E0,0E0,0E0,0E0,0E0,0E0,0E0,0E0,0E0,0E0,0E0],"parents":[2147483647,0,0,1,1,2,2,3,3,5,5,6,6,7,7,9,9,10,10,12,12,15,15,16,16,17,17,19,19,20,20,21,21,23,23,24,24,25,25,27,27,28,28,30,30],"right_children":[2,4,6,8,-1,10,12,14,-1,16,18,-1,20,-1,-1,22,24,26,-1,28,30,32,-1,34,36,38,-1,40,42,-1,44,-1,-1,-1,-1,-1,-1,-1,-1,-1,-1,-1,-1,-1,-1],"split_conditions":[-1.3015307E0,1.4016896E0,-4.3267917E-2,-6.4216936E-1,-0E0,-2.683615E-1,0E0,-9.155265E-1,-7.874886E-2,-1.3885682E0,3.4878294E0,1.8846886E-1,2.9840114E-2,-1.3229172E-2,-0E0,9.1597635E-1,2.6997614E-1,1.8637397E0,1.39031205E-2,1.0267925E-2,7.0261776E-1,-2.746417E-1,-0E0,8.793381E-1,7.9001486E-1,1.179139E0,-0E0,4.2505196E-1,2.6421732E-1,1.2881619E-1,-9.074345E-1,-0E0,-7.048184E-2,-1.4807281E-2,3.1572968E-2,5.6991227E-2,-0E0,-7.069502E-2,-0E0,-4.3725327E-2,-0E0,1.2859796E-1,-0E0,2.2214347E-2,-1.881401E-2],"split_indices":[13,2,12,3,0,14,12,7,0,14,4,0,12,0,0,7,2,3,0,2,12,7,0,4,0,13,0,9,2,0,3,0,0,0,0,0,0,0,0,0,0,0,0,0,0],"split_type":[0,0,0,0,0,0,0,0,0,0,0,0,0,0,0,0,0,0,0,0,0,0,0,0,0,0,0,0,0,0,0,0,0,0,0,0,0,0,0,0,0,0,0,0,0],"sum_hessian":[1.7148727E3,1.1710054E2,1.5977721E3,9.997147E1,1.712907E1,4.4005618E2,1.157716E3,2.7432673E1,7.2538795E1,2.2641476E2,2.1364143E2,9.803622E1,1.0596797E3,1.4378556E1,1.3054116E1,8.903382E1,1.3738094E2,2.032542E2,1.0387237E1,7.711193E2,2.8856033E2,6.8881836E1,2.015199E1,8.593162E1,5.1449318E1,1.8146028E2,2.1793911E1,4.315941E2,3.3952524E2,6.7828545E1,2.207318E2,3.883561E1,3.004622E1,6.584022E1,2.0091404E1,4.143551E1,1.0013809E1,1.5541656E2,2.6043718E1,2.8986417E2,1.4172993E2,1.8898003E1,3.2062726E2,3.1927866E1,1.8880392E2],"tree_param":{"num_deleted":"0","num_feature":"17","num_nodes":"45","size_leaf_vector":"1"}},{"base_weights":[-0E0,-3.5061318E-1,2.9617026E-2,-6.452445E-2,-0E0,-2.3413476E-1,6.7718804E-2,-3.1918532E-1,-0E0,3.1882417E-1,-9.742553E-3,-0E0,-3.8668972E-1,-0E0,1.3688405E-2,-0E0,1.8038882E-1,-4.8989628E-2,2.783802E-1,-4.286447E-1,-0E0,3.5802403E-1,-2.6420277E-1,-1.3417979E-1,7.610153E-2,3.7934852E-1,-0E0,-0E0,-6.8454236E-2,1.8026147E-4,1.3534445E-1,-4.8573747E-2,-0E0,-2.8469171E-2,1.4789698E-2,1.19995914E-1,-0E0,6.4781785E-2,-0E0],"categories":[],"categories_nodes":[],"categories_segments":[],"categories_sizes":[],"default_left":[0,0,0,0,0,0,0,0,0,0,0,0,0,0,0,0,0,0,0,0,0,0,0,0,0,0,0,0,0,0,0,0,0,0,0,0,0,0,0],"id":23,"left_children":[1,3,5,-1,-1,7,9,11,13,15,17,-1,19,-1,-1,21,-1,23,25,27,-1,29,31,33,35,37,-1,-1,-1,-1,-1,-1,-1,-1,-1,-1,-1,-1,-1],"loss_changes":[1.6160088E1,4.1668415E0,1.4691384E1,0E0,0E0,4.3672724E0,3.0032946E1,3.906413E0,2.5662923E-1,1.1449884E2,1.0243932E1,0E0,2.0585938E0,0E0,0E0,2.5001453E1,0E0,1.0770672E1,4.7249775E0,8.1326103E-1,0E0,1.4204833E1,5.2457695E0,1.0030572E1,1.6816505E1,3.116992E0,0E0,0E0,0E0,0E0,0E0,0E0,0E0,0E0,0E0,0E0,0E0,0E0,0E0],"parents":[2147483647,0,0,1,1,2,2,5,5,6,6,7,7,8,8,9,9,10,10,12,12,15,15,17,17,18,18,19,19,21,21,22,22,23,23,24,24,25,25],"right_children":[2,4,6,-1,-1,8,10,12,14,16,18,-1,20,-1,-1,22,-1,24,26,28,-1,30,32,34,36,38,-1,-1,-1,-1,-1,-1,-1,-1,-1,-1,-1,-1,-1],"split_conditions":[-1.3015307E0,6.3536155E-1,-1.1286544E0,-6.452445E-2,-0E0,7.184883E-1,0E0,-1.2983557E0,-6.0224265E-1,-4.3267917E-2,2.0785925E0,-0E0,1.5284455E0,-0E0,1.3688405E-2,-4.560057E-2,1.8038882E-1,2.6997614E-1,2.1986055E0,-1.5544075E0,-0E0,-4.2974943E-1,1.9793686E0,6.2160245E-3,6.273837E-1,1.9125232E-1,-0E0,-0E0,-6.8454236E-2,1.8026147E-4,1.3534445E-1,-4.8573747E-2,-0E0,-2.8469171E-2,1.4789698E-2,1.19995914E-1,-0E0,6.4781785E-2,-0E0],"split_indices":[13,2,12,0,0,15,12,11,6,12,9,0,4,0,0,12,0,2,12,14,0,12,5,10,2,7,0,0,0,0,0,0,0,0,0,0,0,0,0],"split_type":[0,0,0,0,0,0,0,0,0,0,0,0,0,0,0,0,0,0,0,0,0,0,0,0,0,0,0,0,0,0,0,0,0,0,0,0,0,0,0],"sum_hessian":[1.6988032E3,1.15852516E2,1.5829508E3,9.019101E1,2.5661503E1,1.7060927E2,1.4123414E3,1.3269145E2,3.7917816E1,3.5409595E2,1.0582456E3,1.752318E1,1.1516827E2,1.3747172E1,2.417064E1,2.6202893E2,9.2067024E1,9.588645E2,9.938105E1,1.0413395E2,1.1034322E1,1.00443245E2,1.6158568E2,6.081463E2,3.5071817E2,8.4377304E1,1.500374E1,1.6507286E1,8.762666E1,7.3393E1,2.7050243E1,1.4383789E2,1.7747786E1,5.0692126E2,1.01225075E2,2.2946217E1,3.2777194E2,7.429852E1,1.0078781E1],"tree_param":{"num_deleted":"0","num_feature":"17","num_nodes":"39","size_leaf_vector":"1"}},{"base_weights":[-0E0,4.5643996E-2,-2.0621994E-1,-1.7706946E-2,1.624204E-1,-2.5544333E-1,-0E0,1.1022843E-2,-2.8070116E-1,-4.038731E-1,-1.3844151E-2,-0E0,2.688592E-2,-4.0948432E-2,1.6546603E-1,-5.8820054E-2,-0E0,-7.175193E-2,-0E0,5.9892856E-2,-2.0899229E-1,-1.0320448E-1,6.722593E-2,-3.9470375E-2,-0E0,-0E0,-2.0868873E-2,-0E0,1.9957457E-1,-2.9670966E-1,-0E0,-5.3796615E-3,-5.788112E-2,1.15851834E-1,-0E0,-0E0,-1.0349265E-2,-0E0,9.670775E-3,-0E0,-1.3862108E-2,-0E0,4.489282E-2,-0E0,-5.752112E-2],"categories":[],"categories_nodes":[],"categories_segments":[],"categories_sizes":[],"default_left":[0,0,0,0,0,0,0,0,0,0,0,0,0,0,0,0,0,0,0,0,0,0,0,0,0,0,0,0,0,0,0,0,0,0,0,0,0,0,0,0,0,0,0,0,0],"id":24,"left_children":[1,3,5,7,-1,9,11,13,15,17,19,-1,-1,21,-1,-1,23,-1,25,27,29,31,33,35,37,-1,39,-1,41,43,-1,-1,-1,-1,-1,-1,-1,-1,-1,-1,-1,-1,-1,-1,-1],"loss_changes":[1.4843466E1,1.0543304E2,4.1385593E0,1.219841E1,0E0,5.463726E0,7.1576095E-1,7.8408356E1,5.1515017E0,3.067442E0,2.9474092E0,0E0,0E0,7.8602605E0,0E0,0E0,4.4452738E-2,0E0,1.1383371E-2,1.6627258E0,1.6355097E0,1.1364493E1,1.54598055E1,5.1037487E-2,9.7771116E-2,0E0,1.258279E-1,0E0,1.330135E0,1.8402038E0,0E0,0E0,0E0,0E0,0E0,0E0,0E0,0E0,0E0,0E0,0E0,0E0,0E0,0E0,0E0],"parents":[2147483647,0,0,1,1,2,2,3,3,5,5,6,6,7,7,8,8,9,9,10,10,13,13,16,16,18,18,19,19,20,20,21,21,22,22,23,23,24,24,26,26,28,28,29,29],"right_children":[2,4,6,8,-1,10,12,14,16,18,20,-1,-1,22,-1,-1,24,-1,26,28,30,32,34,36,38,-1,40,-1,42,44,-1,-1,-1,-1,-1,-1,-1,-1,-1,-1,-1,-1,-1,-1,-1],"split_conditions":[1E0,1.4196341E-2,1.8602386E0,9.949734E-1,1.624204E-1,1.908119E-2,2.9099795E-1,6.2160245E-3,4.7610867E-1,4.190227E-1,1.3467122E0,-0E0,2.688592E-2,2.6997614E-1,1.6546603E-1,-5.8820054E-2,-5.2872974E-1,-7.175193E-2,6.985591E-1,1.0267925E-2,2.0979898E0,2.656199E-1,6.273837E-1,-1.8146288E-1,3.2030162E-1,-0E0,1.0004767E-1,-0E0,4.3809405E-3,3.5962987E-1,-0E0,-5.3796615E-3,-5.788112E-2,1.15851834E-1,-0E0,-0E0,-1.0349265E-2,-0E0,9.670775E-3,-0E0,-1.3862108E-2,-0E0,4.489282E-2,-0E0,-5.752112E-2],"split_indices":[0,0,4,10,0,6,16,10,11,7,6,0,0,2,0,0,9,0,7,2,2,2,2,7,16,0,13,0,1,3,0,0,0,0,0,0,0,0,0,0,0,0,0,0,0],"split_type":[0,0,0,0,0,0,0,0,0,0,0,0,0,0,0,0,0,0,0,0,0,0,0,0,0,0,0,0,0,0,0,0,0,0,0,0,0,0,0,0,0,0,0,0,0],"sum_hessian":[1.680235E3,1.4044912E3,2.7574374E2,1.3237676E3,8.07237E1,2.4164674E2,3.409701E1,1.1697576E3,1.5401001E2,1.2745699E2,1.1418975E2,1.7808113E1,1.62889E1,1.1158656E3,5.3891968E1,1.01531944E2,5.247806E1,9.4796585E1,3.2660408E1,5.5367664E1,5.8822086E1,7.551737E2,3.606919E2,2.4253754E1,2.8224306E1,1.0802186E1,2.1858221E1,1.2529977E1,4.283769E1,4.560466E1,1.3217423E1,6.444389E2,1.1073478E2,2.2199915E1,3.3849197E2,1.0014091E1,1.4239664E1,1.0788268E1,1.7436039E1,1.1305337E1,1.0552884E1,1.4064543E1,2.8773146E1,1.075967E1,3.484499E1],"tree_param":{"num_deleted":"0","num_feature":"17","num_nodes":"45","size_leaf_vector":"1"}},{"base_weights":[-0E0,4.357528E-2,-1.9796698E-1,1.5509904E-2,1.3590713E-1,-3.2674435E-1,1.4770879E-1,-1.5473558E-1,8.239288E-2,-4.1365358E-1,-0E0,4.8442684E-2,-0E0,-9.628497E-2,-1.20320665E-2,1.383981E-1,3.9831758E-2,-4.6390373E-1,-0E0,-0E0,1.5061597E-2,8.738974E-3,-2.8458917E-1,-1.2652679E-1,9.295839E-2,-0E0,-5.0351137E-1,-0E0,8.0719486E-2,-5.7845157E-2,-0E0,-5.2034773E-2,-0E0,1.1970126E-1,5.9996955E-3,-8.048501E-2,-6.440579E-4],"categories":[],"categories_nodes":[],"categories_segments":[],"categories_sizes":[],"default_left":[0,0,0,0,0,0,0,0,0,0,0,0,0,0,0,0,0,0,0,0,0,0,0,0,0,0,0,0,0,0,0,0,0,0,0,0,0],"id":25,"left_children":[1,3,5,7,-1,9,11,13,15,17,19,-1,-1,-1,21,-1,23,25,-1,-1,-1,27,29,31,33,-1,35,-1,-1,-1,-1,-1,-1,-1,-1,-1,-1],"loss_changes":[1.3903949E1,2.720857E1,1.4443979E1,1.4898642E1,0E0,9.411093E0,3.7819438E0,2.0168976E1,2.955026E1,6.109318E0,2.6852268E-1,0E0,0E0,0E0,3.8538651E0,0E0,8.401862E0,3.7721748E0,0E0,0E0,0E0,5.6372395E0,1.6241324E0,3.9656003E0,2.2350754E1,0E0,2.1489716E-1,0E0,0E0,0E0,0E0,0E0,0E0,0E0,0E0,0E0,0E0],"parents":[2147483647,0,0,1,1,2,2,3,3,5,5,6,6,7,7,8,8,9,9,10,10,14,14,16,16,17,17,21,21,22,22,23,23,24,24,26,26],"right_children":[2,4,6,8,-1,10,12,14,16,18,20,-1,-1,-1,22,-1,24,26,-1,-1,-1,28,30,32,34,-1,36,-1,-1,-1,-1,-1,-1,-1,-1,-1,-1],"split_conditions":[1.3467122E0,7.3758996E-1,2.0979898E0,-7.9529697E-1,1.3590713E-1,1.2512136E0,3.3142626E0,-4.5404255E-1,-4.5790768E-1,1.8576397E0,5.121079E-1,4.8442684E-2,-0E0,-9.628497E-2,1E0,1.383981E-1,-4.46856E-1,-5.46174E-1,-0E0,-0E0,1.5061597E-2,1.4196341E-2,6.454681E-1,-4.9531308E-1,-9.6143894E-2,-0E0,1.7422193E0,-0E0,8.0719486E-2,-5.7845157E-2,-0E0,-5.2034773E-2,-0E0,1.1970126E-1,5.9996955E-3,-8.048501E-2,-6.440579E-4],"split_indices":[6,6,2,2,0,13,6,4,2,9,7,0,0,0,0,0,2,5,0,0,0,0,11,13,2,0,2,0,0,0,0,0,0,0,0,0,0],"split_type":[0,0,0,0,0,0,0,0,0,0,0,0,0,0,0,0,0,0,0,0,0,0,0,0,0,0,0,0,0,0,0,0,0,0,0,0,0],"sum_hessian":[1.662427E3,1.3789497E3,2.8347726E2,1.350043E3,2.890678E1,2.235152E2,5.9962074E1,3.455665E2,1.0044764E3,1.9285101E2,3.0664173E1,4.1604156E1,1.835792E1,5.9585907E1,2.859806E2,3.3516014E1,9.709604E2,1.8084564E2,1.2005383E1,1.0355729E1,2.0308445E1,2.4239029E2,4.359031E1,1.9725468E2,7.737057E2,1.310048E1,1.6774516E2,2.2863795E2,1.3752336E1,2.9871758E1,1.3718552E1,5.0896095E1,1.4635858E2,3.6005337E1,7.377004E2,1.3625906E2,3.1486088E1],"tree_param":{"num_deleted":"0","num_feature":"17","num_nodes":"37","size_leaf_vector":"1"}},{"base_weights":[5.534405E-3,-7.968037E-2,8.727237E-2,-1.3441935E-1,5.386047E-2,1.6388625E-1,-4.200724E-2,-1.6939205E-1,6.882789E-2,-0E0,2.183831E-1,-1.5179114E-1,5.7104122E-2,-8.748865E-2,-3.939223E-1,-0E0,2.0137516E-1,-1.5183364E-1,5.7396732E-2,3.8407618E-1,-0E0,-0E0,-2.917238E-1,1.4483689E-1,-7.6762177E-3,2.3091923E-2,-1.857888E-1,-4.3648908E-1,-0E0,-0E0,4.4458214E-2,-3.641641E-2,-0E0,3.95623E-2,-0E0,-0E0,6.78948E-2,-8.02023E-2,2.1297117E-1,-3.680948E-1,-0E0,-4.5632794E-1,2.6607458E-2,-1.46904355E-2,2.442358E-2,-0E0,-4.7931906E-2,-7.0987426E-2,-0E0,-0E0,-1.776941E-2,-3.0655157E-2,-0E0,-0E0,4.60257E-2,-6.258824E-2,-0E0,1.3300539E-2,-9.320788E-3,-0E0,-8.057445E-2,-1.9914696E-2,2.308638E-2],"categories":[],"categories_nodes":[],"categories_segments":[],"categories_sizes":[],"default_left":[0,0,0,0,0,0,0,0,0,0,0,0,0,0,0,0,0,0,0,0,0,0,0,0,0,0,0,0,0,0,0,0,0,0,0,0,0,0,0,0,0,0,0,0,0,0,0,0,0,0,0,0,0,0,0,0,0,0,0,0,0,0,0],"id":26,"left_children":[1,3,5,7,9,-1,11,13,15,17,19,21,23,25,27,-1,29,31,33,35,-1,37,39,-1,41,43,45,47,-1,-1,-1,-1,-1,-1,49,-1,-1,51,53,55,57,59,61,-1,-1,-1,-1,-1,-1,-1,-1,-1,-1,-1,-1,-1,-1,-1,-1,-1,-1,-1,-1],"loss_changes":[1.1592168E1,6.250393E0,1.3009125E2,5.0080605E0,1.8901258E0,0E0,9.411531E0,5.825555E0,1.4105781E0,1.34096E0,2.3367405E0,7.155406E0,3.1394829E1,5.9084396E0,1.1541939E0,0E0,1.1610731E0,5.813104E-1,2.6167326E0,9.615326E-2,0E0,3.1247463E0,4.6797066E0,0E0,8.912202E0,3.6217766E0,8.561692E0,1.466507E0,0E0,0E0,0E0,0E0,0E0,0E0,5.8070475E-1,0E0,0E0,2.980591E0,1.0620198E0,3.333599E0,3.0373728E-1,1.124341E0,7.218531E0,0E0,0E0,0E0,0E0,0E0,0E0,0E0,0E0,0E0,0E0,0E0,0E0,0E0,0E0,0E0,0E0,0E0,0E0,0E0,0E0],"parents":[2147483647,0,0,1,1,2,2,3,3,4,4,6,6,7,7,8,8,9,9,10,10,11,11,12,12,13,13,14,14,16,16,17,17,18,18,19,19,21,21,22,22,24,24,25,25,26,26,27,27,34,34,37,37,38,38,39,39,40,40,41,41,42,42],"right_children":[2,4,6,8,10,-1,12,14,16,18,20,22,24,26,28,-1,30,32,34,36,-1,38,40,-1,42,44,46,48,-1,-1,-1,-1,-1,-1,50,-1,-1,52,54,56,58,60,62,-1,-1,-1,-1,-1,-1,-1,-1,-1,-1,-1,-1,-1,-1,-1,-1,-1,-1,-1,-1],"split_conditions":[4.3809405E-3,6.852377E-1,9.9498135E-1,2.0108576E0,1.9676678E-1,1.6388625E-1,-6.0224265E-1,-3.300523E-3,9.8894006E-1,-2.122678E-1,1.62787E0,-3.6279437E-1,0E0,-7.595877E-1,1.9793686E0,-0E0,-7.9529697E-1,-6.0224265E-1,-1.3572852E-3,-3.7725285E-1,-0E0,-4.46856E-1,6.3536155E-1,1.4483689E-1,-6.2024224E-1,-1.1269636E-1,-3.1342227E-2,1.6986307E0,-0E0,-0E0,4.4458214E-2,-3.641641E-2,-0E0,3.95623E-2,9.5384276E-1,-0E0,6.78948E-2,2.1035014E-1,-2.8690338E-1,6.384602E-1,1.3509113E0,3.0662888E-1,8.345783E-3,-1.46904355E-2,2.442358E-2,-0E0,-4.7931906E-2,-7.0987426E-2,-0E0,-0E0,-1.776941E-2,-3.0655157E-2,-0E0,-0E0,4.60257E-2,-6.258824E-2,-0E0,1.3300539E-2,-9.320788E-3,-0E0,-8.057445E-2,-1.9914696E-2,2.308638E-2],"split_indices":[1,13,1,9,4,0,6,8,8,15,8,3,6,11,5,0,2,6,12,8,0,2,2,0,15,7,16,8,0,0,0,0,0,0,13,0,0,9,14,8,2,6,7,0,0,0,0,0,0,0,0,0,0,0,0,0,0,0,0,0,0,0,0],"split_type":[0,0,0,0,0,0,0,0,0,0,0,0,0,0,0,0,0,0,0,0,0,0,0,0,0,0,0,0,0,0,0,0,0,0,0,0,0,0,0,0,0,0,0,0,0,0,0,0,0,0,0,0,0,0,0,0,0,0,0,0,0,0,0],"sum_hessian":[1.6470328E3,7.586499E2,8.8838293E2,5.804245E2,1.7822536E2,1.00509865E2,7.8787305E2,5.293E2,5.112452E1,1.3177118E2,4.6454185E1,4.1090906E2,3.76964E2,4.1821283E2,1.11087166E2,1.4147523E1,3.6976994E1,4.0188698E1,9.158247E1,2.7963154E1,1.8491034E1,2.1870189E2,1.9220718E2,2.8018307E1,3.4894568E2,1.6017285E2,2.5803998E2,9.574102E1,1.5346151E1,1.1471465E1,2.550553E1,2.088335E1,1.9305347E1,3.463991E1,5.6942566E1,1.037655E1,1.7586605E1,1.8026013E2,3.844176E1,1.5367055E2,3.853663E1,3.7545628E1,3.1140005E2,5.770004E1,1.0247281E2,1.03042305E2,1.5499768E2,8.031846E1,1.5422562E1,2.3019316E1,3.3923252E1,8.784372E1,9.241641E1,1.3306482E1,2.5135277E1,1.2688379E2,2.6786768E1,2.0354939E1,1.818169E1,1.0361108E1,2.7184519E1,1.1261686E2,1.987832E2],"tree_param":{"num_deleted":"0","num_feature":"17","num_nodes":"63","size_leaf_vector":"1"}},{"base_weights":[1.3129643E-2,-5.4666754E-2,9.926046E-2,-2.095408E-1,2.3554796E-2,1.6781233E-1,1.5824111E-2,-8.989477E-2,-8.650368E-2,8.498393E-2,-3.2485127E-1,-2.5739828E-1,1.0403539E-1,-0E0,-4.034517E-1,2.5452435E-1,-4.3205578E-2,-0E0,-8.3262525E-2,-3.3417022E-1,-0E0,1.2679183E-1,3.7933525E-2,1.3019103E-1,-1.00226544E-1,-6.5811925E-2,-0E0,5.264513E-2,8.23632E-1,-1.296448E-1,3.9257985E-2,-7.593381E-3,-0E0,-3.984461E-1,-0E0,9.3496585E-4,-0E0,-2.0520967E-1,1.2306141E-1,3.4799226E-2,-0E0,-0E0,-4.730665E-2,2.862219E-2,-1.2217258E-3,1.5750192E-1,-0E0,-4.1380912E-2,-0E0,-6.172365E-2,-0E0,-0E0,-4.55034E-2,1.402471E-1,3.8874373E-3],"categories":[],"categories_nodes":[],"categories_segments":[],"categories_sizes":[],"default_left":[0,0,0,0,0,0,0,0,0,0,0,0,0,0,0,0,0,0,0,0,0,0,0,0,0,0,0,0,0,0,0,0,0,0,0,0,0,0,0,0,0,0,0,0,0,0,0,0,0,0,0,0,0,0,0],"id":27,"left_children":[1,3,5,7,9,-1,11,-1,13,15,17,19,21,23,25,27,29,31,-1,33,35,-1,37,39,41,-1,-1,43,45,47,-1,-1,-1,49,-1,-1,-1,51,53,-1,-1,-1,-1,-1,-1,-1,-1,-1,-1,-1,-1,-1,-1,-1,-1],"loss_changes":[9.795479E0,1.1841615E1,5.836708E1,1.0462492E1,9.689195E0,0E0,1.6230133E1,0E0,9.317078E0,1.2142757E1,2.6766624E0,3.8225594E0,2.1710873E1,2.8399327E0,4.1719246E-1,1.9669823E1,5.822742E0,7.393801E-2,0E0,3.5338602E0,9.4187696E-4,0E0,1.0592998E1,3.4042609E0,4.280115E0,0E0,0E0,3.1949558E0,5.442005E0,5.141924E0,0E0,0E0,0E0,7.474499E-1,0E0,0E0,0E0,3.0202923E0,2.6675034E1,0E0,0E0,0E0,0E0,0E0,0E0,0E0,0E0,0E0,0E0,0E0,0E0,0E0,0E0,0E0,0E0],"parents":[2147483647,0,0,1,1,2,2,3,3,4,4,6,6,8,8,9,9,10,10,11,11,12,12,13,13,14,14,15,15,16,16,17,17,19,19,20,20,22,22,23,23,24,24,27,27,28,28,29,29,33,33,37,37,38,38],"right_children":[2,4,6,8,10,-1,12,-1,14,16,18,20,22,24,26,28,30,32,-1,34,36,-1,38,40,42,-1,-1,44,46,48,-1,-1,-1,50,-1,-1,-1,52,54,-1,-1,-1,-1,-1,-1,-1,-1,-1,-1,-1,-1,-1,-1,-1,-1],"split_conditions":[1.0267925E-2,-4.5404255E-1,2.656199E-1,-7.9529697E-1,0E0,1.6781233E-1,2.6997614E-1,-8.989477E-2,3.629369E-1,6.189295E-1,-1.4801931E-1,1.4196341E-2,6.273837E-1,-3.2046482E-1,3.8784957E-1,-3.7725285E-1,3.8974802E0,