{"learner":{"attributes":{},"feature_names":[],"feature_types":[],"gradient_booster":{"model":{"gbtree_model_param":{"num_parallel_tree":"1","num_trees":"100"},"iteration_indptr":[0,1,2,3,4,5,6,7,8,9,10,11,12,13,14,15,16,17,18,19,20,21,22,23,24,25,26,27,28,29,30,31,32,33,34,35,36,37,38,39,40,41,42,43,44,45,46,47,48,49,50,51,52,53,54,55,56,57,58,59,60,61,62,63,64,65,66,67,68,69,70,71,72,73,74,75,76,77,78,79,80,81,82,83,84,85,86,87,88,89,90,91,92,93,94,95,96,97,98,99,100],"tree_info":[0,0,0,0,0,0,0,0,0,0,0,0,0,0,0,0,0,0,0,0,0,0,0,0,0,0,0,0,0,0,0,0,0,0,0,0,0,0,0,0,0,0,0,0,0,0,0,0,0,0,0,0,0,0,0,0,0,0,0,0,0,0,0,0,0,0,0,0,0,0,0,0,0,0,0,0,0,0,0,0,0,0,0,0,0,0,0,0,0,0,0,0,0,0,0,0,0,0,0,0],"trees":[{"base_weights":[-0E0,-9.285992E-1,4.103624E-1,-1.7793813E0,4.1867602E-1,-2.6617643E-1,8.799031E-1,-4.5606613E-1,-1.021858E0,1.02400534E-1,1.2354776E0,-5.960078E-1,1.0257989E0,3.664216E-1,1.1864473E0,3.2683924E-1,-1.1889892E0,4.176415E-1,-1.1770101E-2,1.2639042E0,-0E0,-1.4482275E0,-2.23983E-1,4.444633E-1,7.4500674E-1,-2.0422389E-1,1.0189971E0,4.546145E-1,1.1049552E0,-3.046524E-1,-1.7657872E-2,-2.0838287E-1,6.5167494E-2,-0E0,3.0260745E-1,-1.0084872E-1,-3.9903137E-1,-1.8241091E-1,3.8002186E-2,4.1500304E-2,2.5992998E-1,-1.4368874E-1,4.6309005E-2,4.5089614E-1,1.6331442E-1,3.1242777E-2,2.9782018E-1],"categories":[],"categories_nodes":[],"categories_segments":[],"categories_sizes":[],"default_left":[0,0,0,0,0,0,0,0,0,0,0,0,0,0,0,0,0,0,0,0,0,0,0,0,0,0,0,0,0,0,0,0,0,0,0,0,0,0,0,0,0,0,0,0,0,0,0],"id":0,"left_children":[1,3,5,7,9,11,13,-1,15,17,19,21,23,25,27,-1,29,-1,31,33,-1,35,37,-1,39,41,43,-1,45,-1,-1,-1,-1,-1,-1,-1,-1,-1,-1,-1,-1,-1,-1,-1,-1,-1,-1],"loss_changes":[2.100055E3,1.9437063E3,1.2167676E3,1.1959204E2,1.6206393E2,6.641764E2,3.4778235E2,0E0,8.188905E1,1.00067024E2,6.2461243E0,3.8728885E2,6.3389435E1,3.2142944E2,7.027954E1,0E0,1.7651398E1,0E0,1.1685881E2,5.6270447E0,0E0,8.809558E1,1.9125357E2,0E0,4.4651993E1,7.6802284E1,1.030246E2,0E0,2.0443298E2,0E0,0E0,0E0,0E0,0E0,0E0,0E0,0E0,0E0,0E0,0E0,0E0,0E0,0E0,0E0,0E0,0E0,0E0],"parents":[2147483647,0,0,1,1,2,2,3,3,4,4,5,5,6,6,8,8,9,9,10,10,11,11,12,12,13,13,14,14,16,16,18,18,19,19,21,21,22,22,24,24,25,25,26,26,28,28],"right_children":[2,4,6,8,10,12,14,-1,16,18,20,22,24,26,28,-1,30,-1,32,34,-1,36,38,-1,40,42,44,-1,46,-1,-1,-1,-1,-1,-1,-1,-1,-1,-1,-1,-1,-1,-1,-1,-1,-1,-1],"split_conditions":[-7.193173E-1,-1.0032778E-1,-2.1426098E-1,-4.152142E-1,1.8962237E0,2.2506365E-1,1.1774523E-2,-4.5606613E-1,-1.0149232E-1,2.2402123E-1,1.7739959E0,-1.0641505E0,-3.8927874E-1,-4.152142E-1,3.3231112E-1,3.2683924E-1,-5.232184E-1,4.176415E-1,2.2506365E-1,-1.7598041E0,-0E0,-1.1654888E0,1.1774523E-2,4.444633E-1,1.2321801E0,-3.8797522E-1,-3.8927874E-1,4.546145E-1,3.543816E-1,-3.046524E-1,-1.7657872E-2,-2.0838287E-1,6.5167494E-2,-0E0,3.0260745E-1,-1.0084872E-1,-3.9903137E-1,-1.8241091E-1,3.8002186E-2,4.1500304E-2,2.5992998E-1,-1.4368874E-1,4.6309005E-2,4.5089614E-1,1.6331442E-1,3.1242777E-2,2.9782018E-1],"split_indices":[2,4,15,4,4,4,2,0,4,4,11,15,2,4,2,0,6,0,4,12,0,16,2,0,4,2,2,0,2,0,0,0,0,0,0,0,0,0,0,0,0,0,0,0,0,0,0],"split_type":[0,0,0,0,0,0,0,0,0,0,0,0,0,0,0,0,0,0,0,0,0,0,0,0,0,0,0,0,0,0,0,0,0,0,0,0,0,0,0,0,0,0,0,0,0,0,0],"sum_hessian":[5.5075E3,1.68825E3,3.81925E3,1.03675E3,6.515E2,1.56075E3,2.2585E3,8.375E2,1.9925E2,4.7475E2,1.7675E2,1.24675E3,3.14E2,8.51E2,1.4075E3,1.05E1,1.8875E2,3.175E1,4.43E2,1.7275E2,4E0,3.74E2,8.7275E2,7.05E1,2.435E2,4.505E2,4.005E2,1.2825E2,1.27925E3,1.67E2,2.175E1,1.135E2,3.295E2,5E0,1.6775E2,8.05E1,2.935E2,3.6225E2,5.105E2,1.015E2,1.42E2,2.285E2,2.22E2,9.875E1,3.0175E2,1.95E2,1.08425E3],"tree_param":{"num_deleted":"0","num_feature":"17","num_nodes":"47","size_leaf_vector":"1"}},{"base_weights":[-0E0,-7.407297E-1,3.2166246E-1,-1.4364414E0,3.261033E-1,-2.0563662E-1,6.8835E-1,-3.7003455E-1,-8.047649E-1,7.2879545E-2,9.7571576E-1,-4.6294695E-1,8.045173E-1,2.8064358E-1,9.3329024E-1,2.6159102E-1,-9.4028604E-1,3.3928528E-1,-1.7179823E-2,1.0196103E0,-0E0,-1.1437522E0,-1.7293212E-1,3.6070776E-1,5.740196E-1,-4.663673E-3,1.1446759E0,6.6250753E-1,1.0908357E0,-2.3106337E-1,-0E0,-1.6450234E-1,4.7988765E-2,1.6306799E-2,2.5495064E-1,3.5247543E-1,-2.8650752E-1,-1.3796927E-1,2.6588205E-2,1.711137E-2,1.9351023E-1,3.6957982E-1,-2.4868222E-2,2.807164E-1,-0E0,1.0010623E-1,2.2161709E-1,1.9308038E-1,2.9430673E-1],"categories":[],"categories_nodes":[],"categories_segments":[],"categories_sizes":[],"default_left":[0,0,0,0,0,0,0,0,0,0,0,0,0,0,0,0,0,0,0,0,0,0,0,0,0,0,0,0,0,0,0,0,0,0,0,0,0,0,0,0,0,0,0,0,0,0,0,0,0],"id":1,"left_children":[1,3,5,7,9,11,13,-1,15,17,19,21,23,25,27,-1,29,-1,31,33,-1,35,37,-1,39,41,43,45,47,-1,-1,-1,-1,-1,-1,-1,-1,-1,-1,-1,-1,-1,-1,-1,-1,-1,-1,-1,-1],"loss_changes":[1.2841946E3,1.2170903E3,7.2894434E2,7.9576416E1,1.0058455E2,3.9818518E2,2.1578992E2,0E0,5.1424797E1,6.5105644E1,6.163574E0,2.361846E2,4.152504E1,2.1318735E2,4.971521E1,0E0,1.1755508E1,0E0,6.949449E1,5.6924286E0,0E0,8.014728E1,1.0633283E2,0E0,2.6447197E1,9.497469E1,8.507843E0,2.7905365E1,2.7304321E1,0E0,0E0,0E0,0E0,0E0,0E0,0E0,0E0,0E0,0E0,0E0,0E0,0E0,0E0,0E0,0E0,0E0,0E0,0E0,0E0],"parents":[2147483647,0,0,1,1,2,2,3,3,4,4,5,5,6,6,8,8,9,9,10,10,11,11,12,12,13,13,14,14,16,16,18,18,19,19,21,21,22,22,24,24,25,25,26,26,27,27,28,28],"right_children":[2,4,6,8,10,12,14,-1,16,18,20,22,24,26,28,-1,30,-1,32,34,-1,36,38,-1,40,42,44,46,48,-1,-1,-1,-1,-1,-1,-1,-1,-1,-1,-1,-1,-1,-1,-1,-1,-1,-1,-1,-1],"split_conditions":[-7.193173E-1,-1.0032778E-1,-2.1426098E-1,-4.152142E-1,1.8962237E0,2.2506365E-1,1.1774523E-2,-3.7003455E-1,-1.0149232E-1,2.2402123E-1,4.098113E0,-1.0641505E0,-3.8927874E-1,2.2506365E-1,-4.9713093E-1,2.6159102E-1,1.5762753E0,3.3928528E-1,2.2506365E-1,-3.484343E-1,-0E0,-3.8927874E-1,1.1774523E-2,3.6070776E-1,-3.8797522E-1,-3.8927874E-1,9.9294347E-1,7.088711E-1,7.1137786E-1,-2.3106337E-1,-0E0,-1.6450234E-1,4.7988765E-2,1.6306799E-2,2.5495064E-1,3.5247543E-1,-2.8650752E-1,-1.3796927E-1,2.6588205E-2,1.711137E-2,1.9351023E-1,3.6957982E-1,-2.4868222E-2,2.807164E-1,-0E0,1.0010623E-1,2.2161709E-1,1.9308038E-1,2.9430673E-1],"split_indices":[2,4,15,4,4,4,2,0,4,4,9,15,2,4,5,0,15,0,4,8,0,2,2,0,2,2,10,15,2,0,0,0,0,0,0,0,0,0,0,0,0,0,0,0,0,0,0,0,0],"split_type":[0,0,0,0,0,0,0,0,0,0,0,0,0,0,0,0,0,0,0,0,0,0,0,0,0,0,0,0,0,0,0,0,0,0,0,0,0,0,0,0,0,0,0,0,0,0,0,0,0],"sum_hessian":[5.387073E3,1.6308922E3,3.756181E3,9.8962415E2,6.412681E2,1.5355361E3,2.2206448E3,7.9470483E2,1.9491927E2,4.6757306E2,1.7369504E2,1.2280437E3,3.0749237E2,8.416119E2,1.379033E3,9.981065E0,1.849382E2,3.0883598E1,4.3668945E2,1.6489798E2,8.797069E0,3.6097382E2,8.670699E2,6.665363E1,2.4083873E2,6.2936176E2,2.1225009E2,5.2047375E2,8.585592E2,1.7902975E2,5.9084477E0,1.11534805E2,3.2515466E2,1.6411781E1,1.4848619E2,8.600967E0,3.5237283E2,3.5925327E2,5.0781662E2,8.79226E1,1.5291612E2,3.4151154E1,5.9521063E2,1.9837492E2,1.3875177E1,2.9704947E2,2.2342429E2,3.4845422E2,5.1010498E2],"tree_param":{"num_deleted":"0","num_feature":"17","num_nodes":"49","size_leaf_vector":"1"}},{"base_weights":[1.0986653E-3,-4.469033E-1,3.7512794E-1,-1.1667622E0,2.0552577E-1,4.4223395E-1,2.6547226E-1,-3.228826E-1,-7.8250504E-1,-8.129844E-2,7.886072E-1,-2.3848903E-1,5.9384125E-1,3.302744E-1,-8.6434364E-1,3.950884E-1,-1.9705285E-1,4.5235667E-1,9.687422E-1,-8.8731503E-1,-0E0,-1.3128085E-1,7.511664E-1,-1.6010933E-1,-3.4830844E-1,-1.8196554E-1,1.5039317E-2,-0E0,1.4220439E-1,3.578878E-1,1.5890776E-1,-2.5606203E-1,1.7336003E-2,-1.7301054E-1,3.6401533E-2,-7.430707E-2,1.663242E-1,3.4556666E-1,1.5757154E-1],"categories":[],"categories_nodes":[],"categories_segments":[],"categories_sizes":[],"default_left":[0,0,0,0,0,0,0,0,0,0,0,0,0,0,0,0,0,0,0,0,0,0,0,0,0,0,0,0,0,0,0,0,0,0,0,0,0,0,0],"id":2,"left_children":[1,3,5,7,9,-1,11,-1,13,15,17,19,21,-1,23,-1,25,27,29,31,33,35,37,-1,-1,-1,-1,-1,-1,-1,-1,-1,-1,-1,-1,-1,-1,-1,-1],"loss_changes":[8.6671716E2,1.1078864E3,4.59527E2,8.121936E1,2.0906282E2,0E0,4.3867877E2,0E0,7.294246E1,1.6140273E2,1.7628372E1,1.6195166E2,1.8608832E2,0E0,3.344626E1,0E0,1.2104149E2,1.1684826E1,3.0125992E1,6.1307617E1,8.645233E1,4.2723316E1,6.2493774E1,0E0,0E0,0E0,0E0,0E0,0E0,0E0,0E0,0E0,0E0,0E0,0E0,0E0,0E0,0E0,0E0],"parents":[2147483647,0,0,1,1,2,2,3,3,4,4,6,6,8,8,9,9,10,10,11,11,12,12,14,14,16,16,17,17,18,18,19,19,20,20,21,21,22,22],"right_children":[2,4,6,8,10,-1,12,-1,14,16,18,20,22,-1,24,-1,26,28,30,32,34,36,38,-1,-1,-1,-1,-1,-1,-1,-1,-1,-1,-1,-1,-1,-1,-1,-1],"split_conditions":[-3.8797522E-1,-4.152142E-1,-2.8483812E-2,-7.193173E-1,1.2321801E0,4.4223395E-1,-2.1426098E-1,-3.228826E-1,-3.8927874E-1,-1.0149232E-1,1.8000923E-3,-1.0641505E0,1.1774523E-2,3.302744E-1,6.5099883E-1,3.950884E-1,-1.0032778E-1,-8.4890145E-1,9.935782E-1,4.637134E-3,-1.907716E-2,1.4976752E0,3.3231112E-1,-1.6010933E-1,-3.4830844E-1,-1.8196554E-1,1.5039317E-2,-0E0,1.4220439E-1,3.578878E-1,1.5890776E-1,-2.5606203E-1,1.7336003E-2,-1.7301054E-1,3.6401533E-2,-7.430707E-2,1.663242E-1,3.4556666E-1,1.5757154E-1],"split_indices":[2,4,2,2,4,0,15,0,2,4,1,15,2,0,6,0,4,7,1,5,2,9,2,0,0,0,0,0,0,0,0,0,0,0,0,0,0,0,0],"split_type":[0,0,0,0,0,0,0,0,0,0,0,0,0,0,0,0,0,0,0,0,0,0,0,0,0,0,0,0,0,0,0,0,0,0,0,0,0,0,0],"sum_hessian":[5.1722456E3,2.3475E3,2.8247456E3,1.1191422E3,1.2283578E3,1.8616891E2,2.6385767E3,7.073054E2,4.1183682E2,8.1849176E2,4.0986606E2,1.0353492E3,1.6032274E3,1.2057312E1,3.997795E2,4.6729168E1,7.717626E2,1.535646E2,2.5630142E2,2.7947348E2,7.5587573E2,2.8045157E2,1.3227759E3,3.1869614E2,8.108338E1,2.442296E2,5.27533E2,3.772956E1,1.15835045E2,7.9597694E1,1.7670375E2,2.3355588E2,4.5917614E1,1.286968E2,6.2717896E2,2.3478325E2,4.5668316E1,1.1811017E2,1.2046656E3],"tree_param":{"num_deleted":"0","num_feature":"17","num_nodes":"39","size_leaf_vector":"1"}},{"base_weights":[-0E0,-3.7246153E-1,3.007821E-1,-1.0171075E0,1.670698E-1,3.6689988E-1,2.1193025E-1,-2.9274365E-1,-6.3527054E-1,-1.1990065E-1,5.553939E-1,-1.9304956E-1,4.8176798E-1,2.668237E-1,-7.0330954E-1,3.3383065E-1,-2.3366462E-1,3.6816508E-1,4.571781E-1,-7.4590343E-1,-0E0,-2.1793462E-1,6.027795E-1,-2.4872914E-1,-8.8762015E-2,-1.4486094E-1,-0E0,-8.786815E-2,1.5098645E-1,-2.1731746E-1,3.4518898E-3,-8.336215E-2,5.669808E-2,-1.1249216E-1,7.441284E-2,9.189797E-2,1.9488414E-1],"categories":[],"categories_nodes":[],"categories_segments":[],"categories_sizes":[],"default_left":[0,0,0,0,0,0,0,0,0,0,0,0,0,0,0,0,0,0,0,0,0,0,0,0,0,0,0,0,0,0,0,0,0,0,0,0,0],"id":3,"left_children":[1,3,5,7,9,-1,11,-1,13,15,17,19,21,-1,23,-1,25,-1,27,29,31,33,35,-1,-1,-1,-1,-1,-1,-1,-1,-1,-1,-1,-1,-1,-1],"loss_changes":[5.527417E2,7.7166766E2,2.9872607E2,8.111072E1,1.3566226E2,0E0,2.8044202E2,0E0,4.6634277E1,1.1497874E2,4.126999E1,1.0737958E2,1.3232327E2,0E0,3.7575073E1,0E0,5.5233673E1,0E0,7.6730606E1,4.0987457E1,6.559296E1,3.23392E1,5.768625E1,0E0,0E0,0E0,0E0,0E0,0E0,0E0,0E0,0E0,0E0,0E0,0E0,0E0,0E0],"parents":[2147483647,0,0,1,1,2,2,3,3,4,4,6,6,8,8,9,9,10,10,11,11,12,12,14,14,16,16,18,18,19,19,20,20,21,21,22,22],"right_children":[2,4,6,8,10,-1,12,-1,14,16,18,20,22,-1,24,-1,26,-1,28,30,32,34,36,-1,-1,-1,-1,-1,-1,-1,-1,-1,-1,-1,-1,-1,-1],"split_conditions":[-3.8797522E-1,-4.152142E-1,-2.8483812E-2,-7.193173E-1,8.783745E-1,3.6689988E-1,-2.1426098E-1,-2.9274365E-1,-3.8927874E-1,-1.0149232E-1,1.2005619E0,-1.0641505E0,-1.907716E-2,2.668237E-1,-2.1426098E-1,3.3383065E-1,-1.0032778E-1,3.6816508E-1,1.2321801E0,4.637134E-3,-4.9713093E-1,-4.152142E-1,1.073168E0,-2.4872914E-1,-8.8762015E-2,-1.4486094E-1,-0E0,-8.786815E-2,1.5098645E-1,-2.1731746E-1,3.4518898E-3,-8.336215E-2,5.669808E-2,-1.1249216E-1,7.441284E-2,9.189797E-2,1.9488414E-1],"split_indices":[2,4,2,2,4,0,15,0,2,4,4,15,2,0,15,0,4,0,4,5,5,4,2,0,0,0,0,0,0,0,0,0,0,0,0,0,0],"split_type":[0,0,0,0,0,0,0,0,0,0,0,0,0,0,0,0,0,0,0,0,0,0,0,0,0,0,0,0,0,0,0,0,0,0,0,0,0],"sum_hessian":[4.9305244E3,2.205369E3,2.7251555E3,1.0083914E3,1.1969775E3,1.7350029E2,2.5516553E3,6.138588E2,3.9453262E2,6.816833E2,5.1529425E2,1.0133765E3,1.5382788E3,1.1319953E1,3.8321268E2,4.2901623E1,6.387817E2,3.951716E1,4.757771E2,2.5985553E2,7.53521E2,2.2086877E2,1.31741E3,1.7278139E2,2.1043127E2,2.3338301E2,4.0539865E2,8.315326E1,3.9262384E2,2.1400818E2,4.584735E1,3.0682318E2,4.466978E2,1.5413623E2,6.673253E1,7.041143E2,6.1329565E2],"tree_param":{"num_deleted":"0","num_feature":"17","num_nodes":"37","size_leaf_vector":"1"}},{"base_weights":[-0E0,-4.573617E-1,1.7418934E-1,-2.7122256E-1,7.2554196E-3,3.323298E-1,1.098058E-1,-3.1303284E-1,2.2600783E-1,-4.6325302E-1,2.4379638E-1,-1.3289347E-1,-8.2512754E-1,3.866923E-1,1.1591583E-1,-3.201119E-1,-1.0869337E0,3.2387838E-1,1.6990457E-1,1.090008E-2,-1.1277472E-1,-2.0297237E-1,-0E0,-2.0800473E-1,6.527529E-2,-9.653745E-2,6.726446E-2,-2.7884164E-1,-0E0,-7.9558164E-2,7.233427E-2],"categories":[],"categories_nodes":[],"categories_segments":[],"categories_sizes":[],"default_left":[0,0,0,0,0,0,0,0,0,0,0,0,0,0,0,0,0,0,0,0,0,0,0,0,0,0,0,0,0,0,0],"id":4,"left_children":[1,3,5,-1,7,-1,9,11,13,15,17,19,21,-1,23,25,27,-1,29,-1,-1,-1,-1,-1,-1,-1,-1,-1,-1,-1,-1],"loss_changes":[3.729807E2,4.2846002E2,2.6374298E2,0E0,5.4043728E1,0E0,2.4583679E2,2.3589441E1,6.540126E1,4.6702637E1,2.1286542E2,1.6869965E1,2.3578377E0,0E0,6.9974464E1,2.893108E1,1.5489624E1,0E0,1.753614E2,0E0,0E0,0E0,0E0,0E0,0E0,0E0,0E0,0E0,0E0,0E0,0E0],"parents":[2147483647,0,0,1,1,2,2,4,4,6,6,7,7,8,8,9,9,10,10,11,11,12,12,14,14,15,15,16,16,18,18],"right_children":[2,4,6,-1,8,-1,10,12,14,16,18,20,22,-1,24,26,28,-1,30,-1,-1,-1,-1,-1,-1,-1,-1,-1,-1,-1,-1],"split_conditions":[-7.193173E-1,-4.152142E-1,-3.8927874E-1,-2.7122256E-1,2.2506365E-1,3.323298E-1,-3.8797522E-1,1.0113814E0,5.495348E-1,7.191872E-1,-2.8483812E-2,-2.3928863E-1,2.465177E0,3.866923E-1,5.66391E-1,1.5282878E0,2.8065648E0,3.2387838E-1,1.1774523E-2,1.090008E-2,-1.1277472E-1,-2.0297237E-1,-0E0,-2.0800473E-1,6.527529E-2,-9.653745E-2,6.726446E-2,-2.7884164E-1,-0E0,-7.9558164E-2,7.233427E-2],"split_indices":[2,4,2,0,4,0,2,8,4,6,2,15,9,0,4,4,9,0,2,0,0,0,0,0,0,0,0,0,0,0,0],"split_type":[0,0,0,0,0,0,0,0,0,0,0,0,0,0,0,0,0,0,0,0,0,0,0,0,0,0,0,0,0,0,0],"sum_hessian":[4.6657446E3,1.2925125E3,3.3732322E3,5.174406E2,7.7507184E2,1.6065674E2,3.2125754E3,3.054916E2,4.695802E2,6.015428E2,2.6110327E3,2.3391176E2,7.157986E1,2.937913E1,4.4020108E2,4.9682953E2,1.0471324E2,1.5348169E2,2.457551E3,1.4619478E2,8.771699E1,6.7566505E1,4.013348E0,5.6766457E1,3.8343463E2,4.3794272E2,5.8886787E1,9.750706E1,7.206183E0,5.20495E2,1.937056E3],"tree_param":{"num_deleted":"0","num_feature":"17","num_nodes":"31","size_leaf_vector":"1"}},{"base_weights":[-0E0,-3.89082E-1,1.4187363E-1,-2.5469425E-1,4.333746E-3,3.0424717E-1,8.845169E-2,-1.0080306E-1,4.824715E-1,-2.115599E-1,3.0624142E-1,-3.462649E-1,8.9526035E-2,6.081521E-1,2.0376667E-2,-2.9268882E-1,5.244303E-1,3.3829656E-1,2.403935E-1,-1.1751021E-1,-0E0,3.860141E-1,-4.4595838E-2,1.5602092E-1,-0E0,-3.3782046E-2,9.3850695E-2,-8.558184E-2,1.410998E-1,2.0291844E-2,1.8622817E-1,7.2070896E-3,1.2228357E-1],"categories":[],"categories_nodes":[],"categories_segments":[],"categories_sizes":[],"default_left":[0,0,0,0,0,0,0,0,0,0,0,0,0,0,0,0,0,0,0,0,0,0,0,0,0,0,0,0,0,0,0,0,0],"id":5,"left_children":[1,3,5,-1,7,-1,9,11,13,15,17,19,21,23,25,27,29,-1,31,-1,-1,-1,-1,-1,-1,-1,-1,-1,-1,-1,-1,-1,-1],"loss_changes":[2.4679947E2,3.3492377E2,1.9608691E2,0E0,4.020123E1,0E0,2.0523041E2,3.0117796E1,5.4539413E0,7.723363E1,1.2878143E2,1.2953442E1,1.5539992E2,5.1267395E0,3.8352606E0,7.744169E1,1.0568794E1,0E0,9.999534E1,0E0,0E0,0E0,0E0,0E0,0E0,0E0,0E0,0E0,0E0,0E0,0E0,0E0,0E0],"parents":[2147483647,0,0,1,1,2,2,4,4,6,6,7,7,8,8,9,9,10,10,11,11,12,12,13,13,14,14,15,15,16,16,18,18],"right_children":[2,4,6,-1,8,-1,10,12,14,16,18,20,22,24,26,28,30,-1,32,-1,-1,-1,-1,-1,-1,-1,-1,-1,-1,-1,-1,-1,-1],"split_conditions":[-7.193173E-1,-4.152142E-1,-3.8927874E-1,-2.5469425E-1,1.8962237E0,3.0424717E-1,-2.1426098E-1,1.8000923E-3,5.398718E-1,1.2321801E0,1.9966156E-16,8.382485E-1,9.935782E-1,4.098113E0,2.637928E-1,2.1411808E0,1.0378932E0,3.3829656E-1,7.088711E-1,-1.1751021E-1,-0E0,3.860141E-1,-4.4595838E-2,1.5602092E-1,-0E0,-3.3782046E-2,9.3850695E-2,-8.558184E-2,1.410998E-1,2.0291844E-2,1.8622817E-1,7.2070896E-3,1.2228357E-1],"split_indices":[2,4,2,0,4,0,15,1,12,4,15,9,1,9,16,2,8,0,15,0,0,0,0,0,0,0,0,0,0,0,0,0,0],"split_type":[0,0,0,0,0,0,0,0,0,0,0,0,0,0,0,0,0,0,0,0,0,0,0,0,0,0,0,0,0,0,0,0,0],"sum_hessian":[4.464911E3,1.1941554E3,3.2707559E3,4.3284515E2,7.6131024E2,1.3887079E2,3.131885E3,6.166093E2,1.4470094E2,1.3080814E3,1.8238036E3,2.7985992E2,3.367494E2,1.05367256E2,3.933369E1,1.1846434E3,1.2343804E2,9.422389E1,1.7295797E3,1.8321413E2,9.6645805E1,5.3002098E1,2.8374728E2,9.8664444E1,6.7028184E0,1.919597E1,2.0137718E1,1.1002234E3,8.441998E1,5.4676544E1,6.87615E1,1.00427594E3,7.253037E2],"tree_param":{"num_deleted":"0","num_feature":"17","num_nodes":"33","size_leaf_vector":"1"}},{"base_weights":[-0E0,-2.4565494E-1,1.7735636E-1,-7.393811E-1,7.585347E-2,2.9439637E-1,1.1678998E-1,-2.4160622E-1,-4.231469E-1,2.814566E-1,3.3222806E-2,-6.057198E-1,1.984015E-1,-7.436752E-1,-1.7492184E-1,-4.2620343E-1,1.5557034E-1,2.7529227E-3,-8.0485046E-1,5.150959E-2,5.751441E-1,-0E0,-1.8479374E-1,-0E0,-2.1690346E-1,-6.602912E-2,-2.188751E-1,3.1436312E-1,1.922031E-2,1.23410836E-1,-2.3667725E-2,-2.2954136E-1,-0E0,-3.9767385E-3,1.776598E-1,3.254226E-1,1.086067E-1],"categories":[],"categories_nodes":[],"categories_segments":[],"categories_sizes":[],"default_left":[0,0,0,0,0,0,0,0,0,0,0,0,0,0,0,0,0,0,0,0,0,0,0,0,0,0,0,0,0,0,0,0,0,0,0,0,0],"id":6,"left_children":[1,3,5,7,9,-1,11,-1,13,-1,15,17,19,21,23,25,27,29,31,33,35,-1,-1,-1,-1,-1,-1,-1,-1,-1,-1,-1,-1,-1,-1,-1,-1],"loss_changes":[1.868032E2,2.878141E2,1.5718336E2,5.9054016E1,4.6071617E1,0E0,1.3806644E2,0E0,2.3615631E1,0E0,5.76205E1,3.2316353E1,1.1530696E2,3.9259872E0,2.4890583E1,9.448086E0,6.595579E1,5.003797E0,2.7240501E1,7.881783E1,4.3663986E1,0E0,0E0,0E0,0E0,0E0,0E0,0E0,0E0,0E0,0E0,0E0,0E0,0E0,0E0,0E0,0E0],"parents":[2147483647,0,0,1,1,2,2,3,3,4,4,6,6,8,8,10,10,11,11,12,12,13,13,14,14,15,15,16,16,17,17,18,18,19,19,20,20],"right_children":[2,4,6,8,10,-1,12,-1,14,-1,16,18,20,22,24,26,28,30,32,34,36,-1,-1,-1,-1,-1,-1,-1,-1,-1,-1,-1,-1,-1,-1,-1,-1],"split_conditions":[-3.8797522E-1,-4.152142E-1,-2.8483812E-2,-7.193173E-1,-1.0149232E-1,2.9439637E-1,-1.0641505E0,-2.4160622E-1,-2.1426098E-1,2.814566E-1,-1.0032778E-1,-1.1654888E0,1.4170502E0,-1.1654888E0,6.5099883E-1,3.5028973E-1,2.2402123E-1,1.5382424E-16,3.540531E-3,1.2321801E0,1.7754909E0,-0E0,-1.8479374E-1,-0E0,-2.1690346E-1,-6.602912E-2,-2.188751E-1,3.1436312E-1,1.922031E-2,1.23410836E-1,-2.3667725E-2,-2.2954136E-1,-0E0,-3.9767385E-3,1.776598E-1,3.254226E-1,1.086067E-1],"split_indices":[2,4,2,2,4,0,15,0,15,0,4,16,2,16,6,8,4,3,4,4,2,0,0,0,0,0,0,0,0,0,0,0,0,0,0,0,0],"split_type":[0,0,0,0,0,0,0,0,0,0,0,0,0,0,0,0,0,0,0,0,0,0,0,0,0,0,0,0,0,0,0,0,0,0,0,0,0],"sum_hessian":[4.2898335E3,1.7917128E3,2.498121E3,7.118993E2,1.0798135E3,1.26992615E2,2.3711284E3,3.5928003E2,3.5261926E2,3.4126633E1,1.0456868E3,2.3399834E2,2.1371301E3,1.4454785E2,2.0807141E2,2.1113135E2,8.345555E2,5.2053925E1,1.8194441E2,1.5476272E3,5.895028E2,1.0655336E1,1.3389252E2,1.7287593E2,3.5195477E1,1.7343845E2,3.7692905E1,4.352826E1,7.910272E2,1.5444989E1,3.6608932E1,1.4991637E2,3.202804E1,1.4060587E3,1.4156856E2,6.3343628E1,5.261592E2],"tree_param":{"num_deleted":"0","num_feature":"17","num_nodes":"37","size_leaf_vector":"1"}},{"base_weights":[6.335489E-4,-2.7992555E-1,1.3507742E-1,-2.369785E-1,-1.7366025E-1,2.1034032E-1,-4.521743E-1,-2.9638302E-1,2.0755062E-1,1.0740366E-1,3.6398292E-1,-5.3269625E-1,4.6231907E-2,-3.577579E-1,4.4647655E-1,8.934468E-1,-2.7173482E-2,-9.800821E-2,3.0025974E-1,-5.6899536E-1,-0E0,3.2741258E-1,-1.893283E-1,-5.7116527E-2,-1.5173757E-1,-0E0,1.5289158E-1,5.116106E-2,2.6303738E-1,-4.992444E-2,5.4871857E-2,-9.210395E-2,4.0502485E-2,3.189592E-1,5.9887256E-2,-1.4343138E-1,-0E0,1.1353449E-1,-0E0,-0E0,-1.30411E-1],"categories":[],"categories_nodes":[],"categories_segments":[],"categories_sizes":[],"default_left":[0,0,0,0,0,0,0,0,0,0,0,0,0,0,0,0,0,0,0,0,0,0,0,0,0,0,0,0,0,0,0,0,0,0,0,0,0,0,0,0,0],"id":7,"left_children":[1,3,5,-1,7,9,11,13,15,17,-1,19,21,23,25,27,29,31,33,35,-1,37,39,-1,-1,-1,-1,-1,-1,-1,-1,-1,-1,-1,-1,-1,-1,-1,-1,-1,-1],"loss_changes":[1.5466492E2,9.738799E1,1.22525375E2,0E0,5.4882565E1,3.3680713E2,1.4820797E1,4.030268E1,4.8323612E1,9.267917E1,0E0,6.801773E0,3.110902E0,2.2924171E1,4.432559E0,5.0978203E0,9.743755E0,9.034167E1,4.825364E1,6.3024826E0,0E0,2.1479056E0,1.4437548E0,0E0,0E0,0E0,0E0,0E0,0E0,0E0,0E0,0E0,0E0,0E0,0E0,0E0,0E0,0E0,0E0,0E0,0E0],"parents":[2147483647,0,0,1,1,2,2,4,4,5,5,6,6,7,7,8,8,9,9,11,11,12,12,13,13,14,14,15,15,16,16,17,17,18,18,19,19,21,21,22,22],"right_children":[2,4,6,-1,8,10,12,14,16,18,-1,20,22,24,26,28,30,32,34,36,-1,38,40,-1,-1,-1,-1,-1,-1,-1,-1,-1,-1,-1,-1,-1,-1,-1,-1,-1,-1],"split_conditions":[-4.9713093E-1,-7.193173E-1,9.972988E-1,-2.369785E-1,7.088711E-1,3.9112726E-3,1.8477435E0,2.1411808E0,1.5591028E0,-3.8797522E-1,3.6398292E-1,1.5762753E0,1.758766E0,4.8517424E-1,2.0617776E0,9.704389E-1,1.5762753E0,2.2506365E-1,-4.9461034E-1,1.9262276E0,-0E0,9.9840146E-1,-1.9319525E-1,-5.7116527E-2,-1.5173757E-1,-0E0,1.5289158E-1,5.116106E-2,2.6303738E-1,-4.992444E-2,5.4871857E-2,-9.210395E-2,4.0502485E-2,3.189592E-1,5.9887256E-2,-1.4343138E-1,-0E0,1.1353449E-1,-0E0,-0E0,-1.30411E-1],"split_indices":[5,2,10,0,15,10,2,2,15,2,0,15,6,13,3,15,15,4,5,9,0,11,12,0,0,0,0,0,0,0,0,0,0,0,0,0,0,0,0,0,0],"split_type":[0,0,0,0,0,0,0,0,0,0,0,0,0,0,0,0,0,0,0,0,0,0,0,0,0,0,0,0,0,0,0,0,0,0,0,0,0,0,0,0,0],"sum_hessian":[4.116532E3,1.321701E3,2.794831E3,1.6018134E2,1.1615198E3,2.4851619E3,3.096692E2,8.883114E2,2.7320834E2,2.3132197E3,1.7194203E2,2.7477734E2,3.489187E1,8.2698065E2,6.1330738E1,7.405692E1,1.9915141E2,1.108424E3,1.2047958E3,2.6171008E2,1.3067232E1,2.4947155E1,9.944712E0,6.08997E2,2.1798366E2,2.3030313E1,3.8300426E1,2.4798227E1,4.9258694E1,1.2709725E2,7.205417E1,5.380915E2,5.703324E2,4.207079E1,1.162725E3,2.4130981E2,2.0400278E1,1.9814737E1,5.132417E0,5.1401057E0,4.8046055E0],"tree_param":{"num_deleted":"0","num_feature":"17","num_nodes":"41","size_leaf_vector":"1"}},{"base_weights":[-0E0,-4.899265E-2,5.1624775E-1,-1.2763055E-1,3.681629E-1,-0E0,5.9091735E-1,-7.493507E-2,-5.316252E-1,2.9718885E-1,2.6245353E-1,-3.226477E-1,1.3021916E-1,6.266683E-1,-0E0,-1.6301271E-1,3.585759E-1,-0E0,-5.660028E-1,-1.4685092E-2,5.524195E-1,-0E0,-1.3825293E-1,4.228959E-1,-5.570552E-2,-0E0,6.511777E-1,-0E0,-2.6886832E-2,-5.460192E-2,3.397716E-2,4.7650635E-2,-0E0,-1.673604E-1,-8.296674E-2,4.9218565E-2,-7.063923E-2,1.4640063E-1,-1.7592035E-1,-0E0,1.6135885E-1,5.029654E-2,1.6708896E-1],"categories":[],"categories_nodes":[],"categories_segments":[],"categories_sizes":[],"default_left":[0,0,0,0,0,0,0,0,0,0,0,0,0,0,0,0,0,0,0,0,0,0,0,0,0,0,0,0,0,0,0,0,0,0,0,0,0,0,0,0,0,0,0],"id":8,"left_children":[1,3,5,7,9,11,13,15,17,-1,19,21,23,25,27,29,-1,31,33,35,37,-1,-1,39,-1,-1,41,-1,-1,-1,-1,-1,-1,-1,-1,-1,-1,-1,-1,-1,-1,-1,-1],"loss_changes":[1.01014984E2,1.18904335E2,1.4172607E1,6.2807484E1,4.6864273E1,2.1004333E0,8.432068E0,3.8278125E2,7.9601135E0,0E0,4.413913E1,2.430295E0,4.0031896E0,6.902237E0,1.241733E-1,5.729638E1,0E0,4.7463486E-1,5.0678406E0,1.7179651E1,2.5249886E1,0E0,0E0,3.0803576E0,0E0,0E0,3.4108124E0,0E0,0E0,0E0,0E0,0E0,0E0,0E0,0E0,0E0,0E0,0E0,0E0,0E0,0E0,0E0,0E0],"parents":[2147483647,0,0,1,1,2,2,3,3,4,4,5,5,6,6,7,7,8,8,10,10,11,11,12,12,13,13,14,14,15,15,17,17,18,18,19,19,20,20,23,23,26,26],"right_children":[2,4,6,8,10,12,14,16,18,-1,20,22,24,26,28,30,-1,32,34,36,38,-1,-1,40,-1,-1,42,-1,-1,-1,-1,-1,-1,-1,-1,-1,-1,-1,-1,-1,-1,-1,-1],"split_conditions":[1.8962237E0,1.4170502E0,-3.484343E-1,9.972988E-1,1.7754909E0,1.8000923E-3,1.2831551E0,3.9112726E-3,-1.4754494E0,2.9718885E-1,2.1411808E0,-8.151156E-1,3.6029312E-1,-1.8548139E0,-1.3115779E-1,7.088711E-1,3.585759E-1,-8.2982E-2,-4.152142E-1,2.1362858E0,4.5095534E0,-0E0,-1.3825293E-1,-7.193173E-1,-5.570552E-2,-0E0,-8.4890145E-1,-0E0,-2.6886832E-2,-5.460192E-2,3.397716E-2,4.7650635E-2,-0E0,-1.673604E-1,-8.296674E-2,4.9218565E-2,-7.063923E-2,1.4640063E-1,-1.7592035E-1,-0E0,1.6135885E-1,5.029654E-2,1.6708896E-1],"split_indices":[4,2,8,10,2,1,16,10,14,0,2,11,13,12,11,15,0,7,4,2,6,0,0,2,0,0,7,0,0,0,0,0,0,0,0,0,0,0,0,0,0,0,0],"split_type":[0,0,0,0,0,0,0,0,0,0,0,0,0,0,0,0,0,0,0,0,0,0,0,0,0,0,0,0,0,0,0,0,0,0,0,0,0,0,0,0,0,0,0],"sum_hessian":[4.001973E3,3.65699E3,3.4498273E2,3.0872222E3,5.69768E2,4.1349102E1,3.0363364E2,2.7426035E3,3.4461862E2,5.3652588E1,5.161154E2,1.4531804E1,2.6817299E1,2.913274E2,1.230624E1,2.6040881E3,1.3851518E2,1.5873106E1,3.287455E2,2.5601135E2,2.6010406E2,4.0461483E0,1.0485656E1,2.207648E1,4.740819E0,5.321074E0,2.8600632E2,4.030786E0,8.275454E0,2.1311655E3,4.729228E2,1.0309013E1,5.564092E0,1.7710541E2,1.5164012E2,1.3441772E2,1.2159364E2,2.5009792E2,1.000615E1,8.032111E0,1.4044369E1,4.6828793E1,2.3917754E2],"tree_param":{"num_deleted":"0","num_feature":"17","num_nodes":"43","size_leaf_vector":"1"}},{"base_weights":[3.3307818E-3,-2.054284E-1,1.0448914E-1,-2.238933E-1,-1.1740632E-1,-2.711696E-1,1.8365891E-1,-6.453227E-1,-5.4027412E-2,-8.055396E-2,-6.5690947E-1,3.1008586E-1,1.565601E-1,-0E0,-9.181339E-1,-1.9965954E-1,5.4730754E-2,-1.8498626E-1,-0E0,-6.8746775E-1,-0E0,2.7805278E-1,4.590631E-3,-1.0068978E-2,8.8565126E-2,-2.286981E-1,-0E0,-0E0,-9.995897E-2,3.655479E-1,-2.930563E-2,-5.353604E-2,4.1036185E-2,-0E0,-1.6736719E-1,1.6244396E-3,3.2402554E-1,-8.193869E-3,1.1463387E-1],"categories":[],"categories_nodes":[],"categories_segments":[],"categories_sizes":[],"default_left":[0,0,0,0,0,0,0,0,0,0,0,0,0,0,0,0,0,0,0,0,0,0,0,0,0,0,0,0,0,0,0,0,0,0,0,0,0,0,0],"id":9,"left_children":[1,3,5,-1,7,9,11,13,15,17,19,-1,21,23,25,27,29,-1,31,33,-1,35,37,-1,-1,-1,-1,-1,-1,-1,-1,-1,-1,-1,-1,-1,-1,-1,-1],"loss_changes":[8.219553E1,7.842282E1,7.852594E1,0E0,3.4676212E1,2.9632126E1,6.0938538E1,2.344968E1,1.6933012E1,1.7296604E1,2.7776222E0,0E0,3.8462425E1,1.7760559E0,4.744896E0,1.960119E1,1.6182524E2,0E0,1.1440374E1,2.809826E0,0E0,3.4837253E2,2.1025707E1,0E0,0E0,0E0,0E0,0E0,0E0,0E0,0E0,0E0,0E0,0E0,0E0,0E0,0E0,0E0,0E0],"parents":[2147483647,0,0,1,1,2,2,4,4,5,5,6,6,7,7,8,8,9,9,10,10,12,12,13,13,14,14,15,15,16,16,18,18,19,19,21,21,22,22],"right_children":[2,4,6,-1,8,10,12,14,16,18,20,-1,22,24,26,28,30,-1,32,34,-1,36,38,-1,-1,-1,-1,-1,-1,-1,-1,-1,-1,-1,-1,-1,-1,-1,-1],"split_conditions":[-4.9713093E-1,-7.193173E-1,-9.3472207E-1,-2.238933E-1,-7.7411276E-1,-1.4740578E0,-4.9461034E-1,-8.569199E-1,1.8000923E-3,-4.152142E-1,1.7748976E0,3.1008586E-1,9.935782E-1,6.1712727E-2,2.1411808E0,6.1712727E-2,9.935782E-1,-1.8498626E-1,1.8000923E-3,-1.7744472E0,-0E0,1.8000923E-3,1.5762753E0,-1.0068978E-2,8.8565126E-2,-2.286981E-1,-0E0,-0E0,-9.995897E-2,3.655479E-1,-2.930563E-2,-5.353604E-2,4.1036185E-2,-0E0,-1.6736719E-1,1.6244396E-3,3.2402554E-1,-8.193869E-3,1.1463387E-1],"split_indices":[5,2,7,0,15,16,5,16,1,4,8,0,1,13,2,13,1,0,1,14,0,1,15,0,0,0,0,0,0,0,0,0,0,0,0,0,0,0,0],"split_type":[0,0,0,0,0,0,0,0,0,0,0,0,0,0,0,0,0,0,0,0,0,0,0,0,0,0,0,0,0,0,0,0,0,0,0,0,0,0,0],"sum_hessian":[3.9128506E3,1.2614005E3,2.6514502E3,1.2520495E2,1.1361956E3,4.5056757E2,2.2008826E3,1.1263241E2,1.0235632E3,3.107227E2,1.3984488E2,4.564224E1,2.1552405E3,2.9727678E1,8.290473E1,4.5596854E2,5.675946E2,2.9710808E1,2.8101187E2,1.3347057E2,6.374315E0,1.1797587E3,9.754816E2,1.8725836E1,1.10018425E1,7.773229E1,5.172443E0,2.5050829E2,2.0546025E2,6.2428986E1,5.0516562E2,1.23571144E2,1.5744072E2,5.200028E0,1.2827054E2,9.523669E2,2.2739183E2,8.937548E2,8.1726814E1],"tree_param":{"num_deleted":"0","num_feature":"17","num_nodes":"39","size_leaf_vector":"1"}},{"base_weights":[7.327512E-4,4.4143166E-2,-3.6915952E-1,-1.6798047E-2,3.1634575E-1,-6.4463013E-1,-2.565242E-1,-7.110718E-2,3.3678287E-1,-0E0,-1.5652739E-1,-4.5028022E-1,-2.859446E-2,-2.367806E-1,8.0525175E-2,2.7745986E-1,2.621865E-1,-0E0,-6.250268E-1,1.911881E-1,-3.1406263E-1,-1.0598169E-1,-0E0,1.726523E-1,-7.378509E-4,-1.0684287E-1,8.5167184E-2,5.356969E-2,-8.679877E-2,-1.8818556E-1,-4.1572277E-2,-0E0,1.3522875E-1,-1.521591E-1,-0E0],"categories":[],"categories_nodes":[],"categories_segments":[],"categories_sizes":[],"default_left":[0,0,0,0,0,0,0,0,0,0,0,0,0,0,0,0,0,0,0,0,0,0,0,0,0,0,0,0,0,0,0,0,0,0,0],"id":10,"left_children":[1,3,5,7,-1,9,11,13,15,-1,-1,17,19,21,23,-1,25,27,29,31,33,-1,-1,-1,-1,-1,-1,-1,-1,-1,-1,-1,-1,-1,-1],"loss_changes":[5.9798073E1,2.8032477E2,7.6103516E0,6.1666496E1,0E0,7.785835E-1,1.0540941E1,7.242401E1,1.9696136E1,0E0,0E0,1.1474432E1,9.818135E0,7.040329E1,8.4810455E1,0E0,2.8993538E1,3.6576464E0,3.6261482E0,8.230821E0,1.0438194E1,0E0,0E0,0E0,0E0,0E0,0E0,0E0,0E0,0E0,0E0,0E0,0E0,0E0,0E0],"parents":[2147483647,0,0,1,1,2,2,3,3,5,5,6,6,7,7,8,8,11,11,12,12,13,13,14,14,16,16,17,17,18,18,19,19,20,20],"right_children":[2,4,6,8,-1,10,12,14,16,-1,-1,18,20,22,24,-1,26,28,30,32,34,-1,-1,-1,-1,-1,-1,-1,-1,-1,-1,-1,-1,-1,-1],"split_conditions":[9.972988E-1,3.9112726E-3,-7.193173E-1,1.2321801E0,3.1634575E-1,-1.6770321E0,-5.1611745E-1,-1.907716E-2,1.5260755E0,-0E0,-1.5652739E-1,-2.2582895E-1,8.652114E-17,-4.152142E-1,3.3231112E-1,2.7745986E-1,1.5282878E0,9.369376E-2,5.633582E-1,-4.152142E-1,8.850559E-1,-1.0598169E-1,-0E0,1.726523E-1,-7.378509E-4,-1.0684287E-1,8.5167184E-2,5.356969E-2,-8.679877E-2,-1.8818556E-1,-4.1572277E-2,-0E0,1.3522875E-1,-1.521591E-1,-0E0],"split_indices":[10,10,2,4,0,12,9,2,4,0,0,3,5,4,2,0,4,12,16,4,9,0,0,0,0,0,0,0,0,0,0,0,0,0,0],"split_type":[0,0,0,0,0,0,0,0,0,0,0,0,0,0,0,0,0,0,0,0,0,0,0,0,0,0,0,0,0,0,0,0,0,0,0],"sum_hessian":[3.8184692E3,3.4298176E3,3.8865167E2,3.274918E3,1.5489967E2,9.89908E1,2.8966086E2,2.851336E3,4.2358203E2,5.7204976E0,9.32703E1,1.4467001E2,1.4499084E2,1.3773282E3,1.4740077E3,2.7661476E1,3.9592056E2,4.0742157E1,1.0392786E2,7.267848E1,7.231236E1,7.163981E2,6.609302E2,1.7164491E2,1.3023628E3,4.3042545E1,3.5287802E2,2.5465864E1,1.5276295E1,6.579684E1,3.813102E1,4.11679E1,3.1510586E1,4.0570644E1,3.1741718E1],"tree_param":{"num_deleted":"0","num_feature":"17","num_nodes":"35","size_leaf_vector":"1"}},{"base_weights":[-0E0,-1.2251242E-1,1.1902919E-1,-3.0833885E-1,4.5598317E-2,6.1968106E-1,-2.651382E-2,-7.503539E-1,-1.5063068E-1,3.5519704E-1,-2.6620965E-2,3.7478656E-1,3.3022845E-1,-2.592586E-1,2.1129407E-1,-7.7552336E-1,-0E0,-5.8934003E-1,-2.7410565E-2,1.1844452E-1,-3.2076478E-1,3.0101517E-1,5.2880365E-2,-3.0351043E-1,2.4158151E-1,8.452455E-1,-1.0368906E-2,-1.956687E-1,-4.3078203E-2,-1.9765814E-1,-7.782285E-2,2.6153695E-2,-4.576572E-2,-4.435812E-3,2.3885098E-1,-1.2845135E-1,-1.6953912E-2,-9.9247515E-2,1.2967876E-1,-8.198388E-2,3.8214456E-2,1.12626046E-1,-0E0,2.0374693E-1,-0E0,-6.514413E-2,8.062501E-2],"categories":[],"categories_nodes":[],"categories_segments":[],"categories_sizes":[],"default_left":[0,0,0,0,0,0,0,0,0,0,0,0,0,0,0,0,0,0,0,0,0,0,0,0,0,0,0,0,0,0,0,0,0,0,0,0,0,0,0,0,0,0,0,0,0,0,0],"id":11,"left_children":[1,3,5,7,9,11,13,15,17,-1,19,21,-1,23,25,27,-1,29,31,33,35,-1,37,39,41,43,45,-1,-1,-1,-1,-1,-1,-1,-1,-1,-1,-1,-1,-1,-1,-1,-1,-1,-1,-1,-1],"loss_changes":[5.4371346E1,5.8753986E1,1.4043758E2,5.7452293E1,1.0874986E2,7.501944E1,8.091022E1,6.1624146E0,3.2908623E1,0E0,3.971211E1,9.259575E1,0E0,1.6926964E1,1.0389675E2,3.0667572E0,0E0,3.0722961E0,1.2817342E1,7.903582E1,1.4655853E1,0E0,6.1844074E1,1.6369362E1,4.934168E0,4.9288025E0,4.9641365E1,0E0,0E0,0E0,0E0,0E0,0E0,0E0,0E0,0E0,0E0,0E0,0E0,0E0,0E0,0E0,0E0,0E0,0E0,0E0,0E0],"parents":[2147483647,0,0,1,1,2,2,3,3,4,4,5,5,6,6,7,7,8,8,10,10,11,11,13,13,14,14,15,15,17,17,18,18,19,19,20,20,22,22,23,23,24,24,25,25,26,26],"right_children":[2,4,6,8,10,12,14,16,18,-1,20,22,-1,24,26,28,-1,30,32,34,36,-1,38,40,42,44,46,-1,-1,-1,-1,-1,-1,-1,-1,-1,-1,-1,-1,-1,-1,-1,-1,-1,-1,-1,-1],"split_conditions":[-2.1426098E-1,-4.152142E-1,6.599071E-1,-1.0641505E0,-1.0149232E-1,3.7376997E-1,7.088711E-1,1.9027488E0,-3.8797522E-1,3.5519704E-1,-2.3928863E-1,1.9966156E-16,3.3022845E-1,2.1411808E0,1.5591028E0,1.8616635E0,-0E0,-7.193173E-1,3.242436E-2,-1.0641505E0,2.2506365E-1,3.0101517E-1,8.352332E-2,1.8962237E0,6.912281E-1,4.3010554E0,1.5762753E0,-1.956687E-1,-4.3078203E-2,-1.9765814E-1,-7.782285E-2,2.6153695E-2,-4.576572E-2,-4.435812E-3,2.3885098E-1,-1.2845135E-1,-1.6953912E-2,-9.9247515E-2,1.2967876E-1,-8.198388E-2,3.8214456E-2,1.12626046E-1,-0E0,2.0374693E-1,-0E0,-6.514413E-2,8.062501E-2],"split_indices":[15,4,15,15,4,15,15,12,2,0,15,15,0,2,15,3,0,2,11,15,4,0,15,4,13,2,15,0,0,0,0,0,0,0,0,0,0,0,0,0,0,0,0,0,0,0,0],"split_type":[0,0,0,0,0,0,0,0,0,0,0,0,0,0,0,0,0,0,0,0,0,0,0,0,0,0,0,0,0,0,0,0,0,0,0,0,0,0,0,0,0,0,0,0,0,0,0],"sum_hessian":[3.726161E3,1.8390297E3,1.8871311E3,8.8654047E2,9.5248926E2,4.3162076E2,1.4555104E3,2.2408852E2,6.6245197E2,4.6518185E1,9.0597107E2,3.3570297E2,9.591779E1,7.4567896E2,7.098314E2,2.199551E2,4.13342E0,1.3585822E2,5.265937E2,5.9631195E2,3.096591E2,8.273011E1,2.5297285E2,6.9429663E2,5.1382305E1,1.8867337E2,5.21158E2,1.9132318E2,2.863191E1,5.7282314E1,7.8575905E1,2.7291174E2,2.5368196E2,5.13972E2,8.233999E1,1.5032352E2,1.5933559E2,1.2486624E2,1.2810661E2,6.397971E2,5.449955E1,3.3304977E1,1.8077328E1,1.8360226E2,5.0711036E0,3.0469632E2,2.1646173E2],"tree_param":{"num_deleted":"0","num_feature":"17","num_nodes":"47","size_leaf_vector":"1"}},{"base_weights":[2.2997195E-3,-1.2475534E-1,1.100238E-1,-1.7117536E-1,1.4804396E-1,3.146282E-1,-8.063059E-2,-1.339328E-1,-6.9316113E-1,2.3440868E-1,5.0520625E-2,-2.0451117E-1,2.3943026E-2,-2.5711688E-1,-1.2264956E-2,-0E0,-8.958577E-1,-6.8966314E-2,3.6600333E-1,-1.0458433E-1,-5.782717E-1,3.932207E-1,-6.0531154E-2,-1.1142266E-1,-3.047901E-2,2.5314593E-1,-2.0132711E-2,7.204225E-3,-1.0459705E-1,-2.313498E-1,-0E0,-7.9036295E-2,2.5294932E-2,1.4579523E-1,-0E0,-5.0295312E-2,1.9705376E-2,-1.5128435E-1,-0E0,3.317782E-2,2.9244998E-1,-3.8558815E-2,4.748219E-2],"categories":[],"categories_nodes":[],"categories_segments":[],"categories_sizes":[],"default_left":[0,0,0,0,0,0,0,0,0,0,0,0,0,0,0,0,0,0,0,0,0,0,0,0,0,0,0,0,0,0,0,0,0,0,0,0,0,0,0,0,0,0,0],"id":12,"left_children":[1,3,5,7,9,-1,11,13,15,-1,17,19,21,23,25,27,29,31,33,35,37,39,41,-1,-1,-1,-1,-1,-1,-1,-1,-1,-1,-1,-1,-1,-1,-1,-1,-1,-1,-1,-1],"loss_changes":[4.9501785E1,2.0925201E1,4.7315042E2,2.3521603E1,1.3628969E1,0E0,2.306572E1,1.8699818E1,8.805847E0,0E0,9.269126E0,2.6754208E1,2.997838E1,1.4940899E1,5.1371464E1,1.8560315E0,3.2441483E0,7.8458657E0,9.342722E0,1.4177744E1,7.9213676E0,3.1965437E1,1.9996132E1,0E0,0E0,0E0,0E0,0E0,0E0,0E0,0E0,0E0,0E0,0E0,0E0,0E0,0E0,0E0,0E0,0E0,0E0,0E0,0E0],"parents":[2147483647,0,0,1,1,2,2,3,3,4,4,6,6,7,7,8,8,10,10,11,11,12,12,13,13,14,14,15,15,16,16,17,17,18,18,19,19,20,20,21,21,22,22],"right_children":[2,4,6,8,10,-1,12,14,16,-1,18,20,22,24,26,28,30,32,34,36,38,40,42,-1,-1,-1,-1,-1,-1,-1,-1,-1,-1,-1,-1,-1,-1,-1,-1,-1,-1,-1,-1],"split_conditions":[1.8000923E-3,1.4170502E0,9.935782E-1,1.974793E0,1.7754909E0,3.146282E-1,-2.1426098E-1,-3.8797522E-1,-3.8784507E-1,2.3440868E-1,-5.1611745E-1,7.349365E-1,6.599071E-1,-4.152142E-1,-2.8483812E-2,4.1551787E-1,1.5216876E0,1.0010948E-2,-3.1633517E-1,3.540531E-3,2.1411808E0,3.7376997E-1,7.1137786E-1,-1.1142266E-1,-3.047901E-2,2.5314593E-1,-2.0132711E-2,7.204225E-3,-1.0459705E-1,-2.313498E-1,-0E0,-7.9036295E-2,2.5294932E-2,1.4579523E-1,-0E0,-5.0295312E-2,1.9705376E-2,-1.5128435E-1,-0E0,3.317782E-2,2.9244998E-1,-3.8558815E-2,4.748219E-2],"split_indices":[1,2,1,6,2,0,15,2,14,0,9,13,15,4,2,3,13,12,9,4,2,15,2,0,0,0,0,0,0,0,0,0,0,0,0,0,0,0,0,0,0,0,0],"split_type":[0,0,0,0,0,0,0,0,0,0,0,0,0,0,0,0,0,0,0,0,0,0,0,0,0,0,0,0,0,0,0,0,0,0,0,0,0,0,0,0,0,0,0],"sum_hessian":[3.6196685E3,1.640409E3,1.9792593E3,1.4171665E3,2.2324254E2,2.66801E2,1.7124583E3,1.332611E3,8.455554E1,1.6794125E1,2.0644843E2,8.0428015E2,9.0817816E2,6.42079E2,6.9053204E2,2.3402771E1,6.115277E1,1.3938588E2,6.706253E1,6.457978E2,1.5848235E2,1.7884569E2,7.2933246E2,2.1978404E2,4.2229495E2,3.8605003E1,6.51927E2,1.5321086E1,8.081685E0,5.314617E1,8.006599E0,6.560812E1,7.377776E1,4.6326893E1,2.0735641E1,4.2301434E2,2.2278345E2,1.4502203E2,1.3460309E1,1.4365955E2,3.5186142E1,5.35598E2,1.9373447E2],"tree_param":{"num_deleted":"0","num_feature":"17","num_nodes":"43","size_leaf_vector":"1"}},{"base_weights":[2.5258602E-3,1.4292835E-1,-7.317898E-2,-0E0,3.1237492E-1,-3.3244634E-1,9.880456E-2,-1.3461341E-1,1.2850411E-1,-2.2687657E-1,-6.373613E-1,5.7678205E-1,-1.8818786E-2,-3.2707993E-2,-4.8280263E-1,7.8728455E-1,-1.1802624E-2,-5.5297977E-1,-1.7084776E-1,-7.072005E-1,-0E0,6.3058937E-1,-0E0,-5.723666E-2,4.4842282E-1,-3.624162E-2,1.3186589E-1,-0E0,-1.3240738E-1,-0E0,2.8557318E-1,-3.742782E-2,6.961751E-2,-1.47581E-1,-1.2189874E-2,-1.7108517E-2,-9.494705E-2,-1.8091805E-1,-2.2890095E-2,-0E0,7.735126E-2,2.1984881E-1,1.036245E-1,-2.1027857E-2,1.169102E-1,1.5149194E-1,-0E0],"categories":[],"categories_nodes":[],"categories_segments":[],"categories_sizes":[],"default_left":[0,0,0,0,0,0,0,0,0,0,0,0,0,0,0,0,0,0,0,0,0,0,0,0,0,0,0,0,0,0,0,0,0,0,0,0,0,0,0,0,0,0,0,0,0,0,0],"id":13,"left_children":[1,3,5,7,-1,9,11,13,15,17,19,21,23,25,27,29,31,33,35,37,39,41,-1,43,45,-1,-1,-1,-1,-1,-1,-1,-1,-1,-1,-1,-1,-1,-1,-1,-1,-1,-1,-1,-1,-1,-1],"loss_changes":[3.7929417E1,2.1063577E2,1.026357E2,1.9546074E1,0E0,2.5297974E1,7.902826E1,1.6656061E1,5.8422813E1,9.15757E0,1.2903564E1,8.707161E0,1.7600119E1,2.9506163E1,4.7460823E0,3.5468987E1,2.1609041E1,2.1348953E-1,1.1660006E1,4.27079E0,1.3018879E0,7.62484E0,0E0,1.6574306E1,8.134749E0,0E0,0E0,0E0,0E0,0E0,0E0,0E0,0E0,0E0,0E0,0E0,0E0,0E0,0E0,0E0,0E0,0E0,0E0,0E0,0E0,0E0,0E0],"parents":[2147483647,0,0,1,1,2,2,3,3,5,5,6,6,7,7,8,8,9,9,10,10,11,11,12,12,13,13,14,14,15,15,16,16,17,17,18,18,19,19,20,20,21,21,23,23,24,24],"right_children":[2,4,6,8,-1,10,12,14,16,18,20,22,24,26,28,30,32,34,36,38,40,42,-1,44,46,-1,-1,-1,-1,-1,-1,-1,-1,-1,-1,-1,-1,-1,-1,-1,-1,-1,-1,-1,-1,-1,-1],"split_conditions":[-1.8928673E-15,-1.6237204E-1,5.572327E-4,-9.851297E-1,3.1237492E-1,7.099603E-1,1.1552803E-1,-1.0150173E0,-5.091646E-1,-9.3472207E-1,2.560289E0,9.8055375E-1,2.1411808E0,-1.2073439E0,-1.2569175E0,-8.661986E-1,-2.9105878E-1,1.5423925E-1,7.191872E-1,2.1700716E0,-6.7504233E-1,6.8569645E-2,-0E0,3.5881605E0,2.4189963E0,-3.624162E-2,1.3186589E-1,-0E0,-1.3240738E-1,-0E0,2.8557318E-1,-3.742782E-2,6.961751E-2,-1.47581E-1,-1.2189874E-2,-1.7108517E-2,-9.494705E-2,-1.8091805E-1,-2.2890095E-2,-0E0,7.735126E-2,2.1984881E-1,1.036245E-1,-2.1027857E-2,1.169102E-1,1.5149194E-1,-0E0],"split_indices":[14,14,14,14,0,13,14,14,14,7,4,10,2,14,13,14,14,13,6,3,3,11,0,4,7,0,0,0,0,0,0,0,0,0,0,0,0,0,0,0,0,0,0,0,0,0,0],"split_type":[0,0,0,0,0,0,0,0,0,0,0,0,0,0,0,0,0,0,0,0,0,0,0,0,0,0,0,0,0,0,0,0,0,0,0,0,0,0,0,0,0,0,0,0,0,0,0],"sum_hessian":[3.5349358E3,1.2600723E3,2.2748635E3,1.1289677E3,1.3110463E2,9.1787823E2,1.3569852E3,5.381528E2,5.908149E2,6.9486523E2,2.23013E2,2.7515402E2,1.0818313E3,4.278436E2,1.103092E2,1.0882158E2,4.8199332E2,8.7964264E1,6.06901E2,2.0673503E2,1.6277958E1,2.5191798E2,2.3236032E1,1.00996747E3,7.186376E1,3.6235904E2,6.548454E1,1.5804445E1,9.450475E1,4.05983E1,6.8223274E1,3.3665546E2,1.4533786E2,6.752331E1,2.0440962E1,4.4446097E2,1.6244002E2,1.7885133E2,2.7883707E1,5.502196E0,1.07757635E1,8.342224E1,1.6849574E2,9.628536E2,4.711392E1,5.3129337E1,1.8734426E1],"tree_param":{"num_deleted":"0","num_feature":"17","num_nodes":"47","size_leaf_vector":"1"}},{"base_weights":[2.964972E-3,-1.6841389E-1,5.6922056E-2,-8.1266177E-1,-3.406252E-3,2.6729962E-1,2.0978209E-2,-1.5619828E-1,-8.655327E-1,7.389334E-2,-3.380384E-1,-3.5119146E-1,6.4204045E-2,-9.861081E-2,-0E0,-2.0574395E-1,-0E0,-7.03993E-2,2.9192665E-1,-5.8106166E-1,-0E0,9.6054874E-2,-5.5556834E-1,1.2876402E-1,-1.2643948E-1,9.265772E-2,-2.857733E-2,8.559776E-2,-4.661773E-2,-1.6036353E-1,-0E0,-2.4515785E-2,4.5160525E-2,-5.494584E-3,9.629874E-2,-1.6756377E-1,-2.1922283E-2,1.3454414E-2,3.0038986E-1,-1.5254667E-1,2.2938526E-3],"categories":[],"categories_nodes":[],"categories_segments":[],"categories_sizes":[],"default_left":[0,0,0,0,0,0,0,0,0,0,0,0,0,0,0,0,0,0,0,0,0,0,0,0,0,0,0,0,0,0,0,0,0,0,0,0,0,0,0,0,0],"id":14,"left_children":[1,3,5,7,9,-1,11,13,15,17,19,21,23,-1,-1,-1,-1,25,27,29,31,33,35,37,39,-1,-1,-1,-1,-1,-1,-1,-1,-1,-1,-1,-1,-1,-1,-1,-1],"loss_changes":[3.170062E1,8.258E1,9.88498E1,5.270462E-1,1.8221037E1,0E0,4.03542E1,2.3195648E0,4.14505E-2,1.747368E1,1.1850649E1,2.5871977E1,2.8764833E1,0E0,0E0,0E0,0E0,6.051999E0,8.965609E0,6.3996067E0,1.2597072E0,4.6886606E0,9.858856E0,1.3872269E2,4.4153778E1,0E0,0E0,0E0,0E0,0E0,0E0,0E0,0E0,0E0,0E0,0E0,0E0,0E0,0E0,0E0,0E0],"parents":[2147483647,0,0,1,1,2,2,3,3,4,4,6,6,7,7,8,8,9,9,10,10,11,11,12,12,17,17,18,18,19,19,20,20,21,21,22,22,23,23,24,24],"right_children":[2,4,6,8,10,-1,12,14,16,18,20,22,24,-1,-1,-1,-1,26,28,30,32,34,36,38,40,-1,-1,-1,-1,-1,-1,-1,-1,-1,-1,-1,-1,-1,-1,-1,-1],"split_conditions":[-7.193173E-1,-4.152142E-1,-3.8927874E-1,-1.3339334E0,-4.1796237E-1,2.6729962E-1,-1.0641505E0,-1.4444692E0,1.6822557E0,-9.3472207E-1,2.055242E0,-1.1654888E0,-1.0149232E-1,-9.861081E-2,-0E0,-2.0574395E-1,-0E0,-9.050612E-1,1.1014925E0,1.2924873E0,-1.3707884E-1,1.6870007E-2,3.540531E-3,-4.152142E-1,-1.0032778E-1,9.265772E-2,-2.857733E-2,8.559776E-2,-4.661773E-2,-1.6036353E-1,-0E0,-2.4515785E-2,4.5160525E-2,-5.494584E-3,9.629874E-2,-1.6756377E-1,-2.1922283E-2,1.3454414E-2,3.0038986E-1,-1.5254667E-1,2.2938526E-3],"split_indices":[2,4,2,11,3,0,15,11,11,7,9,16,4,0,0,0,0,3,16,12,7,13,4,4,4,0,0,0,0,0,0,0,0,0,0,0,0,0,0,0,0],"split_type":[0,0,0,0,0,0,0,0,0,0,0,0,0,0,0,0,0,0,0,0,0,0,0,0,0,0,0,0,0,0,0,0,0,0,0,0,0,0,0,0,0],"sum_hessian":[3.4834788E3,8.12386E2,2.6710928E3,1.5886938E2,6.535166E2,8.0139656E1,2.5909531E3,1.8893812E1,1.3997557E2,5.199915E2,1.335251E2,2.5730917E2,2.3336438E3,1.4656019E1,4.237792E0,1.3519516E2,4.7804065E0,3.001845E2,2.1980702E2,7.956379E1,5.3961315E1,7.3561E1,1.8374818E2,1.7622601E3,5.713837E2,2.011377E1,2.8007074E2,1.9954893E2,2.0258078E1,7.0270805E1,9.292982E0,3.0735004E1,2.3226309E1,4.315944E1,3.0401558E1,1.2797375E2,5.5774433E1,1.6651274E3,9.71327E1,1.2380237E2,4.475814E2],"tree_param":{"num_deleted":"0","num_feature":"17","num_nodes":"41","size_leaf_vector":"1"}},{"base_weights":[1.9177644E-3,-9.620582E-2,8.7623976E-2,-0E0,-1.8319006E-1,2.9388174E-1,-6.0413647E-2,-1.4801292E-2,2.5144598E-1,-2.1425302E-1,4.4394404E-1,-3.5537876E-2,-6.237262E-1,-2.8891006E-1,5.8507305E-2,-2.8576916E-1,-0E0,6.531232E-1,-0E0,-8.828516E-2,2.0314625E-1,-9.725982E-1,-0E0,-9.994751E-2,-0E0,3.2873873E-2,-5.872647E-2,-4.4124667E-2,-1.2768224E-1,2.4245954E-1,-1.9901358E-2,-0E0,1.7709321E-1,-5.206506E-3,-1.1654826E-1,2.7242497E-1,2.066799E-2,-2.4806508E-1,-0E0,-0E0,-8.672101E-2],"categories":[],"categories_nodes":[],"categories_segments":[],"categories_sizes":[],"default_left":[0,0,0,0,0,0,0,0,0,0,0,0,0,0,0,0,0,0,0,0,0,0,0,0,0,0,0,0,0,0,0,0,0,0,0,0,0,0,0,0,0],"id":15,"left_children":[1,3,5,7,9,-1,11,13,-1,15,17,19,21,23,25,27,29,31,-1,33,35,37,39,-1,-1,-1,-1,-1,-1,-1,-1,-1,-1,-1,-1,-1,-1,-1,-1,-1,-1],"loss_changes":[2.8656506E1,1.3886364E1,3.2589368E2,1.6076836E1,1.5477505E1,0E0,1.9773598E1,1.534556E1,0E0,1.1776604E1,4.8908615E0,1.9331158E1,1.0164875E1,6.432372E0,1.34176655E1,1.1574657E1,1.664662E1,1.5652456E0,0E0,3.297683E1,2.365569E1,1.7743988E0,1.1751662E0,0E0,0E0,0E0,0E0,0E0,0E0,0E0,0E0,0E0,0E0,0E0,0E0,0E0,0E0,0E0,0E0,0E0,0E0],"parents":[2147483647,0,0,1,1,2,2,3,3,4,4,6,6,7,7,9,9,10,10,11,11,12,12,13,13,14,14,15,15,16,16,17,17,19,19,20,20,21,21,22,22],"right_children":[2,4,6,8,10,-1,12,14,-1,16,18,20,22,24,26,28,30,32,-1,34,36,38,40,-1,-1,-1,-1,-1,-1,-1,-1,-1,-1,-1,-1,-1,-1,-1,-1,-1,-1],"split_conditions":[1.8000923E-3,-5.274E-1,9.935782E-1,-5.763343E-1,4.1995845E0,2.9388174E-1,3.246098E0,-1.0641505E0,2.5144598E-1,7.1137786E-1,5.1195507E0,1.073168E0,5.572327E-4,1.6870007E-2,4.7564048E-1,1.394952E-1,1.0539011E0,1.6672736E-1,-0E0,6.9310606E-1,1.414696E0,-2.2895929E-1,2.337851E0,-9.994751E-2,-0E0,3.2873873E-2,-5.872647E-2,-4.4124667E-2,-1.2768224E-1,2.4245954E-1,-1.9901358E-2,-0E0,1.7709321E-1,-5.206506E-3,-1.1654826E-1,2.7242497E-1,2.066799E-2,-2.4806508E-1,-0E0,-0E0,-8.672101E-2],"split_indices":[1,11,1,11,4,0,6,15,0,2,8,2,14,13,13,3,2,13,0,2,2,9,7,0,0,0,0,0,0,0,0,0,0,0,0,0,0,0,0,0,0],"split_type":[0,0,0,0,0,0,0,0,0,0,0,0,0,0,0,0,0,0,0,0,0,0,0,0,0,0,0,0,0,0,0,0,0,0,0,0,0,0,0,0,0],"sum_hessian":[3.410185E3,1.5638899E3,1.846295E3,7.1956506E2,8.443249E2,2.0999754E2,1.6362975E3,7.069211E2,1.2643994E1,8.12418E2,3.1906872E1,1.5763273E3,5.9970207E1,1.622245E2,5.446966E2,6.0039746E2,2.1202057E2,2.5616724E1,6.290148E0,1.3079658E3,2.6836142E2,3.476295E1,2.5207254E1,1.085082E2,5.3716293E1,4.4313132E2,1.0156525E2,4.5250784E2,1.478896E2,1.3006185E1,1.9901439E2,4.1630588E0,2.1453665E1,1.1378698E3,1.7009605E2,2.3053774E1,2.4530765E2,3.0557236E1,4.205716E0,1.7778145E1,7.4291086E0],"tree_param":{"num_deleted":"0","num_feature":"17","num_nodes":"41","size_leaf_vector":"1"}},{"base_weights":[3.7240016E-3,1.8046107E-2,-5.863396E-1,4.6675086E-2,-2.2155747E-1,-7.49214E-1,-0E0,-0E0,2.911829E-1,-1.38711E-1,-4.365976E-1,-0E0,-8.137839E-1,-0E0,3.5475556E-2,-3.8889308E-2,1.7240296E-1,-2.2142404E-1,5.927401E-1,-4.698429E-1,-0E0,-2.0756876E-1,-0E0,-1.3889923E-2,1.0934244E-1,1.4333522E-1,2.8264537E-3,-6.922386E-2,-0E0,1.7774162E-1,-0E0,-1.1958092E-1,-0E0],"categories":[],"categories_nodes":[],"categories_segments":[],"categories_sizes":[],"default_left":[0,0,0,0,0,0,0,0,0,0,0,0,0,0,0,0,0,0,0,0,0,0,0,0,0,0,0,0,0,0,0,0,0],"id":16,"left_children":[1,3,5,7,9,11,13,15,-1,17,19,-1,21,-1,-1,23,25,27,29,31,-1,-1,-1,-1,-1,-1,-1,-1,-1,-1,-1,-1,-1],"loss_changes":[2.5738394E1,2.1775097E1,8.706903E0,1.6401743E2,3.1382294E0,3.0217628E0,2.1324134E-1,1.933125E1,0E0,1.4026593E1,1.3506718E0,0E0,2.156536E0,0E0,0E0,2.2293163E1,3.4648323E1,3.0516882E0,2.2206945E0,1.8783045E0,0E0,0E0,0E0,0E0,0E0,0E0,0E0,0E0,0E0,0E0,0E0,0E0,0E0],"parents":[2147483647,0,0,1,1,2,2,3,3,4,4,5,5,6,6,7,7,9,9,10,10,12,12,15,15,16,16,17,17,18,18,19,19],"right_children":[2,4,6,8,10,12,14,16,-1,18,20,-1,22,-1,-1,24,26,28,30,32,-1,-1,-1,-1,-1,-1,-1,-1,-1,-1,-1,-1,-1],"split_conditions":[2.1398492E0,9.972988E-1,1.9928321E0,3.9112726E-3,4.9766234E-1,-5.3838646E-1,1.8000923E-3,7.088711E-1,2.911829E-1,3.1973416E-1,2.2442687E0,-0E0,2.251982E0,-0E0,3.5475556E-2,3.818114E0,1.5591028E0,4.530521E-1,6.082914E-1,1.7051457E0,-0E0,-2.0756876E-1,-0E0,-1.3889923E-2,1.0934244E-1,1.4333522E-1,2.8264537E-3,-6.922386E-2,-0E0,1.7774162E-1,-0E0,-1.1958092E-1,-0E0],"split_indices":[13,10,9,10,13,11,1,15,0,13,4,0,3,0,0,4,15,11,12,14,0,0,0,0,0,0,0,0,0,0,0,0,0],"split_type":[0,0,0,0,0,0,0,0,0,0,0,0,0,0,0,0,0,0,0,0,0,0,0,0,0,0,0,0,0,0,0,0,0],"sum_hessian":[3.3641084E3,3.2933254E3,7.078292E1,2.9604062E3,3.3291934E2,5.843857E1,1.2344351E1,2.8517905E3,1.0861552E2,2.5765616E2,7.526318E1,4.510137E0,5.3928432E1,4.1961417E0,8.148209E0,2.3206401E3,5.311505E2,2.3803033E2,1.9625835E1,7.095761E1,4.305569E0,4.7787533E1,6.1409E0,2.240127E3,8.0513306E1,1.3279393E2,3.9835657E2,1.6716373E2,7.08666E1,1.531452E1,4.311316E0,6.677068E1,4.1869297E0],"tree_param":{"num_deleted":"0","num_feature":"17","num_nodes":"33","size_leaf_vector":"1"}},{"base_weights":[3.0849718E-3,1.1558103E-1,-5.614742E-2,2.771962E-3,1.1829431E0,-2.4960558E-1,7.373218E-2,3.539617E-2,-6.754187E-1,1.2573595E0,1.3774934E-1,-1.7107995E-1,-4.7456905E-1,6.518116E-1,5.853979E-3,-2.4430348E-2,6.638335E-1,-8.017187E-1,-0E0,3.0064023E-1,-0E0,-0E0,8.3058715E-2,-3.3636847E-1,-8.915547E-2,-5.195389E-1,-0E0,3.107281E-1,2.9191065E-1,4.7594484E-2,-2.8834742E-1,-4.6488356E-2,1.0096953E-2,2.6706958E-1,1.7374415E-2,-0E0,-2.1128088E-1,-9.3270384E-2,-0E0,-0E0,-6.465021E-2,-0E0,-1.2841073E-1,-1.2743942E-2,4.800117E-2,2.704844E-1,-0E0,2.7782335E-3,1.0513183E-1,-1.035768E-1,5.1730357E-2],"categories":[],"categories_nodes":[],"categories_segments":[],"categories_sizes":[],"default_left":[0,0,0,0,0,0,0,0,0,0,0,0,0,0,0,0,0,0,0,0,0,0,0,0,0,0,0,0,0,0,0,0,0,0,0,0,0,0,0,0,0,0,0,0,0,0,0,0,0,0,0],"id":17,"left_children":[1,3,5,7,9,11,13,15,17,19,21,23,25,27,29,31,33,35,-1,-1,-1,-1,-1,37,39,41,43,45,-1,47,49,-1,-1,-1,-1,-1,-1,-1,-1,-1,-1,-1,-1,-1,-1,-1,-1,-1,-1,-1,-1],"loss_changes":[2.2423763E1,1.35675E2,5.4852005E1,2.0574135E1,1.563385E0,1.2342403E1,4.6759888E1,4.1627937E1,2.5946388E0,6.1465454E-1,7.8771335E-1,6.986883E0,5.458313E0,1.786705E1,1.2946712E1,1.1743469E1,2.1259369E1,1.7953815E0,0E0,0E0,0E0,0E0,0E0,5.618578E0,7.8748217E0,3.0135345E0,4.6774864E-1,1.9010006E1,0E0,1.2435012E1,1.1317382E1,0E0,0E0,0E0,0E0,0E0,0E0,0E0,0E0,0E0,0E0,0E0,0E0,0E0,0E0,0E0,0E0,0E0,0E0,0E0,0E0],"parents":[2147483647,0,0,1,1,2,2,3,3,4,4,5,5,6,6,7,7,8,8,9,9,10,10,11,11,12,12,13,13,14,14,15,15,16,16,17,17,23,23,24,24,25,25,26,26,27,27,29,29,30,30],"right_children":[2,4,6,8,10,12,14,16,18,20,22,24,26,28,30,32,34,36,-1,-1,-1,-1,-1,38,40,42,44,46,-1,48,50,-1,-1,-1,-1,-1,-1,-1,-1,-1,-1,-1,-1,-1,-1,-1,-1,-1,-1,-1,-1],"split_conditions":[-1.8928673E-15,-1.6237204E-1,5.572327E-4,-1.64415E-1,-9.247877E-3,7.099603E-1,5.3943526E-2,-2.9105878E-1,7.709785E-1,1.4424165E0,-2.9618707E-1,-4.6482998E-1,2.560289E0,2.2091446E-2,2.0957565E0,-6.6012174E-1,-2.0193575E-1,-1.194477E0,-0E0,3.0064023E-1,-0E0,-0E0,8.3058715E-2,1.6776366E0,2.5512317E-1,-1.4729831E0,-6.7504233E-1,6.4814473E-3,2.9191065E-1,1.7051457E0,1.271715E0,-4.6488356E-2,1.0096953E-2,2.6706958E-1,1.7374415E-2,-0E0,-2.1128088E-1,-9.3270384E-2,-0E0,-0E0,-6.465021E-2,-0E0,-1.2841073E-1,-1.2743942E-2,4.800117E-2,2.704844E-1,-0E0,2.7782335E-3,1.0513183E-1,-1.035768E-1,5.1730357E-2],"split_indices":[14,14,14,14,14,13,14,14,16,16,16,12,4,14,14,12,14,13,0,0,0,0,0,9,7,12,3,14,0,14,15,0,0,0,0,0,0,0,0,0,0,0,0,0,0,0,0,0,0,0,0],"split_type":[0,0,0,0,0,0,0,0,0,0,0,0,0,0,0,0,0,0,0,0,0,0,0,0,0,0,0,0,0,0,0,0,0,0,0,0,0,0,0,0,0,0,0,0,0,0,0,0,0,0,0],"sum_hessian":[3.3204697E3,1.1727261E3,2.1477437E3,1.0656685E3,1.07057625E2,8.7706915E2,1.2706746E3,1.0244651E3,4.120335E1,9.5470825E1,1.1586802E1,6.6729333E2,2.097758E2,1.2514302E2,1.1455315E3,9.294434E2,9.502166E1,3.296195E1,8.241401E0,9.144681E1,4.0240173E0,4.550042E0,7.0367594E0,2.0069891E2,4.6659442E2,1.9507237E2,1.4703429E1,8.582656E1,3.9316456E1,1.0182137E3,1.27317825E2,2.7869565E2,6.5074774E2,4.7366596E1,4.7655064E1,5.10354E0,2.7858408E1,1.7736565E2,2.3333263E1,3.1634396E2,1.5025044E2,1.0966035E1,1.8410634E2,5.16494E0,9.538489E0,1.9340887E1,6.648568E1,9.471804E2,7.103327E1,1.0491497E2,2.2402857E1],"tree_param":{"num_deleted":"0","num_feature":"17","num_nodes":"51","size_leaf_vector":"1"}},{"base_weights":[5.0365403E-3,-1.4240696E-1,5.0975192E-2,-7.4749607E-1,-9.4000725E-3,2.5287804E-1,2.3262616E-2,-6.93681E-2,-8.077012E-1,1.7199902E-1,-1.0947575E-1,1.07217036E-1,-9.162956E-2,-3.4262684E-1,-0E0,-0E0,-8.2522035E-1,-3.0682343E-1,2.751778E-1,-4.3925452E-1,-2.7559316E-2,5.447591E-2,3.1318846E-1,-5.791063E-1,-2.1392896E-3,-0E0,-1.0319546E-1,-1.9716278E-1,-0E0,-0E0,-1.0713136E-1,9.814163E-2,-0E0,-1.63527E-1,-0E0,1.05828885E-2,-4.9192026E-2,4.7474504E-2,-9.021242E-3,-1.8928744E-1,-2.323208E-2,-5.8841586E-2,1.9246278E-2],"categories":[],"categories_nodes":[],"categories_segments":[],"categories_sizes":[],"default_left":[0,0,0,0,0,0,0,0,0,0,0,0,0,0,0,0,0,0,0,0,0,0,0,0,0,0,0,0,0,0,0,0,0,0,0,0,0,0,0,0,0,0,0],"id":18,"left_children":[1,3,5,7,9,-1,11,13,15,17,19,21,23,25,-1,-1,27,29,31,33,35,37,-1,39,41,-1,-1,-1,-1,-1,-1,-1,-1,-1,-1,-1,-1,-1,-1,-1,-1,-1,-1],"loss_changes":[2.1921986E1,5.750318E1,6.734465E1,1.075264E0,1.1162598E1,0E0,2.401151E1,1.5665797E0,4.4454956E-1,1.0194546E1,9.206314E0,8.809436E1,4.189057E1,2.4982536E-1,0E0,0E0,2.552719E-1,1.7411981E0,7.5416613E0,7.3631544E0,5.4962654E0,2.0220692E1,0E0,1.2262703E1,1.9292461E1,0E0,0E0,0E0,0E0,0E0,0E0,0E0,0E0,0E0,0E0,0E0,0E0,0E0,0E0,0E0,0E0,0E0,0E0],"parents":[2147483647,0,0,1,1,2,2,3,3,4,4,6,6,7,7,8,8,9,9,10,10,11,11,12,12,13,13,16,16,17,17,18,18,19,19,20,20,21,21,23,23,24,24],"right_children":[2,4,6,8,10,-1,12,14,16,18,20,22,24,26,-1,-1,28,30,32,34,36,38,-1,40,42,-1,-1,-1,-1,-1,-1,-1,-1,-1,-1,-1,-1,-1,-1,-1,-1,-1,-1],"split_conditions":[-7.193173E-1,-4.152142E-1,-3.8927874E-1,-1.3339334E0,2.2381896E-1,2.5287804E-1,7.191872E-1,-1.4444692E0,-1.9232335E0,-4.8390183E-1,1.8723226E-1,1.9913325E-2,-1.3707884E-1,-1.0641505E0,-0E0,-0E0,1.6822557E0,-6.6012174E-1,1.0113814E0,4.9170464E-1,-4.1796237E-1,-6.0756557E-2,3.1318846E-1,7.565373E-1,1.5398442E-3,-0E0,-1.0319546E-1,-1.9716278E-1,-0E0,-0E0,-1.0713136E-1,9.814163E-2,-0E0,-1.63527E-1,-0E0,1.05828885E-2,-4.9192026E-2,4.7474504E-2,-9.021242E-3,-1.8928744E-1,-2.323208E-2,-5.8841586E-2,1.9246278E-2],"split_indices":[2,4,2,11,5,0,6,11,12,9,9,6,7,15,0,0,11,12,8,11,3,3,0,6,16,0,0,0,0,0,0,0,0,0,0,0,0,0,0,0,0,0,0],"split_type":[0,0,0,0,0,0,0,0,0,0,0,0,0,0,0,0,0,0,0,0,0,0,0,0,0,0,0,0,0,0,0,0,0,0,0,0,0,0,0,0,0,0,0],"sum_hessian":[3.298657E3,7.5837933E2,2.5402778E3,1.2928143E2,6.290979E2,6.0859867E1,2.479418E3,1.7198982E1,1.1208245E2,2.0643239E2,4.2266547E2,1.4566357E3,1.0227821E3,1.2996831E1,4.2021513E0,4.1017675E0,1.0798068E2,2.801187E1,1.7842052E2,7.1552956E1,3.5111252E2,1.4017173E3,5.491843E1,1.4943417E2,8.7334796E2,4.3359847E0,8.660846E0,1.0353416E2,4.4465284E0,7.8015943E0,2.0210276E1,1.1864432E2,5.9776203E1,4.25325E1,2.9020452E1,2.3307254E2,1.1803998E2,5.5879584E2,8.429215E2,9.360679E1,5.582739E1,2.3457133E2,6.387766E2],"tree_param":{"num_deleted":"0","num_feature":"17","num_nodes":"43","size_leaf_vector":"1"}},{"base_weights":[3.6556234E-3,-4.8328124E-2,1.1147689E-1,1.1837935E-2,-4.0647432E-1,3.2486388E-1,-1.3912052E-2,-5.959512E-2,3.058413E-1,-5.9540623E-1,-2.2060272E-1,-4.6987954E-1,1.1377044E-1,-1.7889751E-2,-3.7987092E-1,-3.509656E-2,-6.653547E-1,1.7245927E-1,-3.0640584E-1,-5.2226588E-2,-5.788155E-1,2.9878837E-1,1.8706188E-2,-7.885432E-3,2.5528175E-1,-1.0554413E-1,1.991969E-2,-0E0,-1.5373352E-1,-1.62641E-1,-0E0,-7.6300018E-3,-1.44984E-1,-1.4457244E-1,4.0067956E-2,-1.4522968E-1,-0E0,-1.507924E-1,3.0180901E-2],"categories":[],"categories_nodes":[],"categories_segments":[],"categories_sizes":[],"default_left":[0,0,0,0,0,0,0,0,0,0,0,0,0,0,0,0,0,0,0,0,0,0,0,0,0,0,0,0,0,0,0,0,0,0,0,0,0,0,0],"id":19,"left_children":[1,3,5,7,9,-1,11,13,-1,15,17,19,21,23,25,27,29,-1,31,33,35,-1,37,-1,-1,-1,-1,-1,-1,-1,-1,-1,-1,-1,-1,-1,-1,-1,-1],"loss_changes":[1.858003E1,4.8659424E1,1.8153802E2,1.7731757E2,7.32584E0,0E0,5.9454357E1,2.1457228E1,0E0,2.3968658E0,1.2800028E1,7.2005424E0,7.873717E1,2.2511244E1,8.092575E0,2.938523E0,2.153263E0,0E0,1.1343075E1,9.460647E0,5.878166E0,0E0,5.002725E1,0E0,0E0,0E0,0E0,0E0,0E0,0E0,0E0,0E0,0E0,0E0,0E0,0E0,0E0,0E0,0E0],"parents":[2147483647,0,0,1,1,2,2,3,3,4,4,6,6,7,7,9,9,10,10,11,11,12,12,13,13,14,14,15,15,16,16,18,18,19,19,20,20,22,22],"right_children":[2,4,6,8,10,-1,12,14,-1,16,18,20,22,24,26,28,30,-1,32,34,36,-1,38,-1,-1,-1,-1,-1,-1,-1,-1,-1,-1,-1,-1,-1,-1,-1,-1],"split_conditions":[3.543816E-1,3.3231112E-1,6.9310606E-1,1.1774523E-2,1.8000923E-3,3.2486388E-1,7.1137786E-1,7.191872E-1,3.058413E-1,-1.4444692E0,9.824238E-1,-7.261727E-1,1.0539011E0,1.9913325E-2,2.7261488E0,-4.6112424E-1,1.175629E0,1.7245927E-1,7.306652E-2,4.6239294E-2,1.0378932E0,2.9878837E-1,1.073168E0,-7.885432E-3,2.5528175E-1,-1.0554413E-1,1.991969E-2,-0E0,-1.5373352E-1,-1.62641E-1,-0E0,-7.6300018E-3,-1.44984E-1,-1.4457244E-1,4.0067956E-2,-1.4522968E-1,-0E0,-1.507924E-1,3.0180901E-2],"split_indices":[2,2,2,2,1,0,2,6,0,11,1,13,2,6,9,5,11,0,13,16,8,0,2,0,0,0,0,0,0,0,0,0,0,0,0,0,0,0,0],"split_type":[0,0,0,0,0,0,0,0,0,0,0,0,0,0,0,0,0,0,0,0,0,0,0,0,0,0,0,0,0,0,0,0,0,0,0,0,0,0,0],"sum_hessian":[3.2590024E3,2.1694072E3,1.0895951E3,1.8468794E3,3.2252798E2,9.9677666E1,9.899175E2,1.7480062E3,9.887306E1,1.4601317E2,1.765148E2,2.2409383E2,7.658236E2,1.5608224E3,1.8718391E2,2.3961063E1,1.2205211E2,9.243332E0,1.6727147E2,5.5758377E1,1.6833545E2,5.2945145E1,7.128785E2,1.5441263E3,1.6696072E1,1.7102388E2,1.6160034E1,1.8202875E1,5.7581882E0,1.15811424E2,6.2406807E0,9.816189E1,6.910959E1,2.1273777E1,3.44846E1,1.6097374E2,7.361708E0,9.47545E1,6.1812396E2],"tree_param":{"num_deleted":"0","num_feature":"17","num_nodes":"39","size_leaf_vector":"1"}},{"base_weights":[4.076474E-3,-7.815821E-2,5.8339372E-2,-2.6622993E-1,-0E0,2.581902E-1,1.6576003E-2,-6.884248E-1,-7.066844E-2,2.0887227E-1,-1.7200131E-2,-1.4920107E-1,6.866576E-2,-5.9932947E-2,-1.850497E-1,9.07398E-2,-3.7610713E-1,4.744016E-2,-2.7900177E-1,-0E0,-2.7959493E-1,2.853093E-1,-0E0,-0E0,-6.9582656E-2,7.1653925E-2,-5.492914E-2,-1.1024198E-1,-0E0,-1.6202049E-3,2.3157012E-1,-1.6341686E-1,-2.3566168E-2,-1.7306747E-2,2.956455E-1,-9.2268184E-2,-0E0,-7.4647926E-2,2.2115199E-2],"categories":[],"categories_nodes":[],"categories_segments":[],"categories_sizes":[],"default_left":[0,0,0,0,0,0,0,0,0,0,0,0,0,0,0,0,0,0,0,0,0,0,0,0,0,0,0,0,0,0,0,0,0,0,0,0,0,0,0],"id":20,"left_children":[1,3,5,7,9,-1,11,13,15,-1,17,19,21,23,-1,25,27,29,31,33,35,-1,37,-1,-1,-1,-1,-1,-1,-1,-1,-1,-1,-1,-1,-1,-1,-1,-1],"loss_changes":[1.4216844E1,1.8998451E1,8.063486E1,2.7278486E1,1.5877538E1,0E0,1.6009478E1,3.1072807E0,1.4472954E1,0E0,1.5466508E1,9.380066E0,1.1954033E2,1.5852741E0,0E0,1.1975886E1,5.20422E0,3.8898697E1,9.784355E0,2.2083538E1,7.5104046E0,0E0,4.2501446E1,0E0,0E0,0E0,0E0,0E0,0E0,0E0,0E0,0E0,0E0,0E0,0E0,0E0,0E0,0E0,0E0],"parents":[2147483647,0,0,1,1,2,2,3,3,4,4,6,6,7,7,8,8,10,10,11,11,12,12,13,13,15,15,16,16,17,17,18,18,19,19,20,20,22,22],"right_children":[2,4,6,8,10,-1,12,14,16,-1,18,20,22,24,-1,26,28,30,32,34,36,-1,38,-1,-1,-1,-1,-1,-1,-1,-1,-1,-1,-1,-1,-1,-1,-1,-1],"split_conditions":[-3.8797522E-1,-4.152142E-1,-2.8483812E-2,-7.193173E-1,-1.0149232E-1,2.581902E-1,1.1774523E-2,-7.2660226E-1,4.779436E-1,2.0887227E-1,-3.8927874E-1,1.5382424E-16,3.3231112E-1,-8.274179E-1,-1.850497E-1,-3.4263653E-1,3.9112726E-3,-7.193173E-1,-5.842661E-1,-1.907716E-2,7.456479E-1,2.853093E-1,3.543816E-1,-0E0,-6.9582656E-2,7.1653925E-2,-5.492914E-2,-1.1024198E-1,-0E0,-1.6202049E-3,2.3157012E-1,-1.6341686E-1,-2.3566168E-2,-1.7306747E-2,2.956455E-1,-9.2268184E-2,-0E0,-7.4647926E-2,2.2115199E-2],"split_indices":[2,4,2,2,4,0,2,14,16,0,2,3,2,11,0,3,10,2,11,2,16,0,2,0,0,0,0,0,0,0,0,0,0,0,0,0,0,0,0],"split_type":[0,0,0,0,0,0,0,0,0,0,0,0,0,0,0,0,0,0,0,0,0,0,0,0,0,0,0,0,0,0,0,0,0,0,0,0,0,0,0],"sum_hessian":[3.2049746E3,1.2389381E3,1.9660364E3,3.738185E2,8.651196E2,6.996272E1,1.8960737E3,1.0973659E2,2.640819E2,1.8447844E1,8.4667175E2,4.3093515E2,1.4651385E3,2.2310856E1,8.742573E1,1.6305907E2,1.0102285E2,6.651182E2,1.8155354E2,1.8901495E2,2.419202E2,8.367259E1,1.381466E3,4.594247E0,1.771661E1,1.0690917E2,5.6149895E1,8.713103E1,1.3891819E1,6.251374E2,3.9980824E1,4.508741E1,1.3646613E2,1.7693587E2,1.2079082E1,1.6881148E2,7.310872E1,3.2203003E2,1.0594359E3],"tree_param":{"num_deleted":"0","num_feature":"17","num_nodes":"39","size_leaf_vector":"1"}},{"base_weights":[1.2506826E-3,1.7122546E-2,-3.3674812E-1,7.767515E-3,2.4684513E-1,-1.3998365E-1,-7.1064115E-1,-6.408192E-2,7.2266735E-2,-0E0,-6.282156E-1,-8.714184E-1,-0E0,-4.4795657E-3,-1.8259087E-1,2.7736488E-1,-3.3705104E-2,-2.7912703E-1,9.715498E-2,-1.8944576E-1,-0E0,-0E0,-2.4819641E-1,6.617456E-3,-4.007975E-2,-6.203055E-2,1.3890676E-2,-5.2962247E-2,1.5570398E-3,-1.6595806E-1,-0E0,-0E0,7.424214E-2],"categories":[],"categories_nodes":[],"categories_segments":[],"categories_sizes":[],"default_left":[0,0,0,0,0,0,0,0,0,0,0,0,0,0,0,0,0,0,0,0,0,0,0,0,0,0,0,0,0,0,0,0,0],"id":21,"left_children":[1,3,5,7,-1,9,11,13,15,17,19,21,-1,23,25,-1,27,29,31,-1,-1,-1,-1,-1,-1,-1,-1,-1,-1,-1,-1,-1,-1],"loss_changes":[1.5296542E1,2.4168678E1,5.1855507E0,1.3888008E1,0E0,4.6464615E0,5.7803555E0,8.844622E0,1.9576338E2,2.6342523E0,1.0399332E0,3.0844727E0,0E0,5.8709936E0,9.725907E0,0E0,1.2484292E1,3.520096E0,2.2433858E0,0E0,0E0,0E0,0E0,0E0,0E0,0E0,0E0,0E0,0E0,0E0,0E0,0E0,0E0],"parents":[2147483647,0,0,1,1,2,2,3,3,5,5,6,6,7,7,8,8,9,9,10,10,11,11,13,13,14,14,16,16,17,17,18,18],"right_children":[2,4,6,8,-1,10,12,14,16,18,20,22,-1,24,26,-1,28,30,32,-1,-1,-1,-1,-1,-1,-1,-1,-1,-1,-1,-1,-1,-1],"split_conditions":[3.246098E0,2.20415E0,2.4189963E0,1.8000923E-3,2.4684513E-1,1.0144016E0,4.5698676E0,1.3781995E-1,9.935782E-1,-4.6790257E-2,8.6626697E-1,-8.898931E-4,-0E0,5.351267E-1,1.0406281E0,2.7736488E-1,-4.128035E-1,-1.3944183E-1,1.2018176E0,-1.8944576E-1,-0E0,-0E0,-2.4819641E-1,6.617456E-3,-4.007975E-2,-6.203055E-2,1.3890676E-2,-5.2962247E-2,1.5570398E-3,-1.6595806E-1,-0E0,-0E0,7.424214E-2],"split_indices":[6,6,7,1,0,16,2,11,1,16,12,16,0,13,3,0,11,12,7,0,0,0,0,0,0,0,0,0,0,0,0,0,0],"split_type":[0,0,0,0,0,0,0,0,0,0,0,0,0,0,0,0,0,0,0,0,0,0,0,0,0,0,0,0,0,0,0,0,0],"sum_hessian":[3.1334392E3,3.0073809E3,1.26058235E2,2.9862058E3,2.1175194E1,9.194551E1,3.4112724E1,1.3776115E3,1.6085942E3,7.665012E1,1.5295391E1,2.9930592E1,4.1821322E0,9.441693E2,4.334421E2,1.4254178E2,1.4660525E3,2.6504587E1,5.0145535E1,1.0320206E1,4.9751854E0,7.4239326E0,2.2506659E1,7.6609937E2,1.7806993E2,3.374212E2,9.602091E1,2.7316644E2,1.1928861E3,1.0137346E1,1.636724E1,2.4244785E1,2.590075E1],"tree_param":{"num_deleted":"0","num_feature":"17","num_nodes":"33","size_leaf_vector":"1"}},{"base_weights":[1.3395272E-3,1.2056788E-2,-4.112837E-1,-1.3101017E-3,2.6366276E-1,-5.586392E-1,-0E0,-1.9805524E-1,1.6097128E-2,8.483834E-1,-0E0,-0E0,-6.2039477E-1,-0E0,4.8138246E-2,-3.6777428E-1,1.8898799E-1,8.910949E-2,-7.359677E-2,9.0284276E-1,-0E0,-1.6353121E-1,9.594133E-2,-1.7814833E-1,-0E0,-1.0079052E-1,-0E0,9.971287E-2,-5.9469473E-2,5.5511915E-3,8.685822E-2,-1.4953627E-1,-1.2308174E-4,-0E0,2.2737409E-1,6.0640823E-2,-6.9467365E-3,-0E0,-7.459253E-2],"categories":[],"categories_nodes":[],"categories_segments":[],"categories_sizes":[],"default_left":[0,0,0,0,0,0,0,0,0,0,0,0,0,0,0,0,0,0,0,0,0,0,0,0,0,0,0,0,0,0,0,0,0,0,0,0,0,0,0],"id":22,"left_children":[1,3,5,7,9,11,13,15,17,19,21,-1,23,-1,-1,25,27,29,31,33,-1,-1,35,-1,37,-1,-1,-1,-1,-1,-1,-1,-1,-1,-1,-1,-1,-1,-1],"loss_changes":[1.18467455E1,1.14841795E1,5.651558E0,1.0707431E1,2.548382E1,2.2866516E0,3.7474474E-1,1.7733181E1,1.7220251E1,1.6779442E0,7.4952297E0,0E0,9.0257835E-1,0E0,0E0,2.871729E0,8.340956E0,2.530666E1,4.436937E1,6.875801E-1,0E0,0E0,3.336244E0,0E0,9.2687213E-1,0E0,0E0,0E0,0E0,0E0,0E0,0E0,0E0,0E0,0E0,0E0,0E0,0E0,0E0],"parents":[2147483647,0,0,1,1,2,2,3,3,4,4,5,5,6,6,7,7,8,8,9,9,10,10,12,12,15,15,16,16,17,17,18,18,19,19,22,22,24,24],"right_children":[2,4,6,8,10,12,14,16,18,20,22,-1,24,-1,-1,26,28,30,32,34,-1,-1,36,-1,38,-1,-1,-1,-1,-1,-1,-1,-1,-1,-1,-1,-1,-1,-1],"split_conditions":[2.1398492E0,1.5762753E0,1.2321801E0,-1.327815E0,2.4582984E0,-5.3838646E-1,1.8000923E-3,7.697174E-1,3.3461303E-1,1.189858E0,-5.763343E-1,-0E0,1.8477435E0,-0E0,4.8138246E-2,1.4690064E0,-4.8796245E-1,3.1106025E-2,3.520138E-1,-3.670927E-1,-0E0,-1.6353121E-1,0E0,-1.7814833E-1,1.5552964E0,-1.0079052E-1,-0E0,9.971287E-2,-5.9469473E-2,5.5511915E-3,8.685822E-2,-1.4953627E-1,-1.2308174E-4,-0E0,2.2737409E-1,6.0640823E-2,-6.9467365E-3,-0E0,-7.459253E-2],"split_indices":[13,15,4,12,15,11,1,7,12,12,11,0,2,0,0,5,9,12,12,11,0,0,6,0,6,0,0,0,0,0,0,0,0,0,0,0,0,0,0],"split_type":[0,0,0,0,0,0,0,0,0,0,0,0,0,0,0,0,0,0,0,0,0,0,0,0,0,0,0,0,0,0,0,0,0,0,0,0,0,0,0],"sum_hessian":[3.1074927E3,3.0411367E3,6.6355835E1,2.870747E3,1.7038979E2,5.357324E1,1.27825985E1,2.5470813E2,2.6160388E3,5.0871655E1,1.19518135E2,4.401406E0,4.9171833E1,5.055774E0,7.7268243E0,1.8567554E2,6.903259E1,1.4714633E3,1.1445756E3,4.6849667E1,4.0219855E0,1.2159293E1,1.0735884E2,3.372186E1,1.5449974E1,1.5002917E2,3.5646366E1,5.1966778E1,1.7065811E1,1.2098868E3,2.6157642E2,1.2232191E2,1.0222537E3,5.968941E0,4.0880726E1,6.2622734E1,4.4736107E1,7.457638E0,7.992336E0],"tree_param":{"num_deleted":"0","num_feature":"17","num_nodes":"39","size_leaf_vector":"1"}},{"base_weights":[-0E0,2.279292E-2,-1.7426258E-1,6.3366955E-3,2.7284878E-1,-4.800136E-1,-0E0,2.0319384E-2,-4.2094606E-1,-1.6937326E-1,-9.7605795E-1,1.2620033E-1,-1.9837964E-1,-1.0463804E-3,3.0061057E-1,-4.634588E-2,-6.901862E-1,-4.0635115E-1,2.0552045E-1,-2.9525188E-1,-0E0,-0E0,2.0576617E-1,9.0408444E-2,-3.289023E-1,8.955084E-3,-4.3664526E-2,-0E0,-8.0951855E-2,-2.0306247E-1,-0E0,-0E0,-1.1822697E-1,-0E0,9.440906E-2,4.159516E-2,-4.273351E-2,6.431609E-2,-0E0,-1.3808611E-1,-0E0],"categories":[],"categories_nodes":[],"categories_segments":[],"categories_sizes":[],"default_left":[0,0,0,0,0,0,0,0,0,0,0,0,0,0,0,0,0,0,0,0,0,0,0,0,0,0,0,0,0,0,0,0,0,0,0,0,0,0,0,0,0],"id":23,"left_children":[1,3,5,7,-1,9,11,13,15,17,19,21,23,25,-1,27,29,31,33,-1,-1,35,-1,37,39,-1,-1,-1,-1,-1,-1,-1,-1,-1,-1,-1,-1,-1,-1,-1,-1],"loss_changes":[1.1903062E1,4.6100517E1,1.780941E1,1.4290371E1,0E0,1.32686405E1,5.705613E0,7.747924E1,4.025758E0,8.40064E0,8.6730385E0,1.0136611E1,4.599289E0,1.96757E1,0E0,1.4205055E0,4.1325645E0,4.078539E0,2.2687042E0,0E0,0E0,3.8910494E0,0E0,8.984259E-1,6.9194107E0,0E0,0E0,0E0,0E0,0E0,0E0,0E0,0E0,0E0,0E0,0E0,0E0,0E0,0E0,0E0,0E0],"parents":[2147483647,0,0,1,1,2,2,3,3,5,5,6,6,7,7,8,8,9,9,10,10,11,11,12,12,13,13,15,15,16,16,17,17,18,18,21,21,23,23,24,24],"right_children":[2,4,6,8,-1,10,12,14,16,18,20,22,24,26,-1,28,30,32,34,-1,-1,36,-1,38,40,-1,-1,-1,-1,-1,-1,-1,-1,-1,-1,-1,-1,-1,-1,-1,-1],"split_conditions":[1.9826425E0,1.4007305E0,1.073168E0,1.3509148E0,2.7284878E-1,5.8600247E-1,3.246098E0,7.565373E-1,3.0922E-1,1.0945439E0,8.910379E-1,2.20415E0,9.865059E-1,7.191872E-1,3.0061057E-1,3.9775744E-1,7.724008E-1,-7.5351936E-1,1.1774523E-2,-2.9525188E-1,-0E0,6.599071E-1,2.0576617E-1,1.0991768E-1,5.572327E-4,8.955084E-3,-4.3664526E-2,-0E0,-8.0951855E-2,-2.0306247E-1,-0E0,-0E0,-1.1822697E-1,-0E0,9.440906E-2,4.159516E-2,-4.273351E-2,6.431609E-2,-0E0,-1.3808611E-1,-0E0],"split_indices":[6,6,2,6,0,3,6,6,7,7,13,6,3,6,0,13,13,3,2,0,0,15,0,14,14,0,0,0,0,0,0,0,0,0,0,0,0,0,0,0,0],"split_type":[0,0,0,0,0,0,0,0,0,0,0,0,0,0,0,0,0,0,0,0,0,0,0,0,0,0,0,0,0,0,0,0,0,0,0,0,0,0,0,0,0],"sum_hessian":[3.086835E3,2.7429087E3,3.4392624E2,2.70925E3,3.365875E1,1.2166821E2,2.2225804E2,2.6352292E3,7.402093E1,8.163822E1,4.002999E1,1.3240285E2,8.985519E1,2.5888848E3,4.634436E1,3.8905304E1,3.5115623E1,5.7763824E1,2.38744E1,2.8858429E1,1.1171562E1,1.17695984E2,1.470686E1,1.669229E1,7.31629E1,2.1157986E3,4.7308612E2,2.7459055E1,1.1446249E1,2.7200195E1,7.915428E0,4.9945755E0,5.276925E1,4.624662E0,1.9249739E1,6.776323E1,4.9932755E1,1.2672272E1,4.0200176E0,4.169434E1,3.1468561E1],"tree_param":{"num_deleted":"0","num_feature":"17","num_nodes":"41","size_leaf_vector":"1"}},{"base_weights":[2.2812958E-3,-1.5284574E-1,2.8104683E-2,-0E0,-2.3753713E-1,1.114219E-1,-2.2553932E-2,2.1285641E-1,-2.4674222E-1,-3.8752893E-1,-4.8440013E-2,1.808832E-1,-5.2488536E-2,-2.0029862E-1,4.111176E-2,-1.7253351E-1,4.379437E-1,-4.6891493E-1,8.5838646E-2,-2.4167234E-2,-5.063516E-1,-0E0,-3.9325407E-1,7.807836E-2,3.4688446E-1,-3.5074311E-1,6.2799486E-3,-2.814688E-1,-0E0,7.610914E-2,-2.6885217E-1,-9.338664E-2,-0E0,1.4188728E-1,-0E0,-0E0,-1.3779013E-1,5.276596E-2,-0E0,2.4023216E-4,-6.7049E-2,-1.267794E-1,-0E0,1.7350148E-2,-1.0386077E-1,-0E0,-1.1720191E-1,5.222956E-2,-1.8804135E-2,2.2640862E-1,5.700725E-2,-1.0236783E-1,-0E0,-1.7671777E-2,7.183792E-2,-7.430571E-3,-9.162993E-2,-1.5205526E-2,8.588052E-2,6.9349967E-3,8.192876E-2,-9.102777E-2,-0E0],"categories":[],"categories_nodes":[],"categories_segments":[],"categories_sizes":[],"default_left":[0,0,0,0,0,0,0,0,0,0,0,0,0,0,0,0,0,0,0,0,0,0,0,0,0,0,0,0,0,0,0,0,0,0,0,0,0,0,0,0,0,0,0,0,0,0,0,0,0,0,0,0,0,0,0,0,0,0,0,0,0,0,0],"id":24,"left_children":[1,3,5,7,9,11,13,15,17,19,21,23,25,27,29,31,33,35,37,39,41,43,45,47,49,51,53,55,57,59,61,-1,-1,-1,-1,-1,-1,-1,-1,-1,-1,-1,-1,-1,-1,-1,-1,-1,-1,-1,-1,-1,-1,-1,-1,-1,-1,-1,-1,-1,-1,-1,-1],"loss_changes":[1.17535925E1,5.069668E0,1.1692299E1,8.163979E0,5.303528E0,1.2521329E1,1.9159155E1,8.327587E0,7.357687E0,3.1260395E0,2.6553805E0,1.0821148E1,6.7549224E0,8.534269E0,1.1877927E1,1.9515283E0,6.991214E0,4.879821E0,7.4724936E-1,1.6529431E0,2.0633564E0,3.3168213E0,6.508751E-1,1.1898774E1,1.1266186E1,1.7131233E0,6.838E0,7.224003E0,4.107625E0,1.1850167E1,3.638946E0,0E0,0E0,0E0,0E0,0E0,0E0,0E0,0E0,0E0,0E0,0E0,0E0,0E0,0E0,0E0,0E0,0E0,0E0,0E0,0E0,0E0,0E0,0E0,0E0,0E0,0E0,0E0,0E0,0E0,0E0,0E0,0E0],"parents":[2147483647,0,0,1,1,2,2,3,3,4,4,5,5,6,6,7,7,8,8,9,9,10,10,11,11,12,12,13,13,14,14,15,15,16,16,17,17,18,18,19,19,20,20,21,21,22,22,23,23,24,24,25,25,26,26,27,27,28,28,29,29,30,30],"right_children":[2,4,6,8,10,12,14,16,18,20,22,24,26,28,30,32,34,36,38,40,42,44,46,48,50,52,54,56,58,60,62,-1,-1,-1,-1,-1,-1,-1,-1,-1,-1,-1,-1,-1,-1,-1,-1,-1,-1,-1,-1,-1,-1,-1,-1,-1,-1,-1,-1,-1,-1,-1,-1],"split_conditions":[-9.3472207E-1,-1.8928673E-15,-4.9932137E-2,-8.603559E-2,9.531124E-2,6.461095E-1,2.521165E-2,-4.6482998E-1,8.783745E-1,-3.6072445E-1,4.3994835E-1,-3.8797522E-1,-6.452752E-1,8.270721E-1,3.246098E0,-3.582017E-1,-6.290385E-1,-1.6548916E0,1.2935425E-1,-9.027651E-1,1.2861979E0,1.6776366E0,-4.8803166E-1,-5.397371E-1,-2.8483812E-2,-1.7032462E-1,9.3186337E-1,-4.760392E-1,2.2506365E-1,2.1411808E0,-5.1611745E-1,-9.338664E-2,-0E0,1.4188728E-1,-0E0,-0E0,-1.3779013E-1,5.276596E-2,-0E0,2.4023216E-4,-6.7049E-2,-1.267794E-1,-0E0,1.7350148E-2,-1.0386077E-1,-0E0,-1.1720191E-1,5.222956E-2,-1.8804135E-2,2.2640862E-1,5.700725E-2,-1.0236783E-1,-0E0,-1.7671777E-2,7.183792E-2,-7.430571E-3,-9.162993E-2,-1.5205526E-2,8.588052E-2,6.9349967E-3,8.192876E-2,-9.102777E-2,-0E0],"split_indices":[7,14,3,13,13,16,7,12,4,12,16,2,3,16,6,14,3,14,12,3,11,9,5,3,2,7,9,11,4,2,9,0,0,0,0,0,0,0,0,0,0,0,0,0,0,0,0,0,0,0,0,0,0,0,0,0,0,0,0,0,0,0,0],"split_type":[0,0,0,0,0,0,0,0,0,0,0,0,0,0,0,0,0,0,0,0,0,0,0,0,0,0,0,0,0,0,0,0,0,0,0,0,0,0,0,0,0,0,0,0,0,0,0,0,0,0,0,0,0,0,0,0,0,0,0,0,0,0,0],"sum_hessian":[3.0804165E3,4.124578E2,2.6679587E3,1.5247685E2,2.5998093E2,1.0439294E3,1.6240293E3,7.934177E1,7.313508E1,1.3026337E2,1.2971756E2,7.5358405E2,2.903454E2,4.47445E2,1.1765844E3,2.1530039E1,5.7811733E1,5.2179153E1,2.0955927E1,4.2324364E1,8.7939E1,1.1166023E2,1.8057333E1,4.8412894E2,2.6945514E2,6.026369E1,2.300817E2,3.337675E2,1.1367752E2,1.0717966E3,1.047877E2,1.5327806E1,6.2022324E0,4.847755E1,9.334182E0,5.5821633E0,4.6596992E1,1.6732414E1,4.2235117E0,2.3050663E1,1.92737E1,8.3410995E1,4.5280085E0,9.876602E1,1.2894208E1,4.8013616E0,1.325597E1,2.6792892E2,2.162E2,3.0321434E1,2.391337E2,4.7132076E1,1.3131615E1,1.6907626E2,6.1005436E1,1.162603E2,2.1750719E2,8.715073E1,2.65268E1,9.327229E2,1.3907375E2,7.327048E1,3.1517223E1],"tree_param":{"num_deleted":"0","num_feature":"17","num_nodes":"63","size_leaf_vector":"1"}},{"base_weights":[-0E0,7.327831E-2,-3.9888375E-2,-3.17664E-3,1.0329112E0,-1.6210398E-1,4.2789873E-2,1.1672574E-2,-4.8010913E-1,2.610103E-1,-0E0,-9.246117E-2,-3.014858E-1,3.72281E-1,-2.8494501E-2,-3.3559367E-2,5.444187E-1,-5.850402E-1,-0E0,-0E0,5.1111445E-2,-1.7983897E-1,5.5738095E-2,-4.7822797E-1,-4.9863186E-2,2.9652122E-1,2.378912E-1,-1.4157216E-1,4.1743387E-2,-0E0,-6.291815E-2,2.263348E-1,1.1603948E-2,-0E0,-1.5897948E-1,-7.5051216E-3,-6.834575E-2,1.5829317E-1,-2.9399965E-3,-1.4223897E-1,-0E0,1.33545725E-2,-7.129195E-2,1.2530805E-1,-0E0,-0E0,-7.446218E-2,4.80624E-2,-7.0160273E-3],"categories":[],"categories_nodes":[],"categories_segments":[],"categories_sizes":[],"default_left":[0,0,0,0,0,0,0,0,0,0,0,0,0,0,0,0,0,0,0,0,0,0,0,0,0,0,0,0,0,0,0,0,0,0,0,0,0,0,0,0,0,0,0,0,0,0,0,0,0],"id":25,"left_children":[1,3,5,7,9,11,13,15,17,-1,19,21,23,25,27,29,31,33,-1,-1,-1,35,37,39,41,43,-1,45,47,-1,-1,-1,-1,-1,-1,-1,-1,-1,-1,-1,-1,-1,-1,-1,-1,-1,-1,-1,-1],"loss_changes":[8.913553E0,8.33556E1,2.0727346E1,9.229706E0,2.190567E0,6.128475E0,2.9063976E1,2.5308567E1,1.67237E0,0E0,3.460903E-1,8.070983E0,8.687973E0,4.139929E0,8.017004E0,7.5566273E0,1.2417885E1,1.1631737E0,0E0,0E0,0E0,4.822895E0,1.1446708E1,1.0302568E1,4.3893414E0,1.2556723E1,0E0,9.1659155E0,7.4370317E0,0E0,0E0,0E0,0E0,0E0,0E0,0E0,0E0,0E0,0E0,0E0,0E0,0E0,0E0,0E0,0E0,0E0,0E0,0E0,0E0],"parents":[2147483647,0,0,1,1,2,2,3,3,4,4,5,5,6,6,7,7,8,8,10,10,11,11,12,12,13,13,14,14,15,15,16,16,17,17,21,21,22,22,23,23,24,24,25,25,27,27,28,28],"right_children":[2,4,6,8,10,12,14,16,18,-1,20,22,24,26,28,30,32,34,-1,-1,-1,36,38,40,42,44,-1,46,48,-1,-1,-1,-1,-1,-1,-1,-1,-1,-1,-1,-1,-1,-1,-1,-1,-1,-1,-1,-1],"split_conditions":[-1.8928673E-15,-1.6237204E-1,5.572327E-4,-1.64415E-1,-9.247877E-3,5.764327E-1,1.1552803E-1,-2.9105878E-1,7.709785E-1,2.610103E-1,-2.9618707E-1,8.352332E-2,7.088711E-1,9.5416784E-2,0E0,1.503372E0,-2.0193575E-1,-1.1382804E0,-0E0,-0E0,5.1111445E-2,-4.0995005E-1,6.599071E-1,9.853035E-1,7.231441E-1,5.3943526E-2,2.378912E-1,3.3231112E-1,6.241213E-1,-0E0,-6.291815E-2,2.263348E-1,1.1603948E-2,-0E0,-1.5897948E-1,-7.5051216E-3,-6.834575E-2,1.5829317E-1,-2.9399965E-3,-1.4223897E-1,-0E0,1.33545725E-2,-7.129195E-2,1.2530805E-1,-0E0,-0E0,-7.446218E-2,4.80624E-2,-7.0160273E-3],"split_indices":[14,14,14,14,14,16,14,14,16,0,16,15,15,14,12,3,14,13,0,0,0,9,15,5,11,14,0,2,14,0,0,0,0,0,0,0,0,0,0,0,0,0,0,0,0,0,0,0,0],"split_type":[0,0,0,0,0,0,0,0,0,0,0,0,0,0,0,0,0,0,0,0,0,0,0,0,0,0,0,0,0,0,0,0,0,0,0,0,0,0,0,0,0,0,0,0,0,0,0,0,0],"sum_hessian":[3.0610583E3,1.0679843E3,1.9930741E3,9.855824E2,8.240182E1,8.271092E2,1.1659648E3,9.471563E2,3.8426086E1,7.201448E1,1.038734E1,5.75585E2,2.515242E2,2.184703E2,9.4749457E2,8.657231E2,8.143318E1,3.0405804E1,8.020281E0,4.2558885E0,6.1314516E0,3.822081E2,1.933769E2,1.3602301E2,1.1550118E2,2.0358705E2,1.4883245E1,3.8864474E2,5.5884985E2,7.4919904E2,1.1652411E2,3.8070232E1,4.3362946E1,5.7116327E0,2.4694172E1,1.8437851E2,1.9782957E2,2.5088287E1,1.6828862E2,1.1127261E2,2.47504E1,6.881333E1,4.6687855E1,1.050839E2,9.850316E1,2.226547E2,1.6599004E2,1.8974738E2,3.6910248E2],"tree_param":{"num_deleted":"0","num_feature":"17","num_nodes":"49","size_leaf_vector":"1"}},{"base_weights":[3.825913E-3,-1.3199055E-1,2.6345463E-2,-2.0820016E-1,-0E0,7.7009946E-2,-5.8559906E-2,-9.6752316E-2,-4.6158686E-1,2.0938241E-1,-5.5443186E-2,4.8362672E-2,2.6561943E-1,-4.1488677E-1,-0E0,-2.8661442E-1,1.8691475E-2,-5.382053E-1,-0E0,-3.901506E-1,-0E0,8.102321E-2,-2.0686007E-1,-5.011969E-1,6.7104683E-3,-1.7336798E-1,6.480859E-2,-9.2070386E-2,-0E0,6.203349E-2,-3.4514256E-2,-1.3456146E-1,-0E0,-1.398559E-1,-0E0,4.025587E-2,-5.7860836E-2,3.6372286E-3,3.161993E-1,-1.822854E-1,-9.798857E-3,-1.4413345E-1,-0E0,3.8248193E-2,-0E0,-5.0431387E-3,-1.2914024E-1,4.2868257E-2,-1.7866444E-2],"categories":[],"categories_nodes":[],"categories_segments":[],"categories_sizes":[],"default_left":[0,0,0,0,0,0,0,0,0,0,0,0,0,0,0,0,0,0,0,0,0,0,0,0,0,0,0,0,0,0,0,0,0,0,0,0,0,0,0,0,0,0,0,0,0,0,0,0,0],"id":26,"left_children":[1,3,5,7,9,11,13,15,17,-1,19,21,-1,23,25,27,29,31,-1,33,35,37,39,41,43,45,47,-1,-1,-1,-1,-1,-1,-1,-1,-1,-1,-1,-1,-1,-1,-1,-1,-1,-1,-1,-1,-1,-1],"loss_changes":[8.782495E0,4.1076746E0,1.1425733E1,4.5212965E0,7.60992E0,4.5470203E1,1.987645E1,5.502114E0,2.0283413E0,0E0,3.9578795E0,1.31449995E1,0E0,7.254339E0,9.17399E0,4.51497E0,4.9219127E0,9.366274E-1,0E0,3.603374E0,4.5196776E0,1.1649404E2,1.2169691E1,6.5554523E0,2.7360728E-1,1.0029264E1,1.0518717E1,0E0,0E0,0E0,0E0,0E0,0E0,0E0,0E0,0E0,0E0,0E0,0E0,0E0,0E0,0E0,0E0,0E0,0E0,0E0,0E0,0E0,0E0],"parents":[2147483647,0,0,1,1,2,2,3,3,4,4,5,5,6,6,7,7,8,8,10,10,11,11,13,13,14,14,15,15,16,16,17,17,19,19,20,20,21,21,22,22,23,23,24,24,25,25,26,26],"right_children":[2,4,6,8,10,12,14,16,18,-1,20,22,-1,24,26,28,30,32,-1,34,36,38,40,42,44,46,48,-1,-1,-1,-1,-1,-1,-1,-1,-1,-1,-1,-1,-1,-1,-1,-1,-1,-1,-1,-1,-1,-1],"split_conditions":[-9.3472207E-1,-3.484343E-1,7.191872E-1,5.495348E-1,1.0113814E0,1.9913325E-2,-1.5060304E-1,-4.152142E-1,1.2040948E0,2.0938241E-1,2.2506365E-1,0E0,2.6561943E-1,2.20415E0,1.5398442E-3,1.1335206E0,-4.1025747E-2,1.7051457E0,-0E0,-8.969429E-1,5.913232E-1,-5.232184E-1,-6.6012174E-1,2.2506365E-1,6.4127564E-1,-4.09373E-1,3.9775744E-1,-9.2070386E-2,-0E0,6.203349E-2,-3.4514256E-2,-1.3456146E-1,-0E0,-1.398559E-1,-0E0,4.025587E-2,-5.7860836E-2,3.6372286E-3,3.161993E-1,-1.822854E-1,-9.798857E-3,-1.4413345E-1,-0E0,3.8248193E-2,-0E0,-5.0431387E-3,-1.2914024E-1,4.2868257E-2,-1.7866444E-2],"split_indices":[7,8,6,4,8,6,7,4,11,0,4,6,0,6,16,14,5,14,0,3,13,6,12,4,13,5,13,0,0,0,0,0,0,0,0,0,0,0,0,0,0,0,0,0,0,0,0,0,0],"split_type":[0,0,0,0,0,0,0,0,0,0,0,0,0,0,0,0,0,0,0,0,0,0,0,0,0,0,0,0,0,0,0,0,0,0,0,0,0,0,0,0,0,0,0,0,0,0,0,0,0],"sum_hessian":[3.0339963E3,4.0061084E2,2.6333853E3,2.5511285E2,1.4549799E2,1.6845201E3,9.488652E2,1.9131834E2,6.379451E1,7.843301E0,1.376547E2,1.645697E3,3.882317E1,1.3330045E2,8.1556476E2,8.735996E1,1.0395839E2,5.3635944E1,1.0158565E1,2.7705618E1,1.09949066E2,1.4762354E3,1.6946165E2,1.198735E2,1.3426945E1,2.2087009E2,5.9469464E2,7.474405E1,1.2615919E1,5.3149845E1,5.080854E1,4.950591E1,4.130036E0,2.1186943E1,6.5186753E0,7.347518E1,3.647389E1,1.4086456E3,6.758978E1,3.0468988E1,1.3899266E2,9.594216E1,2.393133E1,9.13241E0,4.294535E0,1.6757896E2,5.3291115E1,3.4136096E2,2.5333372E2],"tree_param":{"num_deleted":"0","num_feature":"17","num_nodes":"49","size_leaf_vector":"1"}},{"base_weights":[3.23246E-3,4.7906972E-2,-5.8483258E-2,3.205025E-2,2.2120823E-1,-4.5353243E-1,-5.3052516E-3,1.2295204E-1,-2.3047978E-2,-5.2967757E-1,1.0351644E-2,-8.744479E-2,1.3072428E-1,4.7223646E-2,1.0155114E0,-4.609638E-1,-0E0,-6.017614E-1,-0E0,-0E0,1.083466E-2,-6.0157293E-1,-5.11739E-2,2.5838336E-1,2.9010348E-2,2.163521E-2,-7.16049E-2,2.5253347E-1,-0E0,-1.6669758E-1,-0E0,-8.804157E-3,5.237223E-2,-1.5302245E-1,-0E0,-0E0,8.248055E-3,-1.8962108E-1,-0E0,-0E0,-8.468152E-2,-5.3264998E-2,2.9895352E-2],"categories":[],"categories_nodes":[],"categories_segments":[],"categories_sizes":[],"default_left":[0,0,0,0,0,0,0,0,0,0,0,0,0,0,0,0,0,0,0,0,0,0,0,0,0,0,0,0,0,0,0,0,0,0,0,0,0,0,0,0,0,0,0],"id":27,"left_children":[1,3,5,7,-1,9,11,13,15,17,19,21,23,25,27,29,31,33,35,-1,-1,37,39,-1,41,-1,-1,-1,-1,-1,-1,-1,-1,-1,-1,-1,-1,-1,-1,-1,-1,-1,-1],"loss_changes":[8.241241E0,2.0803074E1,2.3395016E1,9.318535E0,0E0,7.2123966E0,1.1931971E1,4.2110985E1,9.271071E0,5.794258E0,1.23936245E-2,9.889238E0,3.295621E1,9.452006E0,5.4066086E-1,8.104538E0,8.036884E0,4.314625E0,8.451647E-3,0E0,0E0,6.0982056E0,9.531859E0,0E0,8.614089E0,0E0,0E0,0E0,0E0,0E0,0E0,0E0,0E0,0E0,0E0,0E0,0E0,0E0,0E0,0E0,0E0,0E0,0E0],"parents":[2147483647,0,0,1,1,2,2,3,3,5,5,6,6,7,7,8,8,9,9,10,10,11,11,12,12,13,13,14,14,15,15,16,16,17,17,18,18,21,21,22,22,24,24],"right_children":[2,4,6,8,-1,10,12,14,16,18,20,22,24,26,28,30,32,34,36,-1,-1,38,40,-1,42,-1,-1,-1,-1,-1,-1,-1,-1,-1,-1,-1,-1,-1,-1,-1,-1,-1,-1],"split_conditions":[3.3461303E-1,2.761291E-1,3.520138E-1,-1.8928673E-15,2.2120823E-1,1.7739959E0,3.543816E-1,-1.6237204E-1,-1.9232335E0,1.163709E0,-1.9117567E-1,-1.3435128E0,6.9310606E-1,1.8389289E0,1.9826425E0,1.1376332E0,3.9112726E-3,2.351689E0,-4.152142E-1,-0E0,1.083466E-2,3.9112726E-3,1.5591028E0,2.5838336E-1,7.1137786E-1,2.163521E-2,-7.16049E-2,2.5253347E-1,-0E0,-1.6669758E-1,-0E0,-8.804157E-3,5.237223E-2,-1.5302245E-1,-0E0,-0E0,8.248055E-3,-1.8962108E-1,-0E0,-0E0,-8.468152E-2,-5.3264998E-2,2.9895352E-2],"split_indices":[12,12,12,14,0,11,2,14,12,16,7,14,2,3,6,3,10,9,4,0,0,10,15,0,2,0,0,0,0,0,0,0,0,0,0,0,0,0,0,0,0,0,0],"split_type":[0,0,0,0,0,0,0,0,0,0,0,0,0,0,0,0,0,0,0,0,0,0,0,0,0,0,0,0,0,0,0,0,0,0,0,0,0,0,0,0,0,0,0],"sum_hessian":[3.0051716E3,1.7882697E3,1.2169021E3,1.7636102E3,2.4659376E1,1.3274512E2,1.084157E3,6.9774115E2,1.065869E3,1.2273231E2,1.0012805E1,6.980991E2,3.860579E2,6.491666E2,4.857453E1,4.52006E1,1.02066846E3,1.1084348E2,1.1888823E1,4.796044E0,5.216761E0,3.6204853E1,6.618943E2,3.1002108E1,3.550558E2,5.8801605E2,6.11506E1,4.3196846E1,5.3776846E0,3.4136524E1,1.1064075E1,8.8696967E2,1.3369879E2,1.0342275E2,7.4207306E0,6.207428E0,5.681395E0,2.8644588E1,7.5602655E0,5.7724536E2,8.464893E1,8.4900055E1,2.7015573E2],"tree_param":{"num_deleted":"0","num_feature":"17","num_nodes":"43","size_leaf_vector":"1"}},{"base_weights":[2.3784422E-4,-6.6480027E-3,3.0124056E-1,1.4747856E-2,-1.326035E-1,-6.706882E-2,4.4585463E-1,9.634167E-5,2.66347E-1,-4.815831E-1,-1.9797169E-2,-7.210725E-2,-0E0,-0E0,4.9715474E-1,-1.5358034E-1,3.2190327E-2,-5.39271E-1,-0E0,1.9789122E-1,-6.1889086E-2,5.994008E-1,-0E0,-1.433948E-1,-3.1974522E-4,2.1748187E-1,4.2671366E-3,-1.3652182E-1,-0E0,-2.3760055E-3,-1.0248573E-1,1.6415559E-1,-0E0],"categories":[],"categories_nodes":[],"categories_segments":[],"categories_sizes":[],"default_left":[0,0,0,0,0,0,0,0,0,0,0,0,0,0,0,0,0,0,0,0,0,0,0,0,0,0,0,0,0,0,0,0,0],"id":28,"left_children":[1,3,5,7,9,11,13,15,-1,17,19,-1,-1,-1,21,23,25,27,-1,-1,29,31,-1,-1,-1,-1,-1,-1,-1,-1,-1,-1,-1],"loss_changes":[7.6013827E0,8.398145E0,6.2270265E0,3.50104E1,1.5491608E1,7.2214365E-1,1.89324E0,1.1396421E1,0E0,3.8453598E0,9.264188E0,0E0,0E0,0E0,3.1532984E0,2.4651249E1,2.090941E1,3.3082447E0,0E0,0E0,4.5732193E0,3.1034164E0,0E0,0E0,0E0,0E0,0E0,0E0,0E0,0E0,0E0,0E0,0E0],"parents":[2147483647,0,0,1,1,2,2,3,3,4,4,5,5,6,6,7,7,9,9,10,10,14,14,15,15,16,16,17,17,20,20,21,21],"right_children":[2,4,6,8,10,12,14,16,-1,18,20,-1,-1,-1,22,24,26,28,-1,-1,30,32,-1,-1,-1,-1,-1,-1,-1,-1,-1,-1,-1],"split_conditions":[3.818114E0,1.0113814E0,-2.213221E-1,3.6988356E-3,2.2506365E-1,2.751833E0,-2.7660063E-1,-7.193173E-1,2.66347E-1,2.4280965E0,5.495348E-1,-7.210725E-2,-0E0,-0E0,4.759665E0,-4.152142E-1,-3.8927874E-1,1.6052827E0,-0E0,1.9789122E-1,1.5591028E0,8.270721E-1,-0E0,-1.433948E-1,-3.1974522E-4,2.1748187E-1,4.2671366E-3,-1.3652182E-1,-0E0,-2.3760055E-3,-1.0248573E-1,1.6415559E-1,-0E0],"split_indices":[4,8,11,8,4,5,13,2,0,8,4,0,0,0,5,4,2,11,0,0,15,16,0,0,0,0,0,0,0,0,0,0,0],"split_type":[0,0,0,0,0,0,0,0,0,0,0,0,0,0,0,0,0,0,0,0,0,0,0,0,0,0,0,0,0,0,0,0,0],"sum_hessian":[2.9869082E3,2.9056543E3,8.125391E1,2.4521816E3,4.534726E2,1.3769444E1,6.748446E1,2.4259385E3,2.6243187E1,9.956297E1,3.539096E2,7.1829796E0,6.586465E0,5.763539E0,6.1720924E1,3.926978E2,2.0332407E3,9.24015E1,7.161477E0,1.01646805E1,3.4374493E2,5.089417E1,1.0826755E1,8.897186E1,3.0372595E2,2.4684052E1,2.0085566E3,8.819734E1,4.2041516E0,3.1439044E2,2.9354494E1,4.301399E1,7.8801794E0],"tree_param":{"num_deleted":"0","num_feature":"17","num_nodes":"33","size_leaf_vector":"1"}},{"base_weights":[3.8926193E-4,9.295056E-3,-3.3096367E-1,-1.1260437E-3,2.1827777E-1,-4.4103655E-1,-0E0,7.902092E-3,-2.7471304E-1,7.20812E-1,-0E0,-0E0,-4.8088348E-1,-0E0,2.2218883E-2,-1.517819E-1,1.3681628E-2,-4.0715533E-1,-0E0,-0E0,1.8676011E-1,-1.1341362E-1,9.936279E-2,-1.2407253E-1,-0E0,1.3854444E-2,-1.1639297E-2,-1.0868284E-1,-0E0,3.4166433E-2,-9.813615E-3,-0E0,1.4055364E-1],"categories":[],"categories_nodes":[],"categories_segments":[],"categories_sizes":[],"default_left":[0,0,0,0,0,0,0,0,0,0,0,0,0,0,0,0,0,0,0,0,0,0,0,0,0,0,0,0,0,0,0,0,0],"id":29,"left_children":[1,3,5,7,9,11,13,15,17,19,21,-1,23,-1,-1,-1,25,27,29,-1,-1,-1,31,-1,-1,-1,-1,-1,-1,-1,-1,-1,-1],"loss_changes":[7.202818E0,7.3471694E0,3.1049814E0,8.041863E0,1.4544081E1,9.3899345E-1,7.765789E-2,6.992989E0,4.968269E0,1.3268318E0,4.164783E0,0E0,7.5412464E-1,0E0,0E0,0E0,7.644019E0,2.6158094E0,4.7816938E-1,0E0,0E0,0E0,2.8540406E0,0E0,0E0,0E0,0E0,0E0,0E0,0E0,0E0,0E0,0E0],"parents":[2147483647,0,0,1,1,2,2,3,3,4,4,5,5,6,6,7,7,8,8,9,9,10,10,12,12,16,16,17,17,18,18,22,22],"right_children":[2,4,6,8,10,12,14,16,18,20,22,-1,24,-1,-1,-1,26,28,30,-1,-1,-1,32,-1,-1,-1,-1,-1,-1,-1,-1,-1,-1],"split_conditions":[2.1398492E0,1.5762753E0,1.8212048E0,2.0957565E0,2.4582984E0,-5.3838646E-1,1.8000923E-3,-2.4021707E0,5.6005836E-1,-3.670927E-1,-5.763343E-1,-0E0,2.251982E0,-0E0,2.2218883E-2,-1.517819E-1,3.3461303E-1,1.8477435E0,6.590673E-1,-0E0,1.8676011E-1,-1.1341362E-1,1.9265109E0,-1.2407253E-1,-0E0,1.3854444E-2,-1.1639297E-2,-1.0868284E-1,-0E0,3.4166433E-2,-9.813615E-3,-0E0,1.4055364E-1],"split_indices":[13,15,9,14,15,11,1,12,12,11,11,0,3,0,0,0,12,2,3,0,0,0,7,0,0,0,0,0,0,0,0,0,0],"split_type":[0,0,0,0,0,0,0,0,0,0,0,0,0,0,0,0,0,0,0,0,0,0,0,0,0,0,0,0,0,0,0,0,0],"sum_hessian":[2.958867E3,2.8964893E3,6.237769E1,2.7382E3,1.582895E2,5.0610172E1,1.1767518E1,2.6348718E3,1.03328064E2,4.1510666E1,1.1677885E2,4.153697E0,4.6456474E1,4.281467E0,7.486051E0,1.4693874E1,2.620178E3,7.641062E1,2.6917442E1,5.8975034E0,3.5613163E1,1.2142194E1,1.0463665E2,4.055735E1,5.8991275E0,1.5685112E3,1.0516666E3,7.0346504E1,6.064118E0,2.0646795E1,6.270646E0,9.496746E1,9.669191E0],"tree_param":{"num_deleted":"0","num_feature":"17","num_nodes":"33","size_leaf_vector":"1"}},{"base_weights":[-0E0,-4.5794882E-2,4.6379276E-2,-1.2304415E-2,-2.6859733E-1,2.678365E-1,6.4527164E-3,-9.2251614E-2,5.0443728E-2,-4.5180395E-1,-0E0,-3.6214352E-1,4.0627517E-2,-3.8461357E-1,-1.2671402E-2,2.557136E-1,5.3639878E-3,-5.005724E-1,-0E0,3.775434E-1,-1.1572643E-1,-6.633631E-1,-7.943801E-2,2.9160142E-1,-8.524657E-3,-0E0,-1.4250621E-1,-6.6908896E-2,6.37173E-3,2.495365E-2,-3.788405E-2,-1.3219754E-1,-0E0,1.269725E-1,-0E0,-7.053259E-2,-0E0,-2.0159957E-1,-0E0,-4.946459E-2,2.5568495E-2,-1.9565827E-1,3.5044197E-3],"categories":[],"categories_nodes":[],"categories_segments":[],"categories_sizes":[],"default_left":[0,0,0,0,0,0,0,0,0,0,0,0,0,0,0,0,0,0,0,0,0,0,0,0,0,0,0,0,0,0,0,0,0,0,0,0,0,0,0,0,0,0,0],"id":30,"left_children":[1,3,5,7,9,-1,11,13,15,17,19,21,23,25,27,-1,29,31,-1,33,35,37,39,-1,41,-1,-1,-1,-1,-1,-1,-1,-1,-1,-1,-1,-1,-1,-1,-1,-1,-1,-1],"loss_changes":[6.284766E0,9.57324E0,6.0169155E1,6.6846194E0,1.0297323E1,0E0,1.672369E1,1.2101247E1,2.7269247E1,3.1063023E0,3.8131454E0,5.860776E0,8.535948E1,8.996544E0,6.571742E0,0E0,1.110719E1,3.3520947E0,0E0,2.1291745E0,2.112709E0,3.0970058E0,2.181971E0,0E0,2.8966135E1,0E0,0E0,0E0,0E0,0E0,0E0,0E0,0E0,0E0,0E0,0E0,0E0,0E0,0E0,0E0,0E0,0E0,0E0],"parents":[2147483647,0,0,1,1,2,2,3,3,4,4,6,6,7,7,8,8,9,9,10,10,11,11,12,12,13,13,14,14,16,16,17,17,19,19,20,20,21,21,22,22,24,24],"right_children":[2,4,6,8,10,-1,12,14,16,18,20,22,24,26,28,-1,30,32,-1,34,36,38,40,-1,42,-1,-1,-1,-1,-1,-1,-1,-1,-1,-1,-1,-1,-1,-1,-1,-1,-1,-1],"split_conditions":[-2.1426098E-1,1.1499975E0,1.9966156E-16,-4.152142E-1,5.572327E-4,2.678365E-1,8.352332E-2,-1.0641505E0,-1.0149232E-1,2.1079395E0,1.8143426E-1,-4.9713093E-1,3.601752E-1,-8.569199E-1,-3.8797522E-1,2.557136E-1,-2.3928863E-1,2.1171114E0,-0E0,3.95998E-1,2.6095665E-1,1.19280934E-1,5.0049216E-1,2.9160142E-1,3.7376997E-1,-0E0,-1.4250621E-1,-6.6908896E-2,6.37173E-3,2.495365E-2,-3.788405E-2,-1.3219754E-1,-0E0,1.269725E-1,-0E0,-7.053259E-2,-0E0,-2.0159957E-1,-0E0,-4.946459E-2,2.5568495E-2,-1.9565827E-1,3.5044197E-3],"split_indices":[15,11,15,4,14,0,15,15,4,7,14,5,15,16,2,0,15,9,0,12,9,14,16,0,15,0,0,0,0,0,0,0,0,0,0,0,0,0,0,0,0,0,0],"split_type":[0,0,0,0,0,0,0,0,0,0,0,0,0,0,0,0,0,0,0,0,0,0,0,0,0,0,0,0,0,0,0,0,0,0,0,0,0,0,0,0,0,0,0],"sum_hessian":[2.9561814E3,1.4620413E3,1.4941401E3,1.2906226E3,1.7141872E2,4.707272E1,1.4470674E3,6.007533E2,6.898692E2,1.1032036E2,6.1098362E1,1.10038315E2,1.337029E3,1.1480348E2,4.8594983E2,2.311012E1,6.667591E2,1.0206478E2,8.255572E0,2.1864212E1,3.923415E1,4.4385136E1,6.5653175E1,5.5039185E1,1.2819899E3,4.5657375E1,6.914611E1,7.6234505E1,4.0971533E2,4.3326743E2,2.3349167E2,9.008407E1,1.1980719E1,1.7187082E1,4.6771293E0,2.800125E1,1.1232903E1,2.993346E1,1.4451678E1,5.3390476E1,1.2262701E1,3.9925705E1,1.2420642E3],"tree_param":{"num_deleted":"0","num_feature":"17","num_nodes":"43","size_leaf_vector":"1"}},{"base_weights":[-0E0,-1.7799456E-2,1.22067414E-1,-1.8734749E-1,-2.7350083E-4,2.6890495E-1,-1.0394883E-1,-0E0,-3.3624494E-1,1.1621491E-1,-4.9319226E-2,-4.7841698E-2,-3.272035E-1,2.4910276E-1,-2.404682E-1,-4.781167E-1,-0E0,3.8346864E-2,8.401056E-1,-1.494425E-1,1.7456021E-2,-1.4712544E-1,1.6483617E-1,-6.6779643E-1,-0E0,-0E0,1.2200373E-1,-1.1653622E-1,1.751167E-2,-1.2319536E-1,-0E0,2.4432277E-2,-1.2654653E-1,1.6476728E-2,-9.1655575E-2,2.1801347E-1,-0E0,-2.0569999E-2,-6.841369E-2,6.8985626E-2,-8.747292E-3,-0E0,-5.516796E-2,-0E0,1.0900254E-1,-0E0,-1.8465652E-1,-0E0,8.444148E-3],"categories":[],"categories_nodes":[],"categories_segments":[],"categories_sizes":[],"default_left":[0,0,0,0,0,0,0,0,0,0,0,0,0,0,0,0,0,0,0,0,0,0,0,0,0,0,0,0,0,0,0,0,0,0,0,0,0,0,0,0,0,0,0,0,0,0,0,0,0],"id":31,"left_children":[1,3,5,7,9,-1,11,13,15,17,19,21,23,25,27,29,31,33,35,37,39,41,43,45,47,-1,-1,-1,-1,-1,-1,-1,-1,-1,-1,-1,-1,-1,-1,-1,-1,-1,-1,-1,-1,-1,-1,-1,-1],"loss_changes":[6.325617E0,6.6847057E0,9.125249E1,6.7416587E0,1.3048146E1,0E0,1.9607217E0,5.3974905E0,4.185665E0,3.3222595E1,1.1833607E1,5.4060183E0,5.4593725E0,4.6481724E0,5.3978167E0,1.498188E0,4.35649E0,6.9089613E0,2.618431E0,4.3077307E0,1.615338E1,2.1353898E0,3.797902E0,9.751129E-1,1.0477363E-2,0E0,0E0,0E0,0E0,0E0,0E0,0E0,0E0,0E0,0E0,0E0,0E0,0E0,0E0,0E0,0E0,0E0,0E0,0E0,0E0,0E0,0E0,0E0,0E0],"parents":[2147483647,0,0,1,1,2,2,3,3,4,4,6,6,7,7,8,8,9,9,10,10,11,11,12,12,13,13,14,14,15,15,16,16,17,17,18,18,19,19,20,20,21,21,22,22,23,23,24,24],"right_children":[2,4,6,8,10,-1,12,14,16,18,20,22,24,26,28,30,32,34,36,38,40,42,44,46,48,-1,-1,-1,-1,-1,-1,-1,-1,-1,-1,-1,-1,-1,-1,-1,-1,-1,-1,-1,-1,-1,-1,-1,-1],"split_conditions":[3.9112726E-3,-1.3435128E0,9.972988E-1,-4.8852196E-1,-1.8928673E-15,2.6890495E-1,1.1139399E0,3.5868967E-1,5.66391E-1,-1.6237204E-1,5.572327E-4,5.3661734E-1,-3.6519554E-1,-1.179341E-1,1.8477435E0,1.271715E0,1.6157529E-1,-1.64415E-1,-9.247877E-3,6.9587874E-1,1.1552803E-1,-3.3948535E-1,2.9569578E-1,-7.3078877E-1,1.6413052E-3,-0E0,1.2200373E-1,-1.1653622E-1,1.751167E-2,-1.2319536E-1,-0E0,2.4432277E-2,-1.2654653E-1,1.6476728E-2,-9.1655575E-2,2.1801347E-1,-0E0,-2.0569999E-2,-6.841369E-2,6.8985626E-2,-8.747292E-3,-0E0,-5.516796E-2,-0E0,1.0900254E-1,-0E0,-1.8465652E-1,-0E0,8.444148E-3],"split_indices":[10,14,10,5,14,0,16,3,4,14,14,16,5,7,2,15,12,14,14,16,14,3,7,11,3,0,0,0,0,0,0,0,0,0,0,0,0,0,0,0,0,0,0,0,0,0,0,0,0],"split_type":[0,0,0,0,0,0,0,0,0,0,0,0,0,0,0,0,0,0,0,0,0,0,0,0,0,0,0,0,0,0,0,0,0,0,0,0,0,0,0,0,0,0,0,0,0,0,0,0,0],"sum_hessian":[2.919085E3,2.5498984E3,3.6918668E2,2.1237607E2,2.3375222E3,6.9477E1,2.997097E2,8.7573395E1,1.24802666E2,6.633001E2,1.6742222E3,2.5766635E2,4.2043316E1,4.7773975E1,3.9799423E1,7.9481384E1,4.532128E1,6.058762E2,5.7423897E1,6.9790173E2,9.763205E2,1.9119284E2,6.6473526E1,2.150132E1,2.0541994E1,2.0713696E1,2.7060278E1,2.9844034E1,9.955389E0,7.0517746E1,8.963641E0,3.283915E1,1.2482133E1,5.7491235E2,3.096391E1,4.9328598E1,8.095299E0,5.1327094E2,1.8463078E2,1.7463159E2,8.016889E2,7.937534E1,1.118175E2,4.1696438E1,2.477709E1,4.910051E0,1.6591269E1,1.3621517E1,6.9204774E0],"tree_param":{"num_deleted":"0","num_feature":"17","num_nodes":"49","size_leaf_vector":"1"}},{"base_weights":[-0E0,1.604895E-2,-1.2630397E-1,3.613209E-3,2.40504E-1,-3.6465806E-1,-0E0,5.682219E-2,-4.600475E-2,-1.2131708E-1,-7.4032295E-1,1.187096E-1,-1.4153366E-1,-1.8816245E-1,8.1737265E-2,-9.323739E-2,9.724754E-2,-2.9732883E-1,9.664812E-2,-2.2192371E-1,-0E0,1.3930898E-3,1.5681742E-1,-3.040228E-1,-0E0,-0E0,-1.3866585E-1,2.2228787E-2,-1.0548103E-1,-2.735118E-2,6.0268167E-2,1.1478286E-1,-0E0,-0E0,-8.856633E-2,-0E0,6.3941866E-2,5.1315892E-2,-3.9883148E-2,-1.08541824E-1,-0E0,-1.3976921E-2,2.4328545E-2],"categories":[],"categories_nodes":[],"categories_segments":[],"categories_sizes":[],"default_left":[0,0,0,0,0,0,0,0,0,0,0,0,0,0,0,0,0,0,0,0,0,0,0,0,0,0,0,0,0,0,0,0,0,0,0,0,0,0,0,0,0,0,0],"id":32,"left_children":[1,3,5,7,-1,9,11,13,15,17,19,21,23,25,27,29,31,33,35,-1,-1,37,-1,39,41,-1,-1,-1,-1,-1,-1,-1,-1,-1,-1,-1,-1,-1,-1,-1,-1,-1,-1],"loss_changes":[5.9246697E0,2.739312E1,1.0255102E1,6.7595067E0,0E0,6.4575396E0,3.6000195E0,7.275363E0,8.572807E0,4.052822E0,3.8565216E0,4.6043324E0,3.0240402E0,9.233655E0,6.743826E0,7.5650234E0,1.1592656E1,2.4643059E0,1.2973666E0,0E0,0E0,4.320374E0,0E0,3.3722878E0,3.9566863E-1,0E0,0E0,0E0,0E0,0E0,0E0,0E0,0E0,0E0,0E0,0E0,0E0,0E0,0E0,0E0,0E0,0E0,0E0],"parents":[2147483647,0,0,1,1,2,2,3,3,5,5,6,6,7,7,8,8,9,9,10,10,11,11,12,12,13,13,14,14,15,15,16,16,17,17,18,18,21,21,23,23,24,24],"right_children":[2,4,6,8,-1,10,12,14,16,18,20,22,24,26,28,30,32,34,36,-1,-1,38,-1,40,42,-1,-1,-1,-1,-1,-1,-1,-1,-1,-1,-1,-1,-1,-1,-1,-1,-1,-1],"split_conditions":[1.9826425E0,1.4007305E0,1.073168E0,-1.8621612E-3,2.40504E-1,5.8600247E-1,9.824238E-1,-1.5753644E0,7.088711E-1,1.0945439E0,8.910379E-1,1.8000923E-3,2.1411808E0,-1.7562698E-1,1.6478071E0,3.818114E0,1.5591028E0,-7.5351936E-1,-1.907716E-2,-2.2192371E-1,-0E0,2.0132701E0,1.5681742E-1,-5.1611745E-1,-3.582017E-1,-0E0,-1.3866585E-1,2.2228787E-2,-1.0548103E-1,-2.735118E-2,6.0268167E-2,1.1478286E-1,-0E0,-0E0,-8.856633E-2,-0E0,6.3941866E-2,5.1315892E-2,-3.9883148E-2,-1.08541824E-1,-0E0,-1.3976921E-2,2.4328545E-2],"split_indices":[6,6,2,13,0,3,1,13,15,7,13,1,2,11,11,4,15,3,2,0,0,7,0,9,14,0,0,0,0,0,0,0,0,0,0,0,0,0,0,0,0,0,0],"split_type":[0,0,0,0,0,0,0,0,0,0,0,0,0,0,0,0,0,0,0,0,0,0,0,0,0,0,0,0,0,0,0,0,0,0,0,0,0,0,0,0,0,0,0],"sum_hessian":[2.8927761E3,2.563898E3,3.2887823E2,2.5385608E3,2.5337074E1,1.1560864E2,2.1326959E2,1.2712936E3,1.2672673E3,7.875314E1,3.68555E1,1.1946733E2,9.380226E1,9.900799E1,1.1722856E3,9.783807E2,2.8888663E2,5.5463234E1,2.3289907E1,2.6222994E1,1.0632505E1,1.065786E2,1.288873E1,5.21864E1,4.161586E1,6.384266E1,3.5165325E1,1.153119E3,1.9166601E1,9.2958453E2,4.8796177E1,5.8275368E1,2.3061125E2,4.6318545E0,5.083138E1,4.031778E0,1.925813E1,5.908103E1,4.749757E1,3.7333874E1,1.4852527E1,9.847077E0,3.1768782E1],"tree_param":{"num_deleted":"0","num_feature":"17","num_nodes":"43","size_leaf_vector":"1"}},{"base_weights":[-0E0,-4.8935868E-2,4.2476952E-2,-1.8340306E-2,-1.7427981E-1,2.6205492E-1,-3.6145393E-2,-1.2048411E-1,4.022524E-2,-2.722484E-1,5.618957E-2,-2.0706505E-1,-8.845287E-3,-2.80671E-1,-0E0,3.8213617E-1,-0E0,-3.3773205E-1,1.0382268E-2,-7.202164E-2,3.211214E-1,-3.7482917E-1,-0E0,2.672798E-2,-1.0143779E-1,-6.3660927E-3,-8.996738E-2,1.866342E-2,-4.797511E-2,1.1312469E-1,-0E0,-1.03600575E-2,5.8781218E-2,-0E0,-9.940139E-2,-0E0,5.1510133E-2,-1.6529723E-1,-0E0,1.1400414E-1,-0E0,-1.1894646E-1,-0E0,4.8247054E-2,-6.715633E-2,2.8968042E-2,-1.175569E-2,-6.7472614E-2,-0E0],"categories":[],"categories_nodes":[],"categories_segments":[],"categories_sizes":[],"default_left":[0,0,0,0,0,0,0,0,0,0,0,0,0,0,0,0,0,0,0,0,0,0,0,0,0,0,0,0,0,0,0,0,0,0,0,0,0,0,0,0,0,0,0,0,0,0,0,0,0],"id":33,"left_children":[1,3,5,7,9,-1,11,13,15,17,19,21,23,25,27,29,31,33,35,37,39,41,43,45,47,-1,-1,-1,-1,-1,-1,-1,-1,-1,-1,-1,-1,-1,-1,-1,-1,-1,-1,-1,-1,-1,-1,-1,-1],"loss_changes":[5.985818E0,4.246275E0,1.3494023E2,7.0600724E0,6.325197E0,0E0,5.601407E0,7.6356263E0,1.0032694E1,4.8740797E0,3.1196907E0,4.965973E0,4.4805903E0,2.7150555E0,4.6384573E0,3.8935232E0,6.3927503E0,3.2156525E0,7.596753E-1,2.6955914E0,3.1126504E0,6.161046E0,5.330084E0,6.860977E0,6.9537253E0,0E0,0E0,0E0,0E0,0E0,0E0,0E0,0E0,0E0,0E0,0E0,0E0,0E0,0E0,0E0,0E0,0E0,0E0,0E0,0E0,0E0,0E0,0E0,0E0],"parents":[2147483647,0,0,1,1,2,2,3,3,4,4,6,6,7,7,8,8,9,9,10,10,11,11,12,12,13,13,14,14,15,15,16,16,17,17,18,18,19,19,20,20,21,21,22,22,23,23,24,24],"right_children":[2,4,6,8,10,-1,12,14,16,18,20,22,24,26,28,30,32,34,36,38,40,42,44,46,48,-1,-1,-1,-1,-1,-1,-1,-1,-1,-1,-1,-1,-1,-1,-1,-1,-1,-1,-1,-1,-1,-1,-1,-1],"split_conditions":[1.8000923E-3,1.0113814E0,9.935782E-1,-4.9713093E-1,2.8894494E0,2.6205492E-1,-6.529486E-1,1.7164329E-1,-4.8547778E-1,1.3578594E0,-3.085483E-1,-1.907716E-2,5.913232E-1,-3.5922804E-1,1.0539011E0,6.904939E-1,-3.484343E-1,-4.6401557E-1,-1.4698424E0,1.6870007E-2,4.098113E0,3.9112726E-3,5.508231E-1,-6.0756557E-2,6.7142725E-1,-6.3660927E-3,-8.996738E-2,1.866342E-2,-4.797511E-2,1.1312469E-1,-0E0,-1.03600575E-2,5.8781218E-2,-0E0,-9.940139E-2,-0E0,5.1510133E-2,-1.6529723E-1,-0E0,1.1400414E-1,-0E0,-1.1894646E-1,-0E0,4.8247054E-2,-6.715633E-2,2.8968042E-2,-1.175569E-2,-6.7472614E-2,-0E0],"split_indices":[1,8,1,5,4,0,11,16,5,14,3,2,13,16,2,11,8,14,11,13,9,10,3,3,11,0,0,0,0,0,0,0,0,0,0,0,0,0,0,0,0,0,0,0,0,0,0,0,0],"split_type":[0,0,0,0,0,0,0,0,0,0,0,0,0,0,0,0,0,0,0,0,0,0,0,0,0,0,0,0,0,0,0,0,0,0,0,0,0,0,0,0,0,0,0,0,0,0,0,0,0],"sum_hessian":[2.87427E3,1.3467998E3,1.5274701E3,1.1141748E3,2.3262497E2,1.0684419E2,1.420626E3,4.353026E2,6.788722E2,1.7762865E2,5.499633E1,1.7058316E2,1.2500428E3,1.7624754E2,2.5905505E2,7.514043E1,6.037318E2,1.57752E2,1.9876652E1,2.5459305E1,2.9537025E1,8.6640396E1,8.3942764E1,8.66409E2,3.8363376E2,6.518613E1,1.11061424E2,1.7715657E2,8.189849E1,6.2976887E1,1.2163544E1,5.200569E2,8.367488E1,4.1023212E1,1.1672878E2,5.30419E0,1.4572462E1,4.56078E0,2.0898523E1,2.5234407E1,4.302617E0,7.020914E1,1.6431261E1,4.3639458E1,4.030331E1,4.1002396E2,4.5638507E2,1.297038E2,2.5392998E2],"tree_param":{"num_deleted":"0","num_feature":"17","num_nodes":"49","size_leaf_vector":"1"}},{"base_weights":[5.568102E-4,-8.178115E-2,2.7284315E-2,-5.191351E-1,-1.6320484E-2,2.1777648E-1,1.1546423E-2,-0E0,-6.6039497E-1,3.9123286E-2,-2.0756689E-1,5.237933E-2,-8.608052E-2,2.9859805E-4,-3.0173074E-2,-0E0,-1.6458234E-1,-4.40886E-2,1.940111E-1,-3.844992E-1,-0E0,-0E0,2.4148563E-1,-1.588899E-1,8.970907E-2,-5.8317784E-2,-0E0,1.4605619E-2,-2.894783E-2,2.1445812E-5,1.0468632E-1,-1.08052336E-1,-0E0,-6.7095704E-2,3.0560724E-2,2.9439906E-2,-1.5788572E-2,2.0369779E-1,2.1403877E-2,2.480989E-2,-4.2540632E-2,-0E0,7.7889584E-2],"categories":[],"categories_nodes":[],"categories_segments":[],"categories_sizes":[],"default_left":[0,0,0,0,0,0,0,0,0,0,0,0,0,0,0,0,0,0,0,0,0,0,0,0,0,0,0,0,0,0,0,0,0,0,0,0,0,0,0,0,0,0,0],"id":34,"left_children":[1,3,5,7,9,-1,11,13,15,17,19,21,23,-1,25,-1,-1,27,29,31,33,35,37,39,41,-1,-1,-1,-1,-1,-1,-1,-1,-1,-1,-1,-1,-1,-1,-1,-1,-1,-1],"loss_changes":[6.0188684E0,1.6199923E1,2.678456E1,5.2855415E0,6.9706645E0,0E0,8.480464E0,1.2691755E-2,2.2101402E-1,6.290096E0,6.8354383E0,1.4514863E1,8.087408E0,0E0,4.602491E-1,0E0,0E0,2.5292053E0,6.29518E0,3.567233E0,1.8011342E0,1.0816689E1,2.577816E1,3.1367598E0,3.223235E0,0E0,0E0,0E0,0E0,0E0,0E0,0E0,0E0,0E0,0E0,0E0,0E0,0E0,0E0,0E0,0E0,0E0,0E0],"parents":[2147483647,0,0,1,1,2,2,3,3,4,4,6,6,7,7,8,8,9,9,10,10,11,11,12,12,14,14,17,17,18,18,19,19,20,20,21,21,22,22,23,23,24,24],"right_children":[2,4,6,8,10,-1,12,14,16,18,20,22,24,-1,26,-1,-1,28,30,32,34,36,38,40,42,-1,-1,-1,-1,-1,-1,-1,-1,-1,-1,-1,-1,-1,-1,-1,-1,-1,-1],"split_conditions":[-7.193173E-1,-4.152142E-1,-3.8927874E-1,-7.2660226E-1,-4.910272E-1,2.1777648E-1,-3.3631235E-1,-7.771616E-1,-1.0930723E0,-9.3472207E-1,2.055242E0,-5.1611745E-1,1.9928321E0,2.9859805E-4,-7.805804E-1,-0E0,-1.6458234E-1,8.378612E-2,5.572327E-4,1.2924873E0,-4.8899114E-1,2.071478E-1,-4.8796245E-1,-1.4754494E0,7.487016E-1,-5.8317784E-2,-0E0,1.4605619E-2,-2.894783E-2,2.1445812E-5,1.0468632E-1,-1.08052336E-1,-0E0,-6.7095704E-2,3.0560724E-2,2.9439906E-2,-1.5788572E-2,2.0369779E-1,2.1403877E-2,2.480989E-2,-4.2540632E-2,-0E0,7.7889584E-2],"split_indices":[2,4,2,14,3,0,5,11,12,7,9,9,9,0,3,0,0,5,14,12,14,3,9,14,12,0,0,0,0,0,0,0,0,0,0,0,0,0,0,0,0,0,0],"split_type":[0,0,0,0,0,0,0,0,0,0,0,0,0,0,0,0,0,0,0,0,0,0,0,0,0,0,0,0,0,0,0,0,0,0,0,0,0,0,0,0,0,0,0],"sum_hessian":[2.850977E3,6.5434216E2,2.1966348E3,7.47048E1,5.796374E2,3.127048E1,2.1653643E3,1.6840988E1,5.786382E1,4.306927E2,1.4894469E2,1.5616116E3,6.037528E2,4.0073996E0,1.2833589E1,6.7132907E0,5.1150528E1,2.6063776E2,1.7005493E2,8.886362E1,6.008107E1,1.2402847E3,3.2132693E2,4.462003E2,1.575525E2,6.49038E0,6.3432083E0,8.610225E1,1.745355E2,1.0772978E2,6.232515E1,7.773685E1,1.1126769E1,1.0147462E1,4.993361E1,4.5325497E2,7.8702966E2,5.4574398E1,2.6675253E2,1.9063505E1,4.2713678E2,1.1817418E2,3.937833E1],"tree_param":{"num_deleted":"0","num_feature":"17","num_nodes":"43","size_leaf_vector":"1"}},{"base_weights":[2.881473E-4,-4.492208E-2,3.0942695E-2,-1.7877271E-2,-4.206372E-1,2.3182996E-1,3.2995315E-3,4.179061E-2,-1.23188496E-1,-6.997532E-1,-0E0,-1.3470879E-1,3.585913E-2,-1.0684139E-2,2.3746759E-1,-1.8276995E-1,1.7079473E-1,-7.761603E-1,-0E0,4.679053E-2,-1.24416724E-1,9.037102E-3,-2.3868552E-1,4.2840028E-1,-9.6367225E-3,-9.535703E-2,7.2393524E-3,8.0894165E-2,-2.7468165E-2,-5.7019852E-2,2.3570236E-2,-0E0,6.990999E-2,-0E0,-1.9922425E-1,-7.74648E-2,-0E0,5.3544454E-2,-8.5487485E-2,-7.73227E-2,-0E0,2.8443182E-1,-0E0,-4.6974562E-2,1.0880003E-2],"categories":[],"categories_nodes":[],"categories_segments":[],"categories_sizes":[],"default_left":[0,0,0,0,0,0,0,0,0,0,0,0,0,0,0,0,0,0,0,0,0,0,0,0,0,0,0,0,0,0,0,0,0,0,0,0,0,0,0,0,0,0,0,0,0],"id":35,"left_children":[1,3,5,7,9,-1,11,13,15,17,19,21,23,25,27,29,31,33,-1,-1,35,37,39,41,43,-1,-1,-1,-1,-1,-1,-1,-1,-1,-1,-1,-1,-1,-1,-1,-1,-1,-1,-1,-1],"loss_changes":[3.8662615E0,8.911166E0,4.186438E1,6.828666E0,6.516733E0,0E0,7.2217937E0,7.508314E0,7.0900655E0,1.4675274E0,6.235629E-1,5.5652404E0,2.7242012E1,9.684734E0,6.992427E0,6.733674E0,2.5976925E0,7.913933E-1,0E0,0E0,1.3074751E0,8.292877E0,4.1649046E0,5.8925327E1,1.4271481E1,0E0,0E0,0E0,0E0,0E0,0E0,0E0,0E0,0E0,0E0,0E0,0E0,0E0,0E0,0E0,0E0,0E0,0E0,0E0,0E0],"parents":[2147483647,0,0,1,1,2,2,3,3,4,4,6,6,7,7,8,8,9,9,10,10,11,11,12,12,13,13,14,14,15,15,16,16,17,17,20,20,21,21,22,22,23,23,24,24],"right_children":[2,4,6,8,10,-1,12,14,16,18,20,22,24,26,28,30,32,34,-1,-1,36,38,40,42,44,-1,-1,-1,-1,-1,-1,-1,-1,-1,-1,-1,-1,-1,-1,-1,-1,-1,-1,-1,-1],"split_conditions":[-3.8797522E-1,7.191872E-1,-2.8483812E-2,-5.2375907E-1,4.067755E-1,2.3182996E-1,-1.907716E-2,-7.193173E-1,1.1723663E0,1.2559144E0,-9.851297E-1,-4.128035E-1,3.3231112E-1,-4.152142E-1,8.8196975E-1,2.8894494E0,-8.385657E-1,-7.751682E-1,-0E0,4.679053E-2,1.0722857E0,2.7098218E-1,7.088711E-1,-7.2278526E-17,3.543816E-1,-9.535703E-2,7.2393524E-3,8.0894165E-2,-2.7468165E-2,-5.7019852E-2,2.3570236E-2,-0E0,